tree
version=v4
num_class=1
num_tree_per_iteration=1
label_index=0
max_feature_idx=145
objective=lambdarank
feature_names=pop_pct era_pop_pct within_artist_pop release_year has_year tag_count n_artists artist_track_count duration_ms cf_last cf_centroid cf_drift clap_last clap_centroid siglip_centroid b1_cos same_artist_session same_artist_last same_album_last same_album_any album_played_count artist_played_count artist_share turn_number_f n_played has_history user_cf has_user_vec age_era_affinity culture_match age_group gender session_minus_release_year tag_overlap tag_overlap_idf n_exact_tier max_tag_match_score tag_emb_cos title_request_overlap has_constraint request_type intent_mode target_artist_mode routing_lyric routing_visual routing_exact temporal_strength year_in_constraint n_facts wants_new_artist q06_lyric_cos msg_meta_cos msg_attr_cos msg_lyr_cos ctx_meta_cos lex_overlap_idf title_in_msg wants_new_proxy x_same_artist_wants_new x_cflast_turn x_era_hard x_pop_within_artist n_same_artist_in_union artist_best_rank_in_union same_artist_as_abandoned tag_overlap_abandoned artist_mention rejected_artist_proxy rank__bm25 score__bm25 margin__bm25 ratio__bm25 hit__bm25 rank__centroid.anchor_tracks.audio_laion_clap score__centroid.anchor_tracks.audio_laion_clap margin__centroid.anchor_tracks.audio_laion_clap ratio__centroid.anchor_tracks.audio_laion_clap hit__centroid.anchor_tracks.audio_laion_clap rank__centroid.anchor_tracks.cf_bpr score__centroid.anchor_tracks.cf_bpr margin__centroid.anchor_tracks.cf_bpr ratio__centroid.anchor_tracks.cf_bpr hit__centroid.anchor_tracks.cf_bpr rank__centroid.anchor_tracks.image_siglip2 score__centroid.anchor_tracks.image_siglip2 margin__centroid.anchor_tracks.image_siglip2 ratio__centroid.anchor_tracks.image_siglip2 hit__centroid.anchor_tracks.image_siglip2 rank__centroid.user.cf_bpr score__centroid.user.cf_bpr margin__centroid.user.cf_bpr ratio__centroid.user.cf_bpr hit__centroid.user.cf_bpr rank__dense.clap_text.sonic_nl.audio_laion_clap score__dense.clap_text.sonic_nl.audio_laion_clap margin__dense.clap_text.sonic_nl.audio_laion_clap ratio__dense.clap_text.sonic_nl.audio_laion_clap hit__dense.clap_text.sonic_nl.audio_laion_clap rank__dense.qwen_0_6b.lyric.lyrics_qwen3_embedding_0_6b score__dense.qwen_0_6b.lyric.lyrics_qwen3_embedding_0_6b margin__dense.qwen_0_6b.lyric.lyrics_qwen3_embedding_0_6b ratio__dense.qwen_0_6b.lyric.lyrics_qwen3_embedding_0_6b hit__dense.qwen_0_6b.lyric.lyrics_qwen3_embedding_0_6b rank__dense.qwen_8b.attributes.attributes_qwen3_embedding_8b score__dense.qwen_8b.attributes.attributes_qwen3_embedding_8b margin__dense.qwen_8b.attributes.attributes_qwen3_embedding_8b ratio__dense.qwen_8b.attributes.attributes_qwen3_embedding_8b hit__dense.qwen_8b.attributes.attributes_qwen3_embedding_8b rank__dense.qwen_8b.metadata.metadata_qwen3_embedding_8b score__dense.qwen_8b.metadata.metadata_qwen3_embedding_8b margin__dense.qwen_8b.metadata.metadata_qwen3_embedding_8b ratio__dense.qwen_8b.metadata.metadata_qwen3_embedding_8b hit__dense.qwen_8b.metadata.metadata_qwen3_embedding_8b rank__lookup.era_popularity score__lookup.era_popularity margin__lookup.era_popularity ratio__lookup.era_popularity hit__lookup.era_popularity rank__lookup.resolved_artist_discography score__lookup.resolved_artist_discography margin__lookup.resolved_artist_discography ratio__lookup.resolved_artist_discography hit__lookup.resolved_artist_discography z__score__bm25 z__score__centroid.anchor_tracks.audio_laion_clap z__score__centroid.anchor_tracks.cf_bpr z__score__centroid.anchor_tracks.image_siglip2 z__score__centroid.user.cf_bpr z__score__dense.clap_text.sonic_nl.audio_laion_clap z__score__dense.qwen_0_6b.lyric.lyrics_qwen3_embedding_0_6b z__score__dense.qwen_8b.attributes.attributes_qwen3_embedding_8b z__score__dense.qwen_8b.metadata.metadata_qwen3_embedding_8b z__score__lookup.era_popularity z__score__lookup.resolved_artist_discography pct_pop_pct pct_era_pop_pct pct_cf_last pct_cf_centroid pct_user_cf pct_tag_overlap_idf pct_msg_meta_cos pct_lex_overlap_idf is_played_track rejected_artist_exact rejected_track_exact violates_new_artist
monotone_constraints=0 0 0 0 0 0 0 0 0 0 0 0 0 0 0 0 0 0 0 0 0 0 0 0 0 0 0 0 0 0 0 0 0 0 0 0 0 0 0 0 0 0 0 0 0 0 0 0 0 0 0 0 0 0 0 0 0 0 0 0 0 0 0 0 0 0 0 0 0 0 0 0 0 0 0 0 0 0 0 0 0 0 0 0 0 0 0 0 0 0 0 0 0 0 0 0 0 0 0 0 0 0 0 0 0 0 0 0 0 0 0 0 0 0 0 0 0 0 0 0 0 0 0 0 0 0 0 0 0 0 0 0 0 0 0 0 0 0 0 0 0 0 -1 0 0 0
feature_infos=[0:0.99997878074645996] [0:0.99967086315155029] [0:1] [1900:2022] [0:1] [0:105] [1:33] [1:156] [0:2558287] [-0.36778783798217773:0.67524480819702148] [-0.38942843675613403:0.76234829425811768] [-0.49856498837471008:0.57592475414276123] [-0.12069916725158691:0.96356219053268433] [-0.095955520868301392:0.96286123991012573] [0:1.0000001192092896] [-0.18239791691303253:0.93059873580932617] [0:1] [0:1] [0:1] [0:1] [0:7] [0:7] [0:1] [1:8] [0:7] [0:1] [-0.37245333194732666:0.70741677284240723] [0:1] [0:1] [0:5] -1:1:0:2:3:4 -1:1:0 [-3:120] [0:9] [0:40.319244384765625] [0:18] [0:1] [0.42942476272583008:1.0000002384185791] [0:1] [0:1] -1:0:5:7:4:3:8:9:6:2 -1:0:2:1 -1:2:0:1 [0:1] [0:1] [0:1] -1:0:2:1 [0:1] [0:21] [0:1] [0:0.89740896224975586] [0:0.87827008962631226] [0:0.89993870258331299] [0:0.78022575378417969] [0:0.87827008962631226] [0:52.814388275146484] [0:1] [0:1] [0:1] [-0.36778783798217773:0.63889771699905396] [0:1] [0:0.99997878074645996] [1:156] [1:500] [0:1] [0:1] [0:1] [0:1] [1:500] [2.8130803108215332:241.3311767578125] [0:289.87506103515625] [0.027789466083049774:1] [0:1] [1:500] [0.38502848148345947:1.0000001192092896] [0:0.59108150005340576] [0.39445194602012634:1] [0:1] [1:500] [0.19300007820129395:1] [0:0.80048930644989014] [0.19951069355010986:1] [0:1] [1:500] [0.46750378608703613:1.0000002384185791] [0:0.52984416484832764] [0.47015595436096191:1] [0:1] [1:500] [0.1967042088508606:0.70741677284240723] [0:0.39424610137939453] [0.35865065455436707:1] [0:1] [1:500] [0.14245855808258057:0.73847335577011108] [0:0.33311551809310913] [0.37285336852073669:1] [0:1] [1:500] [0.43056297302246094:0.89853250980377197] [0:0.4106941819190979] [0.51180899143218994:1] [0:1] [1:500] [0.60678684711456299:1.0000001192092896] [0:0.18026280403137207] [0.80384272336959839:1] [0:1] [1:500] [0.16043853759765625:0.83649575710296631] [0:0.37965339422225952] [0.52514642477035522:1] [0:1] [1:200] [1:200] [0:199] [0.004999999888241291:1] [0:1] [1:204] [1:203] [0:203] [0.015151515603065491:1] [0:1] [-1.8864398002624512:9.074030876159668] [-1.7951846122741699:6.9452300071716309] [-1.6004805564880371:15.786344528198242] [-1.6631371974945068:13.853471755981445] [-1.6095058917999268:6.7010288238525391] [-1.5078805685043335:6.109107494354248] [-1.1245211362838745:7.6799545288085938] [-2.4157242774963379:7.3682093620300293] [-1.3872084617614746:12.595741271972656] [-1.723412036895752:1.7383773326873779] [-1.7253243923187256:1.8554009199142456] [0:1] [0:1] [0:1] [0:1] [0:1] [0:1] [0:1] [0:1] none [0:1] none [0:1]
tree_sizes=14273 14354 14368 14329 14413 14370 14380 14339 14390 14411 14340 14374 14373 14392 14374 14409 14399 14408 14377 14379 14376 14369 14428 14373 14368 14436 14401 14405 14445 14392 14389 14400 14399 14416 14360 14417 14391 14379 14404 14396 14370 14428 14351 14414 14327 14405 14394 14448 14435 14405 14395 14385 14434 14407 14385 14436 14385 14446 14410 14417 14369 14375 14443 14413 14419 14394 14440 14429 14395 14424 14443 14453 14429 14467 14435 14372 14398 14444 14382 14433 14400 14400 14425 14373 14440 14377 14404 14407 14440 14376 14397 14386 14350 14330 14326 14416 14373 14454 14418 14375 14377 14426 14410 14358 14395 14410 14419 14408 14459 14437 14387 14374 14451 14429 14444 14435 14369 14344 14326 14422 14426 14409 14418 14388 14387 14430 14289 14408 14386 14347 14455 14424 14410 14451 14420 14372 14274 14359 14434 14392 14393 14364 14490 14398 14296 14285 14451 14413 14362 14345 14426 14428 14374 14368 14437 14422 14432 14341 14467 14330 14248 14438 14345 14384 14290 14382 14447 14351 14356 14454 14426 14410 14358 14365 14397 14379 14426 14435 14404 14330 14364 14449 14444 14459 14357 14431 14411 14424 14341 14330 14417 14421 14388 14370 14395 14382 14304 14430 14472 14486 14510 14400 14365 14386 14398 14386 14452 14409 14312

Tree=0
num_leaves=127
num_cat=7
split_feature=15 15 16 15 21 2 22 7 15 7 138 138 42 108 2 62 13 15 41 40 68 63 23 131 70 68 106 41 51 71 61 11 123 42 37 13 129 137 138 138 123 135 130 19 6 15 130 118 8 15 2 19 69 104 68 22 137 7 59 138 8 108 136 61 7 8 139 10 71 69 13 7 7 2 62 90 71 23 73 38 138 88 68 37 70 62 71 17 68 70 50 48 137 26 109 54 37 104 70 109 70 109 68 137 68 41 62 42 123 68 76 7 11 69 11 63 139 109 9 38 103 106 70 110 12 62
split_gain=33546.3 3140.85 2442 1416.15 959.155 670.377 482.42 368.552 254.167 250.237 205.096 183.098 176.653 167.255 162.145 125.181 117.166 111.98 111.355 106.36 102.945 137.399 116.753 103.112 102.438 99.588 99.7892 94.9416 93.3644 97.0214 92.0866 87.7296 83.5824 72.3336 69.3155 66.9923 76.7059 66.4969 66.1162 59.8592 59.5544 59.1952 59.0032 58.8866 58.7823 57.3661 65.4049 56.8491 56.4115 77.1746 53.8215 52.117 87.6132 51.3067 51.6403 50.1463 51.5444 50.0271 48.9852 48.8179 48.7806 48.153 86.5302 48.0868 45.3025 44.5483 63.8892 55.1743 54.6465 43.0411 47.2473 42.6904 42.6443 42.1345 42.1048 42.0879 41.6994 46.0122 47.338 41.6349 41.8995 40.3412 39.1323 39.0523 65.5753 38.535 48.9337 43.6534 38.448 38.4338 37.6946 37.54 37.529 50.755 37.3562 43.0673 37.2648 37.1822 36.9699 60.0925 62.5773 36.8945 36.4854 43.571 35.7273 38.9583 39.9477 35.6693 34.9863 51.467 34.9809 45.7508 34.7272 44.406 42.1307 34.6364 34.6162 34.5381 34.171 33.8283 33.7304 33.477 44.5132 33.047 32.9834 32.8033
threshold=0.52584344148635875 0.64749529957771312 1.0000000180025095e-35 0.39072617888450628 1.0000000180025095e-35 0.88273492455482494 0.22500000149011615 7.5000000000000009 0.71883752942085277 6.5000000000000009 0.79022145271301281 0.67207843065261852 0 3.5000000000000004 0.87957385182380687 9.5000000000000018 0.69593143463134777 0.27705064415931707 1 2 180.50000000000003 27.500000000000004 3.5000000000000004 1.1982630491256716 18.202205657958988 203.50000000000003 0.90930163860321056 3 0.49061338603496557 0.80602154135704052 0.85587549209594738 0.23099606484174731 -0.033998653292655938 4 0.92465153336524974 0.76758062839508068 0.96416443586349498 0.96010866761207592 0.65229234099388134 0.55270564556121837 -0.28517314791679377 0.94142386317253124 0.84205645322799694 1.0000000180025095e-35 1.5000000000000002 0.48326353728771215 -0.53785070776939381 30.500000000000004 303933.00000000006 0.47405402362346655 0.87434211373329174 1.0000000180025095e-35 53.049098968505866 0.84640139341354381 182.50000000000003 1.0000000180025095e-35 0.85848754644393932 32.500000000000007 0.14940894395112994 0.98078617453575145 340368.00000000006 111.50000000000001 0.78068605065345775 0.84263673424720775 24.500000000000004 308873.00000000006 0.85474354028701793 1.0000000180025095e-35 0.8579118847846986 42.889150619506843 0.85098358988761913 19.500000000000004 108.00000000000001 0.99677419662475597 28.500000000000004 0.16709777712821963 0.71027672290802013 3.5000000000000004 151.50000000000003 0.34848485887050634 0.30015267431735998 192.50000000000003 226.50000000000003 0.90036988258361828 6.8889484405517587 19.500000000000004 0.65642485022544872 1.0000000180025095e-35 38.500000000000007 59.373405456542976 0.43082374334335333 4.5000000000000009 0.64495399594306957 0.29060730338096624 0.58086538314819347 0.28822949528694158 0.73875766992568981 0.78010785579681408 21.263660430908207 0.57188820838928234 10.261741638183596 0.5410546362400056 132.50000000000003 0.62114593386650097 120.50000000000001 5 9.5000000000000018 6 3.8417288064956669 237.50000000000003 0.83088168501853954 16.500000000000004 -0.10822035744786261 96.897552490234389 0.1664855629205704 159.50000000000003 0.34047301113605505 0.51865941286087047 0.15061554312705996 0.34848485887050634 82.500000000000014 0.91679218411445629 31.777164459228519 0.10703709721565248 0.61817473173141491 12.500000000000002
decision_type=2 2 2 2 2 2 2 2 2 2 10 10 1 8 2 2 10 2 1 9 8 2 2 10 8 8 10 1 2 10 2 8 10 1 8 8 10 8 10 8 10 2 10 2 2 2 10 8 2 2 2 2 10 10 8 2 8 2 8 10 2 8 8 2 2 2 2 10 10 8 10 2 2 2 2 8 10 2 8 2 8 8 10 10 8 2 10 2 8 10 8 2 10 10 8 2 8 8 8 10 10 8 8 10 8 1 2 1 10 8 8 2 10 10 10 2 2 8 10 2 10 10 8 8 10 2
left_child=2 4 3 17 5 9 8 12 14 24 13 20 -5 37 15 83 45 -1 -12 40 22 27 23 60 -2 26 44 -22 29 55 61 32 -10 -13 75 -19 42 -9 48 91 -7 -24 63 47 65 46 59 -8 49 -18 -34 52 -4 54 112 56 81 -29 -46 -14 -11 62 -15 94 -56 66 67 -21 -68 -36 71 -71 -73 -54 -49 -35 -16 -78 -79 80 -47 -17 110 -3 -85 -6 -87 120 -72 -84 -28 117 93 -65 95 -37 -97 -32 99 100 -76 -80 103 -93 -99 -106 -107 -41 109 -83 111 -63 113 -20 -114 -104 -66 -26 -70 -64 -88 122 -51 -82 -89 -118
right_child=1 6 51 7 85 19 43 10 31 11 18 33 16 30 76 28 38 35 53 25 21 -23 41 -25 39 -27 90 57 -30 -31 97 -33 50 34 69 36 -38 -39 -40 107 -42 -43 -44 -45 58 79 -48 74 -50 121 -52 -53 73 -55 64 -57 -58 -59 -60 -61 -62 82 119 92 116 -67 68 -69 118 70 88 72 -74 -75 98 -77 77 78 101 -81 123 108 89 84 -86 86 87 124 -90 -91 -92 102 -94 -95 -96 96 -98 104 -100 -101 -102 -103 115 -105 105 106 -108 -109 -110 -111 -112 -113 114 -115 -116 -117 125 -119 -120 -121 -122 -123 -124 -125 -126 -127
leaf_value=-0.049263646071924565 -0.034311001725719735 0.037894380633846765 0.034001412089634447 -0.04620977834013773 0.044928948165878335 -0.032151175198124493 0.047761141843624969 -0.049999999999999968 0.043986602048844442 -0.033315868328436984 -0.040739743141099564 -0.041847290643378506 -0.030602166855352678 -0.040949763718922297 0.037502618781781974 0.027037403682842714 -0.030512163449032383 -0.04467903265564642 -0.026053673231798788 0.003205287298177829 -0.035722797384045567 -0.033813806749372254 -0.04371687479726008 0.022947172847575439 0.017202999246141538 0.028976439423125579 -0.039318830112386488 0.015367873332075167 0.025234225744891543 -0.043070778908149879 0.026885628787017675 0.044677141691364351 0.015372545449017278 0.030555631863295969 0.022583063088201304 0.031522498708383292 0.038606707644319282 0.047107007230172457 0.01817884459098176 -0.037498830893904808 0.022654143321064066 0.028305722019268467 0.0068450233076948674 0.047705334281190052 -0.047685851698932524 -0.029367292229054126 -0.0012675073465696599 0.043519968726715617 0.014205961322730547 -0.050000000000000003 0.034108704450046962 0.043875938837883405 -0.049999999999999989 0.035265030297035004 0.011865532697613821 0.032101723153705984 0.014296134383736498 -0.0092027390794849374 0.013862722724107115 0.035173985648357366 0.01089177102532405 0.020017530126658571 0.01296553363236071 -0.041678712769113252 -0.042849080543439257 0.024943759322566875 0.015412252247210378 -0.050000000000000003 -0.049999999999999989 -0.0021030701320765093 -0.049999999999999996 -0.038848879490232878 0.023487284608731195 0.027830741168226304 -0.050000000000000003 0.0057641203363803101 0.036400140895167486 0.032269286697747583 -0.050000000000000003 -0.050000000000000003 0.027928409057865644 -0.035691920839095802 -0.0089281698066541928 -0.049999999999999996 0.02345690138684511 0.039460425589738397 0.010520699062615298 -0.050000000000000003 0.02039391773362877 -0.042143452245040756 0.030409823890802393 -0.049999999999999989 0.0096100465275835087 0.029048162755097858 -0.042528116181413007 0.024984803849824183 -0.037845406801887888 -0.043632329742812836 0.035573802072412723 0.037232228960677495 0.014901149674946951 0.004475216127350988 0.024248227530193494 0.015352711543116973 -0.039961695933287619 -0.028378314676263519 0.007307916267922771 0.02471075181698823 0.045717348813327896 0.00055206803612054824 -0.040686443134094578 -0.050000000000000003 -0.048037826740365767 0.040845421761461338 0.007443301430908638 -0.029358199259012591 -0.050000000000000003 -0.050000000000007164 0.011837830836855872 -0.050000000000000003 -0.050000000000000003 0.026298487806558843 0.0030559773754349666 -0.0019070868534195027 0.03901122782875989 -0.00045581621374392209
leaf_weight=3255.3158230572553 28.281956859194906 137.05378564929151 69.579148012315841 82.957312038710711 293.44326623055917 40.62148908852032 478.11750650199974 5.5471468779355773 237.91490353375445 83.808440709754763 75.238787121714495 24.06138787617374 233.29574672212408 61.104596470638967 468.91835143933304 15.092124369416522 79.253125775172492 1564.3285553473488 17.805141472842255 25.66191927170442 41.084076138015945 114.09824288901291 209.42597380831435 38.326896251467133 7.0041003509929851 489.58032447708342 4.9844393576681796 131.9046631519561 118.57218639564422 30.895945876609403 11.023919600673024 857.36416580041293 184.02728190283017 57.237824374317086 24.124041690998638 8.2028810918159234 8.7417842693866969 21.450324641025873 117.18909017760254 5.9228240379479757 17.832178886357497 7.3837572911681937 19.454373474303338 2904.5833697824846 22.213562328780426 24.946298731963452 70.735621712262059 310.1231238180834 70.316057971811688 12.074968262684363 199.92744788512084 188.93375003910103 13.69575424258119 17.230083026201555 82.50455845211485 34.052383779937827 84.523607299275909 85.272083832161229 12.70373086458005 7.2719855952523167 19.168291930386999 13.56975559138573 39.654139672154315 39.308558909084923 19.626979108994419 80.38066171597643 158.48984484981133 23.189886727548782 14.122580336141256 46.54774678756732 5.6501634461656067 67.83511320771521 7.6305452784470154 6.368830200989577 12.54381386824525 169.65781476997225 75.263940411130534 32.030885733423929 9.9312799967506162 11.227355089643082 32.079662364719752 56.585904671268395 51.598541325678525 7.9210052852904482 184.8191095290349 213.93030508269271 49.712077010321536 2.7350716382802593 34.215008242292811 37.667503463257162 173.8049877889631 12.942584951317032 21.52148658593751 7.5613070021599915 452.26183649392101 6.7451658041554756 47.078272921519329 32.936109670209589 301.65564179237401 49.540562101976775 35.742986530063263 35.712654523173342 58.34958569207015 12.567053791369515 27.349102752911904 30.778567027800733 54.004861064187793 210.18137727189026 5.3325401237743781 43.167445316657052 1198.3262784120161 10.229591134804194 44.073059283043278 9.5153266103952756 10.61461644763517 8.6499276243184777 9.4013243591198243 15.05021856534279 9.2387278636087995 6.1613884541925463 6.5092766863795068 27.311358117471855 54.450811270331485 83.854903181792508 53.424397917877741 74.861848552545098
leaf_count=7922213 2651 40917 37762 118798 14800 52058 10893 2143 70766 27790 109751 31509 438711 81578 125530 6133 174353 3651157 4386 4159 64851 353421 64372 2435 5305 498385 1436 204752 27437 3466 5566 47989 19464 31984 11505 4271 1459 319 86100 7557 5518 551 17316 47172 7677 50413 112087 15225 55074 3497 10107 12779 4474 7104 143661 8364 50679 223812 1567 3424 3307 8795 26610 76228 83696 7400 22713 7522 722 34065 834 92536 4415 535 908 199511 2027 1064 1515 6845 19401 26566 204197 341 62957 53548 3828 739 23746 89766 10806 4961 22445 4114 942697 5561 84467 7521 58166 2702 2787 3245 57014 1627 39918 99195 91706 118191 30 91645 2228746 17845 13456 193 1459 29868 44323 30021 184 2345 1290 15837 86112 103278 1627 171448
internal_value=5.022e-10 0.0308056 -0.0363791 -0.0388228 0.0104081 0.0037444 0.0403056 -0.0246159 0.0323477 -0.00689978 -0.0307074 -0.0125126 -0.0114367 -0.0345441 0.0244604 0.0163669 -0.00793586 -0.0463291 -0.0136814 0.0188886 -0.0201701 -0.0109662 -0.0297401 -0.0120583 0.0113553 0.0206626 0.0133004 -0.000872299 0.00674583 -0.00138401 -0.0356021 0.039492 0.0323433 0.000288439 0.00274387 -0.0419374 -0.0349165 0.0271545 0.00275096 0.0152611 -0.0131776 -0.041264 -0.0359839 0.0457876 0.0054639 -0.0162516 -0.0224001 0.0410979 -0.00467686 -0.0123478 0.0251286 0.0364276 0.0207293 -0.00655389 -0.00923844 0.00401046 -0.000662554 0.00572049 -0.025293 -0.0286139 -0.025087 -0.0376079 -0.0214754 -0.0374139 -0.00196479 0.00891618 0.00333191 -0.0220512 0.0101507 -0.00856937 -0.0132119 -0.020932 -0.0325459 -0.0252952 0.0366084 0.0120182 0.0338054 0.0224697 0.00897165 -0.00366816 2.42056e-05 -0.0111833 -0.0389232 0.0276925 0.0204381 0.0383552 0.0324436 0.0190864 0.0104169 -0.022944 0.0284659 0.000652193 -0.0177196 -0.0302687 -0.0400329 -0.021839 -0.0299715 -0.0173768 0.0312428 0.0178879 -0.00195869 -0.00737759 0.00763964 -0.0178047 -0.0207404 -0.0140164 -0.0056471 0.0230058 -0.0166724 -0.0200076 -0.0400904 -0.0100779 -0.0257706 -0.00275368 -0.0372692 0.0173274 -0.0129482 -0.0286574 -0.0255449 0.00449777 0.00351365 0.00299348 -0.00657411 0.00634854 0.0346762 -0.00598351
internal_weight=18708.7 10130.4 8578.34 8299.76 3218.96 2599.21 6911.41 2869.24 2819.11 1526.38 1962.27 1167.43 906.964 1601.4 1339.87 718.016 824.007 5430.52 360.872 1072.82 730.472 372.359 358.113 141.304 358.95 1014.37 524.79 258.261 388.222 269.65 1574.4 1479.23 621.87 436.96 412.898 2175.2 610.876 26.9975 360.595 330.668 58.4537 216.81 602.134 4092.31 346.001 463.412 311.303 1187.72 243.406 173.09 383.955 278.577 89.6437 285.633 268.403 238.754 204.702 217.177 34.9173 240.568 102.977 1418.31 106.92 582.68 186.395 311.084 230.703 48.8518 181.851 186.003 161.879 122.013 75.4657 20.0646 709.606 226.896 621.857 152.939 77.6748 152.108 140.881 120.178 1311.39 329.794 192.74 619.754 326.311 112.381 39.8652 89.266 178.789 114.563 68.3914 46.8699 514.288 62.0263 53.8234 156.093 399.483 97.8274 48.2868 45.6439 92.5092 25.5096 145.069 112.133 84.7834 216.104 105.086 99.7533 1222.13 23.7993 82.0081 27.3205 54.6877 66.9995 103.89 22.0543 23.3613 45.8155 56.2214 93.8371 66.5258 115.935 56.1595 84.2632
internal_count=20613800 3066665 17547135 17491585 2328570 2252738 738095 4759657 600242 1632591 3485727 1375396 1273930 2906250 451916 318535 1155132 12731928 579477 620147 945291 846836 98455 33532 257195 562571 64186 493415 214320 186883 2903788 148326 100337 430105 398596 4809715 1158558 2462 420973 254544 57576 64923 1157099 137853 51944 734159 554222 90681 334873 279799 29571 55550 42771 469726 462622 183417 175053 428564 9244 442135 31097 2659882 110533 1139783 443128 42700 35300 11681 23619 167101 155596 131016 96951 5009 79788 231495 133381 7851 5824 179937 173092 124374 2549349 104215 63298 75832 61032 7484 24580 293963 12242 128796 102787 80342 1036996 94299 90028 243906 64563 6397 3695 4760 93470 6588 238340 230819 190901 125748 118241 118211 2255386 26640 19494 4579 14915 86882 299467 35326 906 28955 5118 105446 89609 122679 2366 215771
cat_boundaries=0 1 2 3 4 5 6 7
cat_threshold=2 4 204 4 2 4 2
is_linear=0
shrinkage=0.025


Tree=1
num_leaves=127
num_cat=3
split_feature=15 15 63 19 123 123 16 40 15 131 21 15 13 134 16 22 15 2 7 7 134 124 108 7 63 70 63 137 61 19 138 83 123 137 108 137 88 7 136 2 21 124 0 140 12 91 2 137 68 123 2 7 61 94 63 14 62 7 139 33 104 7 59 62 88 70 2 30 13 11 13 63 52 20 137 7 2 15 74 8 140 2 137 138 71 48 8 14 13 41 8 88 137 8 6 63 11 138 26 6 75 54 13 130 96 68 53 134 139 71 8 69 13 15 1 108 2 109 2 1 140 22 141 137 21 123
split_gain=42018.8 5980.42 4245.74 2456.29 1197.29 1018.26 970.047 599.295 595.817 588.082 444.089 403.224 367.134 292.974 247.906 235.693 232.171 222.562 216.959 213.278 284.635 213.107 206.8 193.509 185.027 171.259 155.561 153.283 150.571 154.965 145.203 145.068 144.18 143.117 141.921 138.219 136.718 204.408 125.019 120.505 117.484 117.312 115.24 112.666 115.444 121.25 112.591 112.092 107.458 103.662 100.05 98.2589 143.563 97.1134 97.0487 96.8827 94.9495 93.5813 92.296 92.1371 90.4031 89.2349 86.5856 85.3748 84.9991 84.9595 85.5766 84.6228 84.3672 83.9541 81.1911 80.9751 80.4512 79.7407 79.6671 79.519 97.8464 88.2327 77.5887 77.3902 74.4191 74.342 74.0193 73.9713 76.225 73.8031 72.0971 71.2073 70.672 70.4008 82.689 69.9625 69.1231 68.5531 68.3464 68.221 67.2875 67.2441 67.0086 66.3283 66.3063 65.4902 67.6208 78.2054 78.1449 65.0628 64.2498 68.1242 64.2182 63.5863 63.3198 81.0303 82.0129 69.1014 63.2612 63.6812 67.3965 62.8225 62.7836 62.4222 61.8425 61.0751 60.9768 60.951 60.8358 60.7571
threshold=0.5568048655986787 0.38694421947002416 1.5000000000000002 1.0000000180025095e-35 0.47506010532379156 0.0099619836546480673 1.0000000180025095e-35 0 0.67483302950859081 1.384554982185364 1.5000000000000002 0.48828074336051946 0.72180664539337169 0.82857957482337963 1.0000000180025095e-35 0.15476191043853763 0.29042179882526403 0.9034201204776765 10.500000000000002 38.500000000000007 0.75829312205314647 1.6220182180404665 72.500000000000014 26.500000000000004 8.5000000000000018 46.97526931762696 97.500000000000014 0.84644997119903576 0.50443178415298473 1.0000000180025095e-35 0.59302315115928661 23.500000000000004 1.9766709804534914 0.80694916844367992 33.500000000000007 0.99221020936965953 295.50000000000006 15.500000000000002 0.9919799566268922 0.95469206571578991 1.5000000000000002 0.010564779397100212 0.18594250828027728 0.98465830087661754 0.67068839073181163 0.76271021366119396 0.64180734753608715 0.78732469677925121 157.50000000000003 1.3010241389274599 0.9797959327697755 76.500000000000014 0.44757503271102911 0.42588233947753912 65.500000000000014 0.55622968077659618 3.5000000000000004 45.500000000000007 0.67008039355278026 3.5000000000000004 0.82665234804153453 65.500000000000014 0.045591711997985847 20.500000000000004 108.50000000000001 57.535621643066413 0.43503835797309881 1 0.89386847615242015 -0.095708947628736482 0.65445902943611156 197.50000000000003 0.51885139942169201 1.5000000000000002 0.40422688424587255 9.5000000000000018 0.8164966106414796 0.68677228689193737 0.81759351491928112 242698.00000000003 0.6197815239429475 0.66794872283935558 0.19812056422233584 0.94491347670555126 0.40191701054573065 1.5000000000000002 124206.00000000001 0.59397864341735851 0.70243144035339367 2 273586.50000000006 362.50000000000006 0.43158824741840368 89726.500000000015 1.5000000000000002 28.500000000000004 0.06606639921665193 0.66798096895217907 -0.010865878313779829 2.5000000000000004 0.1244575083255768 0.48882310092449194 0.70243144035339367 0.58691543340682995 0.83513516187667858 294.50000000000006 0.38174760341644293 0.038826329633593566 0.61117842793464672 0.54206866025924694 343406.50000000006 38.613203048706062 0.7067115604877473 0.46950307488441473 0.44503827393054968 197.50000000000003 0.71033561229705822 0.59738317131996166 0.23582887649536136 0.15894872695207599 0.37682619690895086 0.18333333730697635 0.39857964217662817 0.96405431628227245 1.5000000000000002 -0.72060221433639515
decision_type=2 2 2 2 10 10 2 9 2 10 2 2 8 2 2 2 2 2 2 2 2 10 8 2 2 8 2 8 2 2 10 8 10 8 8 10 8 2 8 2 2 10 2 2 8 8 2 8 8 10 2 2 2 8 2 10 2 2 2 2 8 2 10 2 8 8 2 9 8 8 10 2 2 2 10 2 2 2 8 2 2 2 8 10 10 2 2 8 10 1 2 8 8 2 2 2 8 8 10 2 10 2 10 8 8 10 2 2 2 10 2 10 8 2 2 8 2 8 2 2 2 2 2 8 2 10
left_child=1 6 9 4 7 8 16 11 12 10 19 15 30 14 23 17 -1 27 26 48 38 22 -13 43 33 57 121 41 29 87 65 -12 110 -18 -9 36 37 -27 -21 49 -8 -3 74 44 45 -10 67 72 -2 86 101 -33 117 80 60 -28 97 92 91 -36 -52 79 70 -16 122 -4 -67 -46 78 -22 -56 -48 -30 114 -19 -50 77 98 100 123 -47 119 -15 84 -80 -35 -7 109 -72 -43 -91 -29 -24 -41 -68 -70 -17 -57 -77 -62 -44 102 104 -104 -38 -60 107 -55 -71 -20 111 -6 -113 -114 -5 -116 -117 -53 -65 -25 -115 -14 -26 -32 -105 -83
right_child=2 3 5 73 32 39 40 34 13 -11 31 21 18 82 63 96 24 42 28 20 69 -23 25 81 64 35 55 58 47 -31 61 51 -34 85 59 -37 50 -39 -40 93 -42 89 68 -45 46 53 71 -49 75 -51 54 52 -54 106 62 56 -58 -59 105 -61 99 -63 -64 118 -66 66 94 -69 95 108 88 -73 -74 -75 -76 76 -78 -79 83 -81 -82 125 -84 -85 -86 -87 -88 -89 -90 90 -92 -93 -94 -95 -96 -97 -98 -99 -100 -101 -102 -103 103 124 -106 -107 -108 -109 -110 -111 -112 112 113 120 115 116 -118 -119 -120 -121 -122 -123 -124 -125 -126 -127
leaf_value=-0.046751537640300468 0.035537787749151541 -0.036940036462726145 0.00036954635377859648 0.034395729987964023 0.024778356294481912 -0.049630757769150768 -0.0033450238198809547 0.013968212726701188 0.027066041568178829 0.042087234412281203 0.04059388360972653 0.014970609360059874 0.017128299100445766 -0.029236175578111354 0.033220745880832001 0.019916802306265885 -0.034430820789524148 -0.019776407422981396 -0.045233605144532507 -0.012454414078686575 -0.050407056612977869 0.023519008590001493 -0.013951282162255661 0.0056677764439609299 -0.048238256428925326 0.023971387240710691 -0.021186507052178741 -0.0045654922522887758 -0.020435624149390416 0.022198453233579916 -0.011854057729687277 0.034005999232416345 0.032821642975471563 0.037962601606020718 -0.040759131073574977 0.025607832597188497 -0.010164042139591279 -0.022754686955899713 0.016226146662731995 -0.050224955166817589 0.036844555747134931 0.025797505824399703 0.018716987230959617 0.033008640984833824 0.0070168125226925358 -0.050409355394637603 0.023040055612222353 0.014666000028221257 0.032980703437087866 0.028972437342931673 -0.049902377988203829 0.013668442581869221 0.029567546006863555 0.022258039828139582 -0.046257102551809565 -0.0029475564815283021 -0.049658430065501385 -0.03028257603906407 -0.00034943326503582658 0.0085043322100535959 0.0087631860927561579 -0.03431026453118298 -0.0022519032209574112 -0.033681470314608823 -0.041267714994903726 -0.036459505975058058 -0.0099939862029886379 -0.024500604930654563 0.019742555997394048 0.004244869680396373 0.0083298596514185721 -0.024159650568599769 0.0087681201018113466 0.042818066141944201 0.018536749036255126 -0.050158571331212667 0.029577891496152177 0.017928472843301065 -0.032393888183375338 0.012696039374676907 0.028564488769681335 0.0055794751547893137 0.027635210248445476 0.0049427009719932996 -0.0059683287452316127 -0.01042634703731561 0.015638471268697249 -0.0095180980236836202 -0.029603280575038932 -0.038999878683656938 0.0029039636061071301 -0.034973277382678462 0.01563527784400174 0.03347138241866978 -0.034204664602330646 -0.019327892330552768 -0.033591348330904096 0.020999778413035908 -0.00080206367838385603 -0.028605174693352622 -0.037663384905964638 -0.0017429636372668115 -0.0014963499335633546 -0.027072466583443505 -0.038784450185274578 -0.04907666003063501 -0.0015877386983427001 -0.038739756479590777 0.02940419692242259 0.017748940288027888 0.026350158758276183 -0.029462646963909281 -0.035692933797670648 -0.04397328820828067 0.038160715135815558 -0.015801884536012577 0.019981653008175906 -0.025514821213680733 0.016222925025003873 -0.042932436522147378 0.019833729860115824 0.036624090966480997 0.0043736052855956279 0.022791708173312678 0.020798833304988371 -0.050266771582847702
leaf_weight=5921.0542499416479 688.15344101491746 1175.8306130188062 150.91428666665206 225.24288516424713 67.196543405481862 10.758863016262692 106.18719946696365 31.902444555446891 53.988773941196996 4938.7103936917119 1975.9785684686294 175.05620777738295 842.0356147617581 14.49869292900439 318.70533310773862 96.706517290142074 224.84061147856096 51.797765539326065 64.014396602838133 270.52705065687132 9.1130528132180171 115.72550252749716 63.925206212295961 20.778483612084528 20.047030248777446 117.71188150793205 94.216764065698953 62.645983131666071 121.32420972624459 91.299155168230754 212.6641701025319 682.02007275992946 229.50866579422018 23.319555392332404 992.68971926238919 48.503051857043829 72.205120638002882 116.35169216517352 146.39427503541083 6.1515118898914798 79.491814005326887 24.253853050863654 47.774110669064612 108.49078480122444 212.32724595217496 8.9531195720246597 380.4021749435924 498.98070838398917 272.86229222088991 606.54028827727007 21.387474640906476 48.185215634053748 189.81342880804868 12.693081602970777 99.404759266542442 126.42271915028959 17.081181924942939 44.109128855381641 183.07772013593603 24.309268247547152 216.59572310144722 42.690097096915906 110.41428832535257 18.402812285235996 2592.7051957937733 157.24917249931332 352.44527770180639 60.020104371850721 58.932982834905488 73.014536241073074 46.845691525146322 24.159900700002254 114.69042462401194 272.89525621274515 98.282330763395294 20.808048546976352 208.90523109973287 193.38384253097138 425.73131134467712 265.65194970654306 44.645183441243717 84.408219689994439 1061.5917318066436 46.022830087147668 81.241491698756363 126.91240919049756 627.31492865429709 541.16016340286978 89.045154082546105 68.152064009778769 51.803986815134522 192.93465201369054 216.50339799566837 1070.9160144795733 91.872028214185775 53.098701051316311 17.318902661168067 174.36094835369886 98.923129191053704 34.402613895394097 17.929904703938519 73.72617318700577 109.3741145897352 415.12668701797702 342.22772988790803 18.89401631605142 60.971512176929537 116.22521169657193 481.89680002637306 11.87737302676396 81.986732095178013 66.907763385449471 21.751489582258728 10.572606374254972 52.830849240584939 54.301421717616904 83.454625056486293 54.497758092956246 109.55295454063207 80.545093953238393 93.02173418903476 114.03010154126969 43.959022372049731 37.30351426749985 17.28235416165262 14.22787733440782
leaf_count=8495753 19591 1624142 48247 3668 17908 7432 10998 8121 3546 59779 20605 42810 155252 2871 5869 8625 292772 47801 65123 71798 2283 25602 38922 5064 27812 22349 34267 36868 58028 2941 95410 20933 42205 2016 997955 8510 57561 70254 12219 2326 2780 7975 17487 3988 28618 2590 25546 97104 9246 53824 12868 4474 7247 951 65640 42294 14124 34046 121219 13495 62609 29399 44172 2953 3631765 136158 137554 14177 16362 11641 14165 4528 30098 2533 40132 8859 10136 10676 507321 68043 2438 14130 53782 20766 64141 98883 138376 323281 49156 95916 34271 233820 63379 60643 44572 40869 4673 27967 21185 20412 15914 40640 66703 412647 390298 20630 8684 29252 26197 4513 20424 72779 25721 11329 641 4117 2957 11433 6430 33680 30838 869 28345 6194 1244 3628
internal_value=6.25037e-11 -0.0290571 0.0248514 -0.012713 -0.0171829 0.012542 -0.0426977 -0.0202928 0.00774015 0.0358485 0.030158 -0.0167782 0.00169176 0.0166271 0.0102547 -0.0234063 -0.0438707 -0.024916 0.00678603 0.0223233 0.0132796 -0.00962636 -0.0112047 0.00466961 -0.0382445 -0.0132366 0.0139191 -0.0300079 2.45457e-05 -0.0082006 -0.00923484 0.0367009 0.0174984 -0.0218075 -0.0375944 -0.0160613 -0.0171351 0.000744117 -0.00238376 0.0268707 0.0138607 -0.03433 -0.0146398 0.00884201 0.00615123 -0.00682948 0.0118558 0.00795153 0.0283052 0.0215723 -0.0196744 0.0288073 0.0166854 -0.0143452 -0.011723 0.0010788 0.00767835 0.00356666 -0.0175385 -0.0395816 -0.000562841 0.000425027 -0.0205161 0.0262952 -0.0405651 -0.0164021 -0.0206095 -0.000570985 -0.0187379 0.0248577 -0.0290868 0.0202214 -0.00624417 0.0323174 0.00531357 0.0220438 0.016327 0.00748617 -0.0223527 0.00330089 0.0153726 -0.0179259 0.026869 -0.0254043 -0.0281592 -0.00291524 0.0145379 -0.0126985 -0.0165266 -0.013049 -0.0209034 -0.02752 0.00889086 0.0329934 -0.0150001 0.00122467 0.0117896 0.0109344 -0.00937972 0.00364136 0.0033314 -0.0244463 -0.0261967 -0.0203822 -0.033798 -0.00490776 -0.0227333 -0.032734 0.0260938 -0.0353766 0.00719836 0.00114635 -0.00711351 0.00481613 0.0254262 0.0148256 0.00587631 -0.00712761 0.00904559 -0.032966 0.0133217 0.0194536 -0.0121047 -0.00668375 -0.0251592 -0.00247613
internal_weight=36368.2 16765.4 19602.7 7626.93 6938.2 9249.55 9138.52 6367.26 6927.87 10353.2 5414.48 5318.35 4122.28 2805.59 1729.5 2772.43 8952.84 2658.4 2811.49 2463.98 980.946 2545.92 2430.2 1282.84 3031.78 2255.14 1368.15 1777.59 1443.35 708.351 1310.79 2950.5 570.946 375.073 1048.9 1930.6 1882.1 234.064 416.921 2321.68 185.679 1320.04 880.811 1082.88 974.386 297.477 676.909 734.995 1483.04 1244.61 1648.04 974.516 292.496 243.488 618.096 412.082 317.865 324.538 457.552 1017 272.386 558.31 345.71 446.661 2656.71 752.481 601.566 272.347 730.731 564.024 235.296 404.562 236.015 688.725 150.08 794.883 522.02 313.115 618.7 515.62 53.5983 199.96 1076.09 552.996 506.973 150.232 638.074 617.052 135.891 144.21 119.956 255.581 280.429 1077.07 444.317 112.032 114.025 300.784 119.731 250.998 65.704 1029.94 956.216 541.783 414.433 201.972 189.89 128.918 554.911 75.8918 341.437 259.45 192.254 125.346 415.83 190.587 137.756 102.683 127.956 101.324 103.594 956.066 64.0061 249.968 432.409 98.6361
internal_count=20613800 18348734 2265066 5757610 5743694 1936764 12591124 5522490 1674163 328302 268523 4502919 1421438 252725 196072 2958932 12577346 2945634 855861 203831 124138 1543987 1518385 180820 4081593 1475575 274773 2174841 581088 395858 565577 64692 221204 393671 1019571 1339228 1330718 92603 84017 262601 13778 1762304 770793 124318 120330 47461 72869 185230 79693 199632 1238115 44087 23154 43915 269022 118652 84385 136347 412537 1011450 95889 199046 173133 15252 3687922 366531 318284 42795 682860 40121 128961 30074 88126 13916 87933 60102 50856 40720 625629 169647 5028 56502 56653 592228 571462 100899 145808 392917 63321 138162 130187 270688 102301 62969 182126 57231 13298 70261 30044 83021 33401 969093 928453 480594 447859 141849 38887 30203 37838 69636 178999 158575 140667 67888 11383 7715 7074 15907 9383 38744 42167 156121 56157 101604 413891 17758
cat_boundaries=0 1 2 3
cat_threshold=805 22 4
is_linear=0
shrinkage=0.025


Tree=2
num_leaves=127
num_cat=6
split_feature=15 16 15 15 22 83 123 68 7 123 2 63 15 15 7 7 63 137 63 63 40 127 7 41 123 62 63 138 53 19 19 13 70 111 2 7 12 15 10 131 126 13 15 2 7 63 14 61 2 139 14 51 89 131 8 29 70 138 76 7 108 7 126 55 15 7 59 14 134 51 139 125 32 11 46 137 55 37 7 34 123 50 14 52 89 40 38 71 140 125 14 130 73 28 138 138 141 89 138 7 124 140 34 104 28 39 53 7 50 89 127 11 135 118 90 74 139 31 109 137 41 70 55 55 23 55
split_gain=42538.3 4334.79 4095.46 2564.18 1332.45 996.901 826.992 787.819 464.026 436.912 367.535 291.774 287.378 285.782 266.727 195.2 192.131 185.803 162.406 148.06 155.743 146.67 142.867 132.078 125.539 119.238 126.998 114.596 114.532 114.507 114.13 112.371 107.775 105.971 104.901 115.076 100.416 99.5686 98.4199 97.4403 95.2239 93.0979 92.4973 91.4405 88.6194 88.0373 87.893 87.2084 84.9821 84.0774 83.0491 119.346 82.2163 80.8071 80.7207 77.4677 73.8835 73.2695 71.8808 94.8133 71.6803 71.6004 68.6339 78.2482 68.4448 66.4481 69.2095 64.5779 63.608 63.6009 61.4279 72.7388 60.7423 60.0185 58.9782 58.1659 56.9407 56.9173 66.8111 62.2316 56.5525 56.4566 56.2963 56.2042 56.1213 79.9031 55.8389 55.5815 55.1733 55.4712 54.7883 63.8324 54.5742 64.5182 62.7245 54.2617 53.9017 53.4668 53.4094 52.2338 51.9196 55.582 51.907 51.6334 57.857 51.492 50.9133 50.7829 70.8988 50.6108 55.3083 50.3984 50.3527 50.2545 50.2466 49.3453 49.3089 49.227 48.5385 48.2751 48.2713 47.9172 48.7666 60.7292 52.8815 47.813
threshold=0.52584344148635875 1.0000000180025095e-35 0.64749529957771312 0.4063516110181809 0.15476191043853763 33.500000000000007 0.18802870064973834 80.500000000000014 5.5000000000000009 0.94269946217536937 0.7577352523803712 61.500000000000007 0.29042179882526403 0.74357578158378612 22.500000000000004 48.500000000000007 8.5000000000000018 0.89009186625480663 24.500000000000004 199.50000000000003 0 0.58371841907501232 3.5000000000000004 1 1.3010241389274599 4.5000000000000009 32.500000000000007 0.77890321612358104 0.47687423229217535 1.0000000180025095e-35 1.0000000180025095e-35 0.58879545331001293 74.458827972412124 0.81007573008537304 0.77737811207771312 6.5000000000000009 0.66122615337371837 0.48326353728771215 0.12752506136894229 -0.73905026912689198 3.9220918416976933 0.76758062839508068 0.50605681538581859 0.87957385182380687 24.500000000000004 9.5000000000000018 0.47377842664718633 0.9455753266811372 0.55607968568801891 0.88985612988471996 0.69404202699661266 0.44776827096939092 0.31271204352378851 0.929590404033661 246779.50000000003 1.0000000180025095e-35 36.51048660278321 0.30015267431735998 0.9085778295993806 6.5000000000000009 183.50000000000003 6.5000000000000009 3.0176361799240117 5.2530550956726083 0.63310575485229503 25.500000000000004 0.015736142173409465 0.63547885417938244 0.86421924829483043 0.32517378032207495 0.76853090524673473 -1.0429733991622923 18.500000000000004 -0.061491848900914185 2 0.056299254298210151 9.0624327659606951 0.95594066381454479 73.500000000000014 12.114409923553469 3.8417288064956669 0.37200640141963964 0.55740875005722057 0.46636351943016058 0.32167047262191778 3 1.0000000180025095e-35 0.54519698023796093 0.67330610752105724 -0.28237266838550562 0.61586639285087597 -1.226676285266876 40.500000000000007 1.0000000180025095e-35 0.68416386842727672 0.07946226000785829 0.72015106678009044 0.54237484931945812 0.99269860982894909 5.5000000000000009 1.3401510715484621 0.039964221417903907 2.331190943717957 0.83738544583320629 1.0000000180025095e-35 1.0000000180025095e-35 0.17904047667980197 1.5000000000000002 0.40402701497077947 0.31271204352378851 2.8513497114181523 -0.038886636495590203 0.87147739529609691 51.500000000000007 0.19925913214683535 0.7391115427017213 0.9009656310081483 4 0.38779336214065557 0.82301151752471935 5 30.544502258300785 2.3433018922805791 0.79129958152771007 6.5000000000000009 8.4235310554504412
decision_type=2 2 2 2 2 8 10 8 2 10 2 2 2 2 2 2 2 8 2 2 9 10 2 1 10 2 2 10 2 2 2 8 8 10 2 2 8 2 10 8 8 8 2 2 2 2 10 2 2 2 8 2 8 10 2 2 8 8 8 2 8 2 10 2 2 2 10 10 2 2 2 10 2 8 1 8 2 8 2 2 10 8 10 2 10 9 2 10 2 8 10 8 10 2 10 8 2 10 8 2 10 2 2 10 2 2 2 2 10 8 8 8 2 10 10 8 2 1 10 10 1 8 2 2 2 2
left_child=1 3 4 12 6 40 10 53 11 13 14 92 -1 30 18 -3 22 27 60 20 25 41 -14 -19 31 95 39 42 52 44 34 -8 -20 48 35 46 -16 107 -17 -27 -4 -18 56 -44 -6 111 -7 58 -25 88 51 -37 -24 54 55 -5 112 -39 59 67 -2 103 63 -40 82 66 120 87 114 -62 71 105 -53 -33 98 -36 -47 78 -75 -79 -11 -74 -28 -72 85 -71 125 -43 89 -41 91 -21 93 94 -9 -12 -84 113 -35 -87 101 -97 -63 104 -34 -50 -77 -13 -109 -103 -111 -38 -10 -15 -23 -58 -85 -49 -92 -54 -29 -52 123 124 -123 -46
right_child=2 15 5 7 29 9 24 8 17 80 19 37 16 97 36 38 21 23 32 90 -22 68 28 33 -26 26 64 65 -30 -31 -32 73 61 74 75 50 45 57 62 49 -42 47 43 -45 86 76 -48 117 70 -51 121 72 119 -55 -56 -57 115 -59 -60 -61 69 102 -64 -65 -66 -67 -68 -69 -70 84 83 -73 81 77 -76 106 -78 79 -80 -81 -82 -83 96 116 -86 99 -88 -89 -90 -91 118 -93 -94 -95 -96 100 -98 -99 -100 -101 -102 109 -104 -105 -106 -107 -108 108 -110 110 -112 -113 -114 -115 -116 -117 -118 -119 -120 -121 -122 122 -124 -125 -126 -127
leaf_value=-0.04526908885462147 0.02137892415995964 0.033249356029402488 0.034740805558997966 -0.04840083646372742 0.032681055359205249 -0.027467178762378835 -0.032412815652530673 -0.024791278991629483 -0.026118470941087366 0.031395837400004893 -0.024618255818742357 -0.01631047449976818 0.02082015170518493 0.029409918772689926 -0.033801959648562467 -0.03976445637162343 -0.042311479072588531 -0.043274828873342504 0.0060605142943860506 0.035254090503424935 -0.025647357824817692 -0.036440825379977101 -0.0013020097753791884 -0.030543587236079164 0.029372724989278367 -0.049392699976946092 -0.049280889573155941 0.0091545923738343069 0.032146634261660458 0.036416394543680557 0.032084789773545043 -0.016195932137856056 -0.019099305904669919 0.018986447187000058 -0.050007022586821964 -0.020945284833551462 -0.040724191298804335 -0.033366600578919346 0.010652431457831289 -0.04635366660833723 0.041138685665377553 -0.040346273473523903 -0.030260515651634491 0.0010900726451080621 0.0095865355714238997 -0.032532512014125096 0.023171155572794828 -0.031392911783495576 0.0028331518764478604 0.019473916346345072 -0.04974827960623214 0.017212122736602317 -0.03769528656381279 0.035097193398456593 0.019337262786903932 0.0042382686163680494 -0.0054380727565331534 -0.0020671335302119768 -0.038294608531899789 -0.036156409734015897 -0.037136399506925273 -0.039270306593673879 0.033003304074903476 -0.037763790117015798 0.020876002935824645 -0.030097136777625808 -0.025597141513690993 0.023890759600535466 0.017601780489156702 0.0050341520840440409 0.023036600446814458 -0.04169388275816116 0.041860270568313429 0.022524697077137921 -0.029161709640582175 -0.049849888071728 0.0062752844583946425 -0.049123704242902876 -0.049006091550824624 0.012269703747158375 0.040021432907653601 -0.04644020398622626 -0.029033515411088052 -0.040484074476717681 0.024262911639017726 0.0046608796176497531 -0.015695583434642935 0.043906283281057057 0.010398091294755343 -0.001882540470369627 5.6233281649339303e-05 -0.033103489325956956 0.022783689258059275 0.012063310467187657 0.011238646864069392 -0.043866964605429666 0.0013926262849096429 -0.050621855877754619 -0.049065859799035438 -0.043995756430840388 0.031234520926073647 0.032791090022182799 -0.013032046063520847 -0.048712707881029126 0.0035447940754415835 -0.033908627638954178 0.01926759893486428 -0.037727367697706085 -0.0045763718168896151 -0.031154160220992023 0.012978234138916479 -0.0028461947621187568 0.015514048532013658 -0.049456392066552501 0.02167859246788658 -0.03918138197218779 0.0050136863069141224 0.016854955465459204 -0.049382975917633153 -0.015788763198422231 -0.030673297126316258 0.013401959240194937 0.017277213391127349 -0.038094422666606315 -0.034177726198197984 0.031288938467977798
leaf_weight=6076.5623011066273 144.8027089181378 558.64569155050231 2312.3510546715756 24.338332888058176 255.83167737186886 22.791910253077731 32.587308907281113 80.324681989015062 76.401407168168589 1984.6170814639645 21.461977552763528 239.31509887459652 44.106227470824706 1715.238030263391 281.98553818462551 25.975693854506972 2301.5696890537411 101.81543814532779 159.10404297125569 9.3509171789482917 81.89273007518841 45.243720975830001 58.382777931179589 200.28530885655528 595.98909084102161 19.147098025860032 35.08672298723468 101.97605240145822 20.058704511791802 762.70700824156665 260.834469022956 34.544024963388438 133.66312999341426 105.67226955230126 7.6686126241220327 167.94759512099108 23.978454707896162 56.145016897662572 119.38832495523093 18.57061881132995 3916.7377174584394 25.715456911811319 204.65666819771559 81.224444633915482 192.17973898083528 180.62186120999831 356.61689912313977 22.036332186053187 84.507525165693551 263.40230286354335 8.1583041413432493 121.7088349400874 303.20606224262883 104.82389932789738 161.64780146884368 61.951931312751185 27.659862507278376 279.1796429908718 721.77178537370719 96.433414958594312 25.51663925446428 122.69339656890861 65.707551350929862 25.280502149793392 28.430287576025876 218.27728725185807 107.73296395991383 38.339812898609807 37.006709114069963 308.1824547795768 54.741561619868662 58.220785690125922 5.9289815575175453 392.78820813249513 23.512069358330336 6.6869795073871492 27.186814108561521 15.480414329775156 8.3341503027731942 30.95151471108511 624.57171166449189 19.118312208694991 73.667833482902552 23.288796134911536 68.440114491073473 20.585139097873252 37.479149194494312 6.0439740174188037 301.98285709055472 312.95870968607687 147.29587243204878 98.189715329204773 109.4245746433503 175.30283795453852 48.39251608941322 10.508581896393478 71.915618355516926 5.2636823249704312 7.7356007259786557 41.770360799237096 115.4106186065419 80.188444213987168 76.507976347973454 20.003784335696764 149.28838685147457 33.20745590259321 1710.4900011404775 232.48654271210398 48.780542240154318 18.252110695583724 642.93101362463995 260.09480106440924 23.816722531657433 5.0646857946958326 11.701564162096473 1306.353312661724 41.269678146098158 33.023448931624444 13.553522041152972 79.319168250383882 23.379797260888154 101.23547903136568 289.82859508382899 22.708943067781547 17.059874741782551 94.717118496487274
leaf_count=8495753 28858 20938 46996 23274 6618 8314 20448 64886 78444 83895 10274 189884 15046 82702 298931 9072 3252750 107500 65983 1100 65383 50396 39762 203544 63118 13194 23390 45075 3441 16110 7254 17001 79651 28128 3711 99177 25545 60962 16770 13063 25570 30689 240748 51686 27999 186466 48079 22094 41870 49987 4351 22735 366509 8633 42479 30010 17666 147883 855638 117860 18919 144438 1388 7382 6317 246482 93433 14785 12968 114939 16166 74577 268 72569 19467 3518 15644 11303 6464 8435 5240 12350 50004 22733 12255 6431 8669 284 78719 111534 51842 62425 27380 65426 15186 6653 28853 955 6044 39232 7534 5753 66656 17673 57719 33619 170621 271339 35911 5514 136162 147292 9546 2282 3644 1767731 19035 12968 10069 67805 22446 23988 61143 14575 10371 5434
internal_value=1.70882e-10 -0.0316425 0.0234773 -0.0347697 0.00771602 0.0313821 0.00228207 -0.0191804 -0.0222116 0.0252131 -0.00257518 -0.00960161 -0.0418849 0.020771 -0.0103376 0.0251917 -0.036535 -0.0277202 -0.00329023 0.00413728 0.00637613 -0.0387089 -0.0221645 -0.0168487 0.0215621 0.0077671 0.00239925 -0.0313963 -0.0262774 0.0300492 0.0162544 0.0125175 -0.0118699 -0.0125944 0.0148096 0.0089002 -0.021908 -0.017932 0.00614653 0.00641204 0.0387637 -0.0396004 -0.0343382 -0.0213532 0.0216794 -0.0150895 0.0201292 -0.0329862 -0.0179737 0.00760334 0.00324755 -0.00655382 -0.0289353 0.0166952 0.00891513 -0.0106087 -0.0369265 -0.00730775 -0.0348786 -0.0200734 0.00602118 -0.0175511 0.0118153 0.00219182 -0.0151806 -0.0201849 -0.0109025 0.00205156 -0.00791533 0.00123352 -0.00944635 -0.0188367 0.00991576 0.0155546 0.00687361 0.0186916 -0.0274554 0.0180052 0.0210385 -0.00819887 0.0334606 -0.0255385 -0.0208545 0.0044019 0.00346387 -0.000377815 0.0130024 -0.0243126 0.00266778 -0.00437359 -0.0133455 -0.0271596 0.00764393 0.00219475 -0.0112455 0.0146502 -0.0140035 0.0289343 0.0143446 -0.0240724 0.0156219 0.0132255 -0.0291929 -0.00989623 -0.00715203 -0.00753172 0.0189984 -0.0247755 -0.0319779 0.0140347 0.0117599 -0.00604345 -0.0162246 0.0291777 -0.024498 -0.0384817 -0.0113992 -0.00245507 -0.00410962 -0.0331528 0.0017264 0.0102739 0.0114105 -0.000648193 0.00654029 0.0167514
internal_weight=35788.2 15243.4 20544.8 14448.4 6862.21 13682.6 5519.3 4527.85 4175.09 7453.54 4408.62 1269.35 9920.52 4844.35 2044.43 794.998 3843.96 2905.74 1270.56 2364.2 2095.81 3338.89 505.073 734.256 1110.67 2013.91 1125.16 2171.48 460.967 1342.91 3118.78 514.686 661.261 632.441 2857.95 1133.1 773.867 855.907 236.352 916.062 6229.09 3244.93 1720.11 285.881 580.208 491.882 379.409 943.364 495.521 896.914 753.695 314.704 440.908 352.762 247.938 86.2903 1434.23 335.325 888.304 166.533 609.297 502.157 210.376 144.669 209.1 451.366 233.089 70.0992 93.952 464.495 295.236 175.936 146.756 482.098 136.92 1724.85 207.809 447.554 401.122 46.4319 2609.19 25.0473 180.67 119.3 438.978 370.538 324.376 31.7594 633.512 331.529 268.39 107.541 413.445 304.02 128.717 888.753 145.583 1725.57 113.408 62.3555 867.291 751.88 199.201 302.955 282.952 117.715 1717.18 520.582 281.267 741.372 661.183 284.073 100.218 1720.3 56.9453 1334.01 64.5585 55.0598 160.849 382.525 125.356 438.991 430.833 141.004 118.295 286.897
internal_count=20613800 17547135 3066665 17491585 2328570 738095 2263740 4129193 4024797 665529 2064402 878857 13362392 576394 1326632 55550 4866639 3145940 652754 737770 612334 4374076 492563 572683 199338 546951 375061 2573257 477517 64830 490455 136220 432120 465183 483201 305351 673878 705979 34612 266497 72566 4307068 2165821 292434 48720 374947 56393 1054318 411544 253303 248958 134530 474076 104396 95763 53284 1873387 208845 1019256 163618 220634 366137 25540 24152 108564 407436 160954 45758 67008 191776 208000 150066 35353 115772 53639 177850 202110 98771 79033 19738 89135 12618 102247 57934 172857 160602 42102 30973 203316 124597 125436 63525 172878 145498 80072 171890 78857 85939 34172 45663 161616 154082 211094 155043 137370 75489 174139 497134 307250 147429 141676 172837 87990 84984 54040 1785397 41768 35062 61911 434314 67521 114428 110077 48934 34359 33433
cat_boundaries=0 1 2 3 4 5 6
cat_threshold=817 4 1 777 2 1
is_linear=0
shrinkage=0.025


Tree=3
num_leaves=127
num_cat=6
split_feature=15 16 15 15 16 63 68 123 7 2 15 63 15 137 18 63 131 7 7 7 137 127 63 137 40 63 19 41 70 63 7 137 6 63 90 70 2 13 61 10 138 15 3 103 7 15 7 22 76 7 134 8 15 7 131 109 110 13 15 139 34 138 139 2 63 50 62 22 136 71 48 90 26 2 7 89 54 34 53 21 66 89 110 7 13 109 52 138 59 69 138 52 140 5 70 41 38 13 14 76 139 41 7 41 63 94 52 52 7 14 113 137 137 2 104 71 62 134 53 137 46 61 37 37 130 131
split_gain=39837.3 4115.87 3498.79 2318.52 1112.73 845.895 681.781 575.435 392.297 385.653 262.12 253.482 252.617 213.388 185.882 173.461 155.492 152.647 150.54 142.169 150.12 140.253 124.33 123.023 120.01 117.963 117.226 110.596 109.814 106.882 105.579 104.37 99.2201 96.9937 92.793 98.2419 91.1603 90.7192 91.0456 90.6893 89.8617 86.3272 116.375 86.1068 83.5125 76.341 75.1181 75.01 74.7896 93.5587 74.2416 73.7306 72.8196 72.2993 71.5106 70.7786 70.2565 75.5081 69.9444 69.4681 67.7947 74.0516 65.2419 64.6705 64.3475 60.8631 60.7396 60.6621 60.5565 61.2202 60.4475 59.6918 59.4617 58.9989 58.8037 58.4186 57.5213 57.4106 56.931 56.1631 70.0752 67.9537 55.4526 55.0444 54.9328 64.1631 54.4309 54.0366 54.006 56.1387 53.6689 63.9474 63.5541 53.0225 52.9235 52.9024 62.8621 52.7103 52.4098 52.3972 52.2356 51.8262 50.776 50.6765 50.4971 50.4096 53.9623 50.2313 50.1704 50.1252 50.0133 49.3368 49.1931 49.0739 60.142 50.5399 49.0599 48.6573 48.3611 48.3434 47.8453 65.6447 47.812 47.2131 46.9435 54.9585
threshold=0.52584344148635875 1.0000000180025095e-35 0.63310575485229503 0.4063516110181809 1.0000000180025095e-35 1.5000000000000002 65.500000000000014 -0.42688614130020136 5.5000000000000009 0.78989815711975109 0.29042179882526403 61.500000000000007 0.7004624903202058 0.89009186625480663 1.0000000180025095e-35 8.5000000000000018 3.3251678943634038 6.5000000000000009 12.500000000000002 7.5000000000000009 0.80694916844367992 0.58371841907501232 27.500000000000004 0.80694916844367992 0 2.5000000000000004 1.0000000180025095e-35 1 51.402669906616218 31.500000000000004 29.500000000000004 0.91369536519050609 1.5000000000000002 26.500000000000004 0.21832910180091861 54.483640670776374 0.7509123980998994 0.76758062839508068 0.9455753266811372 0.26627014577388769 0.78248918056488048 0.56740775704383861 2009.5000000000002 141.50000000000003 47.500000000000007 0.33911831676959997 21.500000000000004 0.53571429848670971 0.9085778295993806 6.5000000000000009 0.98477905988693248 332904.50000000006 0.7813607156276704 102.50000000000001 0.69555199146270763 0.51968237757682811 0.10739907622337343 0.59526026248931896 0.46037563681602484 0.76853090524673473 2.7509018182754521 0.94491347670555126 0.21410312503576281 0.3551971316337586 159.50000000000003 0.43461252748966223 62.500000000000007 0.36666667461395269 0.92873212695121776 0.46010060608386999 3.5000000000000004 0.14394250512123111 -0.060311747714877122 0.9566781520843507 28.500000000000004 0.27138280868530279 0.49615123867988592 2.2819545269012456 0.32611392438411718 1.5000000000000002 1.0000000180025095e-35 0.40224552154541021 0.090034633874893202 2.5000000000000004 0.51984569430351268 0.53060677647590648 0.39681498706340795 0.36725294589996343 0.11088060215115549 20.316022872924808 0.74809142947196972 0.52766418457031261 0.88963791728019725 102.50000000000001 98.630733489990249 2 0.43650794029235845 0.86057570576667797 0.63547885417938244 0.97681596875190746 0.34801626205444341 3 14.500000000000002 4 59.500000000000007 0.40875673294067388 0.48402148485183721 0.44417253136634832 25.500000000000004 0.71032986044883739 59.500000000000007 0.89828184247016918 0.72813850641250621 0.8344748616218568 0.82271036505699169 0.68212658166885387 4.5000000000000009 0.98862293362617504 0.40259702503681188 0.1034977398812771 5 0.63693872094154369 0.73875766992568981 0.79904386401176464 -0.79703876376152027 -1.0624585151672361
decision_type=2 2 2 2 2 2 8 10 2 2 2 2 2 8 2 2 10 2 2 2 10 10 2 8 9 2 2 1 8 2 2 10 2 2 8 8 2 8 2 8 10 2 2 8 2 2 2 2 8 2 2 2 2 2 10 10 8 8 2 2 2 10 2 2 2 10 2 2 8 8 2 8 10 2 2 8 2 2 2 2 2 10 10 2 8 10 2 8 8 8 10 2 2 2 10 1 2 10 10 10 2 1 2 1 2 8 2 2 2 10 10 8 10 2 10 10 2 2 2 8 1 2 8 10 10 8
left_child=1 3 4 10 7 14 55 9 11 18 -1 84 19 28 16 23 30 64 22 29 56 37 119 76 32 120 45 -15 58 -7 79 51 41 44 -13 -36 47 -17 48 65 50 42 43 -11 59 -3 100 62 49 98 99 72 94 -49 88 113 97 -58 117 77 61 -34 -32 -55 86 105 -47 103 69 -43 -46 -45 118 -48 -60 102 -12 -29 -23 80 81 -4 107 101 85 -8 -9 -37 -41 -90 91 -59 -93 -76 -14 -85 -97 -21 104 -30 -25 -24 -35 -6 -39 106 -20 -74 116 122 -72 -77 -52 114 115 -5 -42 -10 -27 -2 -19 -122 -73 -89 125 -125
right_child=2 26 5 6 67 12 8 17 13 24 15 34 52 27 -16 21 -18 25 39 20 -22 78 83 46 -26 31 -28 33 40 -31 36 -33 60 75 35 87 -38 38 -40 54 108 68 -44 71 70 66 73 53 -50 -51 112 -53 -54 63 -56 -57 57 90 74 -61 -62 -63 -64 -65 -66 -67 -68 -69 -70 -71 110 109 82 -75 93 111 -78 -79 -80 -81 -82 -83 -84 95 -86 -87 -88 123 89 -91 -92 92 -94 -95 -96 96 -98 -99 -100 -101 -102 -103 -104 -105 -106 -107 -108 -109 -110 -111 -112 -113 -114 -115 -116 -117 -118 -119 -120 -121 121 -123 -124 124 -126 -127
leaf_value=-0.043848057590280626 -0.048578620559647956 -0.036678687608766206 0.023763484482003428 0.0027393054560737461 0.017721044666283551 0.028751055921831692 -0.047669761456303333 -0.04902922501533883 -0.036709168850735142 0.026287643254051925 -0.034855912027045875 0.014730981378020029 0.024511685450100559 -0.039437918271903974 0.038263949079743252 -0.041158461203426082 0.039104984699378835 0.026640984105485328 -0.046898356032056984 0.015929977826648713 0.019826702006575578 -0.031181540898549211 0.010380401818264483 -0.047204669981359811 -0.025677940153207835 -0.04582060507271072 0.032168758801294543 0.00014263095512532942 -0.037388533770442496 0.013804153479003193 -0.050014225846279362 0.024765368598931144 -0.019574715058938749 0.033547082711067371 0.00017680751446970137 -0.034911489898848923 0.030508083164262373 0.022895384251015696 -0.0022889218153741451 0.0073903154158705053 -0.035314727344117371 -0.049156438707205513 0.010923411937151609 0.024619574067860875 0.0017646920137167896 0.019169433100208699 -0.027137744930310643 0.027495715909494251 -0.037538738534734023 -0.035459541490970241 -0.034443036374538501 0.015050098666316722 0.033516093558913988 -0.049438978182591319 0.026543372389356043 0.032791928583033141 -0.045639186612322163 -0.019579784762163599 0.0027216157201552468 0.019326689469502382 0.0097657322848052775 0.020393714838692324 0.013720248519974344 0.012320083230480434 -0.013067867036200789 -0.003855869578930235 -0.028021379426623683 0.033715540582757088 0.02377768419987043 0.010095651793092825 -0.039965801198576047 0.031750228928393694 -0.046056641660442321 0.011926539848579163 -0.035259301055861711 0.012757482391450206 0.011547830826134578 -0.044664340928879095 0.0078973167556504863 0.038329570542161864 0.036484458084316974 -0.050901091460362681 -0.048157455980423536 0.0011921682108694167 0.0078853197565497291 0.020788100381312628 0.02623873292063399 -0.037626428459900801 0.037561024767609752 -0.023981307752296226 0.012353746423552246 0.0070383137871413634 -0.049494106048957071 0.031275161910013283 -0.049354584268448784 -0.028964145834174795 0.02280002017406552 -0.048996361068075006 0.019759403786797289 0.0077169260335567813 0.020848813835838354 -0.047395754272170604 -0.047226169232878847 0.033994716402118617 -0.045194077358231936 -0.029732178372883694 0.010029807539270687 0.00075316146085515408 -0.031716134067206324 -0.00073140052772621656 0.030486096449511713 -0.029573152269259856 0.02338307192033983 0.020470601911221964 0.026665640459719309 -0.035149968620653567 -0.0065814406475501732 0.032789955734612672 0.0038908996558227795 0.0090302918663642037 -0.048194994188030027 0.022171541029098574 -0.034244003633478258 0.037054441576041396 -0.0031030852392835598 -0.023898405431830708
leaf_weight=6009.2194806289308 9.3846757462652004 19.151909692426671 462.1429557404872 51.807678033326738 410.52227984742967 643.7149064218238 24.444380083791202 6.0645772737443613 104.32395615510359 30.531049526744027 282.54842030461987 50.303654536795875 2013.4308850111629 102.48170910792396 3940.2216125968007 2266.6418254356649 1165.7003249523332 196.82292227947073 13.981197151384547 221.18229570709991 529.24214381318416 39.112945405993742 77.11661720873235 7.912242954800603 72.795231774543936 45.777611426005024 525.53926570361 107.61278195675732 1396.7736259192461 558.37662551076119 10.283810933757193 89.29643197241603 207.672221938441 19.238866429648628 123.80289987182005 200.93064876120297 1102.7747055948603 10.128587964369219 60.669984505693719 62.37185954036795 49.307853867576341 11.115544479946946 291.05539303648675 18.033857365087897 49.846841894292083 207.96648649967574 104.281879367908 728.5857307302831 705.45110923851371 94.990047681629221 16.028967950347578 89.152231862490225 727.05814829670271 12.926904602827561 34.264949642918509 103.74170726562807 24.823294248273669 134.41807180217256 122.7399615123104 116.56716043558117 108.8730646601598 33.669283519502642 420.37230827698568 58.796291411759739 28.280812713580417 77.884235679473932 18.568586533291636 619.57925263265861 246.2254360658153 558.17587619882761 69.723286019932857 7.2472778006704166 15.300562495338452 31.45153801617198 57.254581404688906 18.591787452663993 17.744119718876391 21.431711344928772 57.628538655654665 794.62259057999108 431.72753022482721 7.7460930940142125 17.628666848766443 60.349290392739931 403.36739916665692 13.165695372001208 610.19095777832717 74.796351420895007 9.8862864333714224 147.1555882297389 135.14492609148147 174.35256984066473 13.382769089923384 8.6119473239086783 6.0805949150017105 203.67067952093021 15.800047627510137 8.1013329767174564 43.289848889724453 16.284114587833756 64.634513185847027 11.100347466621313 6.5100275482946008 168.75966424245235 20.761194368140423 531.15162142528425 40.705693567648268 225.37271491668344 185.93684019251305 46.784747463567328 6.9229838833780368 231.27632924158479 21.564971839065038 103.82756381767467 31.745978239996475 38.246456212648809 150.49426571163804 6.7004497150010129 16.690397520978877 304.5256048843903 13.535910120197512 21.364179671247257 128.82349374941714 9.5832610752477176 122.36796351783778 262.26069780283888
leaf_count=8495753 7464 6083 25054 21799 35897 47188 24426 4294 127599 4362 356298 18400 167838 107823 26959 3252750 8729 26670 17085 49919 93650 38483 28502 7701 63095 38316 12779 61474 1904438 99714 4892 15658 112316 2557 69563 232123 39025 3277 35062 34322 48873 7395 78163 2827 23447 26570 91779 33585 855638 117860 19052 21583 21326 5425 6220 7969 21007 78745 74503 32950 31607 6098 55240 5379 13791 54417 10118 21037 35557 155670 80322 566 12977 11977 68669 9886 8761 24950 28525 7553 6927 1570 14023 35883 146340 3316 62037 71620 907 119605 34247 52342 7604 2088 2711 180473 4555 5876 14785 10273 16047 10886 6786 8234 27696 561844 21734 91944 226268 19050 1350 223736 7450 22204 4672 26548 97249 1025 6136 88880 12437 3580 86063 1226 73556 242663
internal_value=2.91675e-10 -0.0307538 0.0229035 -0.0337843 0.0067625 0.0295905 -0.0189264 0.00131594 -0.0216606 -0.00425945 -0.0405964 -0.0101705 0.0215299 -0.0267763 0.034169 -0.035464 0.0310636 0.0149368 -0.0131464 0.015681 0.00974423 -0.0375593 -0.00425034 -0.0218737 0.00381175 0.00711624 0.0255045 -0.015306 -0.0308048 0.0218082 0.0287376 0.000273807 0.00520461 -0.0114879 -0.0181962 -0.020283 0.0252878 -0.0384553 -0.0319044 -0.0197593 -0.0330945 0.00833619 0.000402593 -0.0128293 -0.00316189 0.0112493 -0.0071097 0.0206111 -0.0339588 -0.01903 -0.0359462 -0.00506137 0.0267318 0.0251381 -0.00704509 0.0157009 0.00224349 -0.00317444 -0.0167716 0.00533758 -0.00661097 -0.0139988 0.0121983 0.00118905 0.0238058 -0.0246188 0.0153013 0.0282779 0.013419 0.00893874 -0.0196653 -0.0187743 -0.010651 -0.0180859 -0.00750433 -0.0227287 -0.0321139 -0.00729891 -0.00790241 0.0334839 0.0292133 0.0225326 -0.00535769 -0.0141088 0.005191 -0.0237056 0.025498 -0.0240639 -0.0122905 -0.020107 -0.000869347 -0.0064165 0.00300838 -0.02656 0.0242893 -0.0195374 -0.0252376 0.0136359 0.00200859 -0.0368687 0.0134266 0.00311042 0.0131254 0.022462 -0.0228679 -0.0273791 -0.00452439 -0.00222272 -0.0223699 -0.023054 -0.0336023 -0.0264235 -0.00127231 0.00784254 -0.00292215 -0.0133525 -0.0136723 -0.0325148 -0.0325385 0.00730801 0.0218574 -0.00511994 -0.0307291 -0.0194166 -0.0159615 -0.0217496
internal_weight=35348.2 15088.3 20259.9 14317.1 5934.69 14325.2 4500.62 4735.83 4171.25 3360.35 9816.47 1285.02 5189.31 2886.23 9135.9 3807.25 5195.68 1375.48 1599.35 2442.74 1240.65 3298.67 681.947 508.573 1761 730.942 771.226 750.203 2136.02 1202.09 4029.98 499.219 1688.21 647.722 844.045 793.742 2333.74 3201.93 935.291 917.401 1836.39 1337.99 522.476 231.42 372.105 245.687 208.28 1230.97 874.621 169.17 1450.65 409.922 2746.57 800.309 253.679 329.369 711.405 482.122 299.631 245.612 350.215 241.342 430.656 71.7232 644.536 663.723 226.535 1198.86 815.517 569.291 126.493 200.889 320.77 135.733 188.606 275.617 300.293 129.044 96.7415 1696.24 901.617 469.889 258.302 368.037 440.977 37.6101 616.256 669.939 219.414 157.042 457.298 322.153 187.735 65.8665 2019.51 279.82 219.471 229.284 74.1796 1413.06 72.5468 88.217 25.7489 579.282 30.8898 585.839 54.6869 240.673 385.739 182.856 76.6463 249.868 37.5939 225.628 121.8 90.0541 199.802 111.024 62.468 313.91 231.723 34.9001 136.071 469.008 394.212 271.844
internal_count=20613800 17547135 3066665 17491585 2164160 902505 4129193 2098992 4046001 1775546 13362392 883233 682167 3162768 220338 4866639 193379 323446 1172777 490292 343390 4374076 356643 492563 602769 243324 55550 575281 2587487 146902 184650 200637 539674 467458 709151 690751 143546 4307068 1054318 816134 2313603 389653 191031 112868 224493 42771 127504 104521 1019256 163618 1941213 184979 191875 44389 161054 83192 249740 193945 273884 119374 150021 118414 60132 10804 80122 655080 36688 65168 198622 163065 105119 108506 163396 103756 145260 242965 365059 86424 67008 41104 33551 26624 118944 260299 174082 27742 66331 621188 154834 120512 172938 138691 59946 70757 170549 220911 185028 55795 45758 1914711 23748 39388 9343 44131 30973 600663 38819 104921 372390 105679 81672 233622 26502 75223 53019 48347 146122 128624 44452 96344 42687 16017 86629 389065 317445 243889
cat_boundaries=0 1 2 3 4 5 6
cat_threshold=817 4 2 1 1 1
is_linear=0
shrinkage=0.025


Tree=4
num_leaves=127
num_cat=2
split_feature=15 16 63 15 15 68 7 7 19 134 126 68 63 15 15 16 137 63 63 63 2 16 15 70 88 7 7 137 7 41 7 98 13 70 70 7 26 51 139 138 13 2 15 108 63 34 8 83 79 12 138 21 14 7 108 61 40 137 2 7 137 9 14 62 7 109 10 136 135 73 13 108 63 93 130 141 79 8 59 136 75 134 75 63 53 110 13 138 48 11 79 140 8 37 3 15 15 138 8 139 126 11 61 34 140 37 104 91 88 14 2 22 26 52 80 7 48 140 62 80 53 51 53 14 139 103
split_gain=37051 3824.58 3115.1 2164.59 1264.96 621.112 433.94 369.465 342.853 277.585 263.619 265.959 238.308 237.394 202.59 199.603 196.148 169.633 165.692 161.874 139.769 142.464 136.462 131.043 128.405 121.64 117.216 143.398 116.935 116.157 111.083 100.206 98.7134 97.8618 97.0567 96.4884 93.3927 87.0333 86.7154 85.098 84.7667 87.629 80.6091 80.2461 79.5952 94.421 77.8109 77.6656 76.6124 75.7171 75.0086 72.5728 70.5512 74.1491 69.9591 69.5431 69.4933 69.294 68.965 88.8191 82.0864 75.609 66.4514 97.5996 70.6705 66.3427 65.7956 64.6251 63.9789 62.9556 62.1817 61.6548 61.2456 61.0567 58.9053 58.4601 57.8669 57.8502 57.6457 56.4338 61.2687 54.8281 53.7915 53.6485 53.6341 53.5856 71.4007 55.3327 54.2104 53.4623 52.7614 52.3279 52.2687 50.3522 49.9844 49.5286 49.4745 49.0083 64.2666 52.5552 50.2857 48.883 48.8351 48.2672 72.6994 56.2053 48.18 48.1241 47.7666 47.2973 47.2664 84.6795 79.0402 52.8631 47.6685 47.0221 46.7775 46.7125 50.5943 46.401 46.395 46.2751 46.1352 46.1053 45.8898 53.5027
threshold=0.52584344148635875 1.0000000180025095e-35 1.5000000000000002 0.4063516110181809 0.6266918182373048 80.500000000000014 8.5000000000000018 5.5000000000000009 1.0000000180025095e-35 0.88374954462051403 3.3498052358627324 41.500000000000007 69.500000000000014 0.29042179882526403 0.68677228689193737 1.0000000180025095e-35 0.89009186625480663 151.50000000000003 8.5000000000000018 24.500000000000004 0.92880183458328258 1.0000000180025095e-35 0.7813607156276704 40.920928955078132 110.50000000000001 6.5000000000000009 55.500000000000007 0.98015791177749645 36.500000000000007 0 2.5000000000000004 47.500000000000007 0.45336526632308966 65.051704406738295 51.402669906616218 21.500000000000004 0.22943761944770816 0.42932257056236273 0.70123985409736644 0.78248918056488048 0.76758062839508068 0.96799793839454662 0.48326353728771215 117.50000000000001 19.500000000000004 7.5034399032592782 60086.000000000007 18.500000000000004 0.35387432575225836 0.64958801865577709 0.30015267431735998 1.5000000000000002 0.64122670888900768 47.500000000000007 189.50000000000003 0.97233769297599804 1 0.71601536870002758 0.88273492455482494 12.500000000000002 0.70394113659858715 0.036970058456063278 0.61962038278579723 22.500000000000004 52.500000000000007 0.45284849405288702 0.018376158550381664 0.96466538310050975 0.96115252375602733 143.50000000000003 0.54492726922035228 282.50000000000006 240.50000000000003 428.50000000000006 1.6390416622161867 0.85409224033355724 0.32108402252197271 297793.00000000006 -0.047996144741773598 0.85124102234840404 0.057060003280639655 0.86421924829483043 1.0000000180025095e-35 79.500000000000014 0.42018094658851629 0.087612986564636244 0.51984569430351268 0.78248918056488048 5.5000000000000009 0.025489379651844505 0.37700664997100836 0.51012927293777477 252473.00000000003 0.9251343607902528 2001.5000000000002 0.4380361288785935 0.50870126485824596 0.95683878660202037 124206.00000000001 0.75651618838310253 1.9422996640205386 0.096192270517349257 0.82807096838951122 3.1029809713363652 0.51797419786453258 0.95282062888145458 0.78010785579681408 0.59779295325279247 73.500000000000014 0.74603548645973217 0.94139117002487194 0.15476191043853763 -0.1070926859974861 0.56128555536270153 0.33856725692749029 25.500000000000004 3.5000000000000004 0.90149259567260753 14.500000000000002 0.13983380794525149 0.25161433219909674 0.28231814503669744 0.26680430769920355 0.6991691291332246 0.94467514753341686 39.500000000000007
decision_type=2 2 2 2 2 8 2 2 2 2 10 8 2 2 2 2 8 2 2 2 2 2 2 8 8 2 2 8 2 1 2 8 10 8 8 2 10 2 2 10 8 2 2 8 2 2 2 8 10 8 8 2 10 2 8 2 9 10 2 2 8 10 10 2 2 10 10 8 2 8 10 10 2 8 10 2 8 2 8 10 8 2 8 2 2 8 8 10 2 10 10 2 2 8 2 2 2 10 2 2 8 8 2 2 2 10 8 10 8 8 2 2 10 2 10 2 2 2 2 8 2 2 2 10 2 10
left_child=1 3 10 13 6 44 15 12 9 19 11 -2 85 -1 20 17 34 30 25 23 21 33 26 124 81 -15 -13 110 37 -18 70 -27 -19 83 77 -3 73 66 71 55 -26 -42 -14 -21 78 74 -16 -37 68 -39 -44 58 53 84 -40 82 67 -49 59 -48 61 117 63 -56 -64 103 -25 90 -33 -32 122 -31 -22 -35 -46 -38 -62 106 -5 80 94 -20 -36 -6 -43 95 -87 88 109 -79 -11 -47 108 -65 -30 -7 -57 98 -71 -100 -101 -83 -94 104 -34 -105 -9 -108 -45 -88 111 113 -113 -28 -114 -41 -72 118 -61 -59 -102 -60 -4 -54 125 -8
right_child=2 35 4 5 14 7 8 16 -10 56 -12 22 42 18 46 -17 29 32 24 43 72 -23 -24 28 40 31 27 -29 79 38 69 48 65 36 39 47 75 49 54 115 41 52 50 92 45 91 51 57 -50 -51 -52 -53 123 -55 62 96 -58 119 121 60 76 -63 64 93 -66 -67 -68 -69 -70 97 116 -73 -74 -75 -76 -77 -78 89 -80 -81 -82 101 -84 -85 -86 86 87 -89 -90 -91 -92 -93 102 -95 -96 -97 -98 -99 99 100 120 -103 -104 105 -106 -107 107 -109 -110 -111 -112 112 114 -115 -116 -117 -118 -119 -120 -121 -122 -123 -124 -125 -126 -127
leaf_value=-0.042548955386354413 0.034004401188568595 0.033697118736566369 -0.048718069932847198 -0.048183335808089679 0.015443539132711194 -0.047178136235428839 0.0034817048195406168 0.016071136918913848 0.028385977870433999 0.0064893610484792795 0.035871350898303657 0.023770675277109386 -0.024907785547981794 0.0095933614055606388 -0.049453329476984303 0.038241051704220111 -0.040514909856959894 -0.043071862315436568 -0.024227417250425359 0.0089642305742505916 0.022079860482940472 0.027827915824825918 0.030747038470895688 -0.00024756876806653955 -0.040121821584015949 0.036419276964086048 -0.038451806688501664 0.022583534016339002 0.021675650506983609 -0.023826202990191378 0.021268462105407226 -0.034084334419865428 -0.02739663807660957 0.0050859336022166836 0.039767960216089283 0.029411644160964368 0.016879033195607279 -0.019626813374875169 0.022291424651812712 -0.013280622051755502 -0.035754109283358891 -0.040123362362960942 -0.038252970116661074 0.024833147252864396 -0.047735934557315118 -0.047670072441854908 0.024864591316497101 -0.023984006102657413 0.016877424838423867 0.012047393959388506 -0.003254548414281834 0.036515207034077762 0.011892282717850502 0.010854972068241084 -0.034213056136020513 -0.024964113046076045 -0.021961923395172719 -0.042310932266813935 -0.050742421668612162 0.014331596831306387 -0.019335708520624013 -0.030173857965892111 0.017888488731837366 0.020306970465384929 -0.045716075382687744 -0.044801998420977061 -0.024365651470796165 0.024351618262166228 -0.00029764462324976545 -0.047327430947811111 -0.019083951166429972 0.0098902546311278646 -0.0090148375595101755 -0.01608558430305072 0.039047109282693948 -0.048635453323354089 0.019097287946328496 0.010796642859029692 0.021084030151702807 -0.0069637869845650749 -0.035006504794575073 -0.046770901891726731 -0.036595367196940919 -0.029735569924492652 0.0059452441176005514 -0.045760737366880987 -0.032131154515009461 0.018665530359009135 0.0050735253836810372 -0.037387125170670256 -0.049022454316828258 0.02507821456742956 -0.021842115514703525 -0.032647822370368076 -0.042110441093856761 0.023791674546258357 0.026723494693543817 0.024328535009721843 -0.0078520298259649717 -0.04843940270273233 -0.036078524894510501 0.026168034140393259 0.01954081283347292 0.017865515177074392 0.0038961651007104526 -0.039415501503981265 -0.031138713872459478 0.024711028769432444 -0.036349779200643521 0.0023114139312652737 0.015905022918518405 -0.036626977697270677 0.012769708682892608 0.0075863581537172573 -0.049972482443477823 -0.031016126858722837 0.022871286204920821 0.026201666298445878 -0.037173174547483444 0.015502564748307976 0.01253539228847099 0.026722496994303901 0.0065072292406875946 -0.035839696972034665 0.019156942288689974 -0.048296501872130138
leaf_weight=5937.066626287572 2449.8169310818885 373.20463428299263 10.527330586232436 7.7222031899436843 391.75982125962582 6.5498420232943309 110.87360071649891 17.036121040458966 174.26183279148972 302.14100440665607 4906.554646320923 1318.9929377744193 481.37567297923397 68.949432246223296 8.9770754749260941 149.85713374504849 98.509809982053412 40.784833004458051 56.775821981571426 40.964276176528074 998.04534421959852 192.69699714654598 950.84017681713522 118.39285803970415 2225.8453666385394 15.459748500357817 58.925209532607369 363.02118068457912 23.413510659847816 301.47615347280043 123.93750674668991 365.95458218362364 70.556042636168058 125.78522506059926 5.7900213467655703 158.63480611272826 154.53786145585309 60.729937200156201 60.98465516840588 194.73601416275051 679.91944885845237 126.14642782828741 44.940027340358938 8.2196511639776855 35.499341328362789 7.1770146806229596 693.11561138181605 38.354877330470117 22.171883477076335 211.24979262467514 257.99048427295565 275.71513661477366 59.540016541099249 26.903364286819851 90.791443879001235 32.043771524542535 35.697879696213931 9.1036843703841424 4.8338797276883261 26.306692691003263 25.967340511331713 48.538615270131231 79.042265574658813 44.559216220652161 12.667741432189358 21.298598116209178 175.47734493375174 152.86977894576376 38.736659446367412 17.825818278915904 17.058506845363809 38.191236084359844 41.224973823358596 263.43787384597999 5.6690163004823253 9.0089116352137335 428.94708210469526 67.537777524670673 272.14336800015735 91.10327900926859 212.84260408038608 6.9173444423031469 1351.5700631941563 17.146111273271345 18.05536838700209 20.748589366433407 60.876674252500379 91.975468411465044 165.14868780808411 18.289650295118918 11.093943476000275 44.471387364177644 178.46659981305993 15.000383186845282 11.424962198188949 99.667817842324439 18.118487534295127 54.039772841257218 231.55866442864772 9.4518217355107463 12.882518063779569 33.819332590606791 19.799872922259965 117.75588668433556 135.53066658659918 11.77695297685568 168.05634346685929 10.229699348143184 268.20560410582766 42.187159731542124 94.672970652580261 26.055628519792663 170.55721816955338 21.195301684394508 7.9196071425976688 179.60306149843018 630.36868215937739 46.143901180203102 21.79719387480327 184.9431587238596 257.88022440347868 1639.9287215611785 92.769961382928159 16.059035050227294 123.27030382495559 14.053706670045356
leaf_count=8495753 50214 8026 6590 6200 93269 6324 42160 7039 6510 113160 38446 128784 483946 28115 4869 1692 107500 37241 54590 18831 112537 13922 30159 60350 3252359 1394 47215 26683 7628 287713 21533 429392 54300 48350 624 4519 39948 43264 10696 145979 835859 146068 59124 2152 30968 6502 58969 14589 8882 72201 143113 5030 31189 11365 77498 37711 25701 3050 1359 5191 7993 22754 28200 12278 17453 21324 139427 22351 24780 16028 7257 17432 15873 157109 306 6790 51802 34906 51751 59684 216941 7272 1895727 10752 9397 25158 45469 17021 65551 21895 7971 8669 167559 13913 12548 18520 4686 7195 111959 6793 7705 5564 5094 34238 57256 10443 195014 3583 309112 14631 10992 8126 21503 8199 3298 226093 83598 4079 13149 25366 62603 81725 19357 20413 27258 10562
internal_value=-4.90123e-11 -0.02987 0.0221225 -0.0328128 0.0119889 -0.0183734 0.0019509 -0.0211983 -0.00535224 -0.00806122 0.0316655 0.0278873 -0.0100198 -0.0394358 0.0200551 0.0104872 -0.0262667 0.00824629 -0.0345216 -0.0129645 0.0141957 0.00820805 0.0229123 -0.00775655 -0.0366028 -0.0212923 0.0192983 0.0113518 -0.0121715 -0.015236 0.0121932 -0.0261067 -0.00622644 0.00427669 -0.0302299 0.0246043 -0.00258248 -0.00521668 -0.0113615 -0.0323838 -0.0374768 -0.0311231 -0.0185498 -0.0246076 0.0125192 -0.00754283 0.0240466 0.0159262 -0.0283713 0.00497491 -0.0084466 0.024252 -0.0183601 -0.0272466 -0.00163955 -0.0352014 0.00824201 0.00672114 0.0231002 0.0187748 0.0117129 -0.00482402 -0.0076687 -0.0178989 0.0091029 -0.00201613 -0.0146491 0.0107948 -0.0308503 0.00508612 0.0188919 -0.0200352 0.0208464 -0.00924359 -0.0357856 0.0132702 0.0169035 -0.0165787 0.0191728 -0.0237877 -0.029976 -0.00834843 -0.0362696 0.0135491 -0.0343552 0.00371323 -0.000665044 0.00193269 -0.00380534 0.00052878 0.00452328 0.0149692 -0.0275047 0.00697004 0.000757578 0.0194154 -0.00629467 0.00164975 -0.000664368 0.000960975 0.00824371 0.0137825 -0.0177094 0.000699085 -0.00681727 0.0126576 -0.024096 -0.0279342 -0.0345305 -0.0180328 0.000602792 -0.00448659 0.0040476 -0.0262727 0.00998563 -0.0217899 0.0217658 0.00823142 -0.00900663 0.0127903 0.0102224 0.0264948 0.000879057 0.00175288 0.00833516 -0.00234309
internal_weight=35043.8 14910.9 20132.9 14146.7 9764.33 4448.38 4350.41 4075.69 2344.55 2170.29 10368.6 5462 1271.46 9698.32 5413.91 2005.86 2804.23 1856 3761.25 1668.49 2193.64 1154.37 3012.18 1152.83 3249.98 511.272 2061.34 742.347 904.634 741.223 1458.3 442.323 397.703 961.676 2063.01 764.241 552.77 565.85 642.713 1781.86 3152.47 926.624 784.306 515.656 372.682 92.8168 3220.27 391.037 426.863 271.98 302.931 3211.29 246.704 171.105 303.046 1407.52 501.803 232.402 2935.58 1290.82 597.701 142.786 242.061 150.351 91.71 356.918 293.87 466.105 404.691 707.576 750.724 339.667 1039.27 389.223 41.1684 163.547 454.914 281.15 279.866 338.784 247.681 97.5125 1357.36 408.906 144.202 487.154 380.937 360.188 268.213 85.8274 313.235 51.6484 474.692 59.5596 34.8385 106.218 50.1623 583.639 529.599 511.773 280.215 40.7367 198.266 335.62 206.087 129.533 195.322 178.286 276.425 103.064 379.326 284.653 204.532 80.1205 178.477 374.339 647.427 94.2478 48.1039 194.047 270.763 1644.76 103.297 75.5991 248.198 124.927
internal_count=20613800 17547135 3066665 17491585 2693046 4129193 1937576 4024797 1370464 1363954 373619 335173 878857 13362392 755470 567112 3145940 565420 4866639 1194771 498550 370140 284959 692023 4374076 492563 254800 126016 612043 572683 350618 464448 214802 356218 2573257 55550 252197 315242 465183 2310820 4306650 1054291 686183 502748 104396 46445 256920 47524 463054 115465 202237 252051 218432 166830 160038 1938748 169183 43005 247021 163937 104968 45173 149342 103689 45653 177561 199777 143482 454172 233816 116802 305145 128410 205459 31274 46738 59795 262437 57951 296801 237117 67426 1896351 104021 155465 192674 167830 142672 125651 56801 121131 15171 483917 26191 20176 24844 42397 212283 205088 189060 77101 12836 172653 156237 111556 44681 205636 198597 311264 60100 99333 88341 32927 55414 24801 372072 90855 22419 18340 28416 70308 83084 25947 51602 79980 52722
cat_boundaries=0 1 2
cat_threshold=4 809
is_linear=0
shrinkage=0.025


Tree=5
num_leaves=127
num_cat=3
split_feature=15 16 15 15 16 68 19 70 108 2 7 63 7 137 110 15 129 139 78 13 2 90 15 70 40 131 138 2 13 66 21 7 63 123 88 22 2 7 63 63 7 135 131 8 41 105 63 138 136 80 12 8 91 14 53 89 51 78 62 106 7 19 7 62 123 69 6 0 123 5 14 5 134 134 37 13 81 139 76 29 73 42 63 138 37 35 7 91 5 10 48 1 138 141 88 13 11 9 15 1 106 38 103 109 7 139 123 37 3 63 37 141 7 70 137 13 104 91 7 109 109 13 35 123 14 7
split_gain=34679 3613.45 2775.44 1998.67 1013.36 636.698 583.719 581.734 417.122 363.681 333.373 270.526 217.693 198.306 154.151 143.541 150.415 131.361 137.453 127.536 127.29 119.109 103.603 98.6981 94.8525 92.9038 107.447 89.9162 88.4995 85.7385 82.609 96.8984 82.4609 81.0893 79.1198 78.5245 85.8269 80.2153 76.2371 74.6742 74.21 73.4268 70.404 79.7176 68.7448 68.1591 67.5475 66.4616 64.1999 63.7099 63.2881 63.1545 70.84 62.6858 61.3208 66.679 59.9307 59.7027 57.6888 57.1503 56.9697 62.4622 56.1264 59.3124 55.9568 57.5799 55.6111 55.0873 73.9301 54.0998 53.5762 53.5022 53.079 52.8143 52.1962 59.6439 51.3305 51.0081 50.7809 50.6517 50.5042 49.8376 49.6634 49.4067 63.6509 49.0494 48.9655 57.2359 57.5007 47.3834 46.7666 46.6729 56.3578 46.493 45.1369 65.8133 45.1092 45.0806 44.984 44.9182 44.6321 49.5454 44.6274 52.4764 44.0302 43.7624 43.6374 43.5615 43.377 66.2179 43.2764 43.0268 45.4086 42.9393 46.7603 48.4668 42.091 41.9265 47.2525 45.4955 41.7696 41.3267 41.2848 41.2795 41.1254 69.6601
threshold=0.52584344148635875 1.0000000180025095e-35 0.64749529957771312 0.38694421947002416 1.0000000180025095e-35 80.500000000000014 1.0000000180025095e-35 57.535621643066413 109.50000000000001 0.7577352523803712 5.5000000000000009 61.500000000000007 7.5000000000000009 0.83492690324783336 0.10933339595794679 0.29042179882526403 0.96416443586349498 0.85474354028701793 34.500000000000007 0.72180664539337169 0.93569064140319835 0.1658371984958649 0.48326353728771215 58.263422012329109 0 2.1510313749313359 0.57250222563743602 0.9693092703819276 0.44802908599376684 1.0000000180025095e-35 1.5000000000000002 75.000000000000014 23.500000000000004 3.09482753276825 108.50000000000001 0.22500000149011615 0.71033561229705822 19.500000000000004 8.5000000000000018 5.5000000000000009 6.5000000000000009 0.87147739529609691 0.929590404033661 362340.50000000006 1 0.054794669151306159 29.500000000000004 0.78248918056488048 0.044282045215368278 0.28348484635353094 0.69787323474884044 367320.00000000006 0.59779295325279247 0.52468499541282665 0.34238938987255102 0.34300339221954351 0.51964750885963451 425.50000000000006 14.500000000000002 0.93464562296867382 17.500000000000004 1.0000000180025095e-35 14.500000000000002 4.5000000000000009 -0.88196060061454762 96.897552490234389 1.5000000000000002 0.94217246770858776 1.0881282687187197 72.500000000000014 0.84477606415748607 3.5000000000000004 0.98085984587669384 0.98477905988693248 0.81952857971191417 0.77413848042488109 0.5769963562488557 0.94068413972854625 0.97681596875190746 1.0000000180025095e-35 47.500000000000007 2 72.500000000000014 0.59690147638320934 0.81093764305114757 4.5000000000000009 20.500000000000004 0.69692716002464306 7.5000000000000009 -0.14678613096475598 2.5000000000000004 0.25028765201568609 0.92130357027053844 0.055590340867638595 248.50000000000003 0.59750413894653331 -0.052543040364980691 0.071027707308530821 0.44223055243492132 0.81023094058036815 0.90465500950813305 0.20714285969734195 149.50000000000003 0.39249843358993536 78.500000000000014 0.035443708300590522 0.81401932239532482 0.77982521057128917 2010.5000000000002 17.500000000000004 0.92844781279563915 0.8146282732486726 31.500000000000004 34.610012054443366 0.99221020936965953 0.59964004158973705 0.83738544583320629 0.73202526569366466 65.500000000000014 0.48234376311302191 0.44432982802391058 0.76758062839508068 1.0000000180025095e-35 -0.91794517636299122 0.64122670888900768 7.5000000000000009
decision_type=2 2 2 2 2 8 2 8 8 2 2 2 2 8 8 2 10 2 8 8 2 8 2 8 9 10 10 2 8 2 2 2 2 10 8 2 2 2 2 2 2 2 10 2 1 8 2 10 8 8 8 2 10 10 2 10 2 10 2 10 2 2 2 2 10 10 2 2 10 2 10 2 2 2 10 10 8 2 10 2 10 1 2 8 10 2 2 8 2 10 2 2 10 2 10 10 10 10 2 2 10 2 8 8 2 2 8 8 2 2 8 2 2 8 10 10 10 10 2 8 8 8 2 8 10 2
left_child=1 3 4 15 7 42 8 20 33 12 11 70 32 23 108 -1 34 18 -10 44 25 85 -13 41 102 26 64 39 -20 46 31 -3 74 -4 54 36 37 71 40 110 -36 51 43 45 -11 -5 59 73 -19 -26 56 52 89 107 -17 96 -39 67 -8 -23 -6 113 63 -49 -2 100 -29 68 104 -37 80 -30 -33 78 -9 -76 122 117 -25 -47 -7 -55 -73 120 -85 -14 87 -46 -89 -12 -18 97 106 -51 123 -96 -56 -52 -81 -82 101 111 -21 -104 -50 -68 -93 -38 109 -15 -16 112 -66 -62 115 -115 -34 118 119 -28 -24 -40 -42 -83 -123 -126
right_child=2 30 6 5 60 10 58 9 17 19 13 22 21 14 27 16 90 48 28 24 -22 29 83 47 49 -27 77 66 35 -31 -32 72 116 -35 38 69 53 50 121 -41 76 -43 -44 -45 86 79 -48 62 57 93 91 -53 -54 81 55 -57 -58 -59 -60 -61 61 -63 -64 -65 65 -67 105 -69 -70 -71 -72 82 -74 -75 75 -77 -78 -79 -80 98 99 94 -84 84 -86 -87 -88 88 -90 -91 -92 92 -94 -95 95 -97 -98 -99 -100 -101 -102 -103 103 -105 -106 -107 -108 -109 -110 -111 -112 -113 -114 114 -116 -117 -118 -119 -120 -121 -122 124 -124 -125 125 -127
leaf_value=-0.04137252711138395 -0.046448603683103301 0.01949373581796409 0.027610709864625466 0.023916535699949053 0.033127315431580942 -0.0034285586874274743 0.037358144461956892 0.029126194293426024 0.029164220152865516 -0.032461250207308188 0.013927791142626406 -0.026042699373079695 0.014669567486263616 0.0055056394374514506 -0.0021374911516727924 -0.03310475970685467 0.039510092163127321 -0.049870075603873049 -0.044138854258380836 0.022631626275841366 0.022215029858890661 -0.021443460902850736 0.018149788164031067 -0.036411198190269153 0.024905266634155532 0.032079239284122561 -0.047863727370660442 0.0053868910401820777 0.019326420570070401 0.027352928948532602 0.032606230017575816 -0.048042580515158639 -0.0046068043356035917 0.036281778088870668 0.0036716781854809091 0.024537975948014851 -0.050193856552364274 -0.047370914950320871 -0.039469568834480565 -0.030234644614101226 0.017855202295811036 0.0055150056816807942 0.027396544331286955 0.026029358695327388 0.026353309668075593 -0.032652300836193651 -0.033386235859548655 -0.034488648191946643 0.017556166002866004 -0.034130591900156909 0.024894782545924816 0.0042282805052654953 0.024138978247207173 -0.048526488523304413 0.030469047508897701 -0.045076160950360669 0.024098965591265634 -0.041087884995700014 0.03205662897056933 -0.0012951360490207424 0.02812315269739615 0.028443244994924649 -0.029451666928927617 0.0055875342071893021 -0.004406473376127578 -0.047589213759771432 0.032429812036400274 0.02979351813004898 0.02759338586461544 -0.015954744375281701 0.04277417328864664 0.0057305034120340159 0.034433944855049164 -0.0052094580319038408 -0.019215372583284183 0.01739961288661886 -0.033631705342424816 0.023109627887226442 0.0062642765956946586 -0.034335893773015685 0.019045027685421607 -0.050266174473691576 -0.028616463959526911 -0.045957688943797786 0.0048502079596887872 -0.046268630467218852 -0.014020149516951731 0.0058384801669769957 -0.015750464314940236 -0.035403658368320538 -0.043816575014382346 0.0020008124327511082 0.02170574855936902 0.0093401384232000405 0.031744861514969101 -0.050806851701273206 -0.044665356670144082 -0.047461307130126085 0.0056263638614572481 -0.048132227834437179 0.014399178772106842 -0.032884819085266831 0.035286611714161878 -0.028346546415945341 -0.0080157600780937886 -0.037878438261134614 -0.036740404474929038 0.024428963389060941 0.014230813546352181 -0.039658933343547545 -0.034499922671259543 0.0082782711680454545 -0.044914877130721655 -0.045464014163283842 0.029904090871656155 0.0066830960388707507 -0.04503821294410959 0.030663095111846402 -0.046681160413063083 0.0077815780736983798 -0.024805792793412079 -0.035873118542601876 -0.035316229621670157 0.012928829441139836 -0.0030192290180677964 -0.034584247137854927
leaf_weight=5871.1377630210072 17.681846549476177 367.02808942990578 2092.3616901885816 43.361201177765906 541.38609796850142 357.99234712119687 1891.4017983525991 81.93001342881962 348.39024954384695 52.044334863813674 12.927964063186662 600.28509005652631 82.189610905617883 60.78244256108519 108.55962507921777 54.113975284053595 22.14612528966973 7.5118627343581457 17.270427248564374 16.977358008713054 758.47897459464275 567.82296585928543 16.026920767282718 1458.7410492957752 178.95470726053281 94.9113950447354 9.6953941036736051 105.67552192422954 181.87903492908299 22.080867808730545 364.4574703923563 21.238444875187273 288.11318097801814 994.41183664427081 48.492757704832911 394.06490673615735 4.9608365272142683 40.724456088042643 1852.6241812687658 527.6443492110875 23.601930296455976 65.601428841127927 115.82632412017847 76.356960969422289 53.47232354433072 48.82386276534271 257.23025510147272 34.607015325755128 814.69306872271773 15.643664330250429 47.74922528589741 42.287377541448222 14.719850993729777 8.8565193692993489 35.65027804516285 12.93294302439608 8.9434214206048619 8.9497185973596043 3987.0223742458875 104.12177166204492 106.17295128586375 505.04493270840067 263.90240243791777 69.300154705204477 85.918055688234745 15.9609907469312 6.4598688999467404 632.05341780446724 614.27838864544901 21.760288646284607 20.262273281747184 195.66606386779131 6.3305248557589939 35.893501481383282 45.626044274346896 71.189500668517212 261.33981834003316 221.78683182625718 17.637763059417921 21.859890593279488 112.88922862577056 6.520873212164588 30.398857904936449 16.995770084235119 165.23869512600686 9.1771020816522633 161.83785311192696 228.57860415842515 116.35710231811208 207.31349736577067 5.1976739085439467 28.923088514871779 23.683691614800409 902.33461541432644 9.4320866184352798 16.763210953868111 5.8078318339248645 6.0653023634658885 90.449419977912839 6.583775173603498 109.76146903777772 33.569702616729955 9.0448945107418677 77.522171204262122 44.374888435922912 38.56733885007452 48.884031432629854 338.65858236238455 100.65575046557933 30.454582263217162 33.88699010876735 145.9288900514257 21.654314826191694 11.847920074738793 53.501031983272696 186.29039410718542 17.044855682023808 37.238527662826527 11.843175201254779 173.80884612689533 120.69592455398742 551.2917063173818 14.881098799432946 694.81691866728215 71.895441190074052 111.41119618462108
leaf_count=8495753 18797 29134 97426 6973 8671 172308 9344 8767 14248 43165 6786 641852 29820 24298 69796 58562 466 3589 10915 3494 98562 502031 6394 2099572 28699 6187 7760 55507 27963 4727 13270 12779 162236 8626 21033 26557 1528 39810 2757872 576897 7810 38894 9678 9938 7640 40319 331253 39509 119806 10121 7538 25088 4250 4057 5498 14702 1327 3557 46386 64482 6805 15249 311799 34970 42618 13139 1170 26534 30903 4748 343 45995 367 28351 22013 13314 314840 39266 11058 18989 23626 2562 16633 15768 72509 10004 97406 74834 65420 270459 7186 10292 4282 261847 520 5566 7294 5295 33678 4780 29094 26081 860 57297 13906 42537 33043 21423 32954 30337 38678 52389 23470 5499 2771 36837 20565 3738 11752 59890 114174 651368 18519 93716 56434 160009
internal_value=1.31486e-10 -0.0290997 0.0213946 -0.0319816 0.0079656 -0.0194072 0.0278328 0.00278539 0.023296 -0.0032897 -0.0219993 -0.0118869 -0.0121954 -0.0264279 -0.0172582 -0.0390816 -0.0347025 0.0185223 0.0146086 0.00430803 0.014526 -0.0187161 -0.0199248 -0.0306052 0.00904375 0.00857359 0.00605231 -0.0219743 0.0122233 -0.0213349 0.0240246 0.0160984 0.00129649 0.0304041 -0.0352268 0.0126849 0.010294 0.00282185 -0.0360017 -0.0258984 -0.0250215 -0.0182694 0.0109961 0.00423243 -0.004977 -0.00390641 -0.0224919 -0.0328548 0.0230863 0.0111578 -0.00993723 -0.0238972 -0.0289591 0.0145345 -0.0142627 0.00448334 -0.0345017 0.0233455 0.0337624 -0.0183214 0.0267703 0.0227816 -0.0233237 -0.00776012 -0.00289792 -0.00103245 -0.00452623 0.0236194 0.0209708 0.022419 0.00295823 0.00923271 -0.0291039 -0.0351729 0.013828 0.00309846 -0.0296623 0.0145318 -0.0359014 -0.0113936 0.00126855 0.0104202 0.00111188 -0.0084109 0.000111701 0.00854878 -0.00242384 0.00228672 -0.00144411 -0.0325079 0.0236709 -0.0020813 -0.012061 0.00859933 0.0111378 -0.0210826 0.0199435 0.0167397 -0.00215189 0.0153431 0.000840112 -0.00434419 -0.0131587 -0.0216979 0.0162353 -0.0277916 -0.0223392 0.0233516 0.00291446 -0.00957013 -0.00983627 -0.000564721 -0.0125608 0.0147903 0.00916487 0.0035649 -0.00686513 0.00635225 0.00171795 0.00484157 -0.0197705 -0.03748 -0.00270579 0.0123413 -0.0324622 -0.022204
internal_weight=34814.1 14750.8 20063.2 13991.8 6501.78 5049.27 13561.5 5097.53 7683.05 3359.29 4652.59 1416.97 1546.53 3235.62 1012.69 8942.52 3071.39 4596.27 2474.41 1812.77 1738.24 1042.62 919.242 2222.93 1200.48 979.759 884.848 820.794 2126.02 951.256 759.055 394.597 503.904 3086.77 3044.04 2108.75 1692.93 612.917 2935.54 670.091 348.316 342.85 396.678 280.851 612.29 204.494 929.175 1880.08 2121.86 1096.93 204.973 277.249 234.961 1080.01 108.505 54.3911 49.6679 2114.35 5878.42 671.945 1404.24 862.857 367.81 103.907 430.475 412.793 150.703 2105.4 1473.35 415.825 497.728 407.944 27.569 1512.27 198.746 116.816 299.823 454.373 1476.38 161.133 477.465 736.39 226.065 318.957 182.234 91.3667 560.246 398.408 344.936 220.241 27.3438 155.305 101.491 917.978 727.533 26.1953 41.4581 53.8145 112.309 119.473 396.832 287.071 103.544 86.5671 859.068 45.0272 77.8071 343.619 191.893 91.237 142.447 253.501 107.572 357.812 251.639 198.138 305.158 232.586 195.347 183.504 136.723 2587.22 38.483 701.338 734.598 183.307
internal_count=20613800 17547135 3066665 17491585 2328570 4914239 738095 2252738 682365 1819995 4794664 1051754 1169212 3742910 872174 12577346 4081593 576313 378018 650783 432743 942317 850697 2870736 362318 334181 327994 784585 363770 902493 55550 42280 226895 106052 4073941 352855 321550 192178 3987885 685371 362202 345477 119575 109897 288465 99959 897766 2525259 198295 300667 101587 306583 281495 129372 86056 27494 41137 194706 55730 566513 75832 67161 386278 74479 205588 186791 99214 191149 164615 31305 201057 90591 13146 2138981 44094 35327 341169 122406 2110630 92986 200714 106421 62628 208845 88277 39824 245300 147894 140254 277245 7652 60450 47617 271968 102364 6086 12792 12833 52667 28406 173652 144558 61651 58157 133712 43707 43335 22951 87589 54635 108474 118477 66088 51912 45107 42336 182801 83140 79402 67650 120568 3625683 26329 96278 867811 216443
cat_boundaries=0 1 2 3
cat_threshold=220 4 2
is_linear=0
shrinkage=0.025


Tree=6
num_leaves=127
num_cat=3
split_feature=15 16 15 15 16 68 123 63 2 2 138 63 126 7 108 15 129 40 16 2 7 123 118 7 6 63 19 90 15 124 138 88 15 69 137 63 13 7 103 106 106 138 13 48 1 70 2 7 15 53 7 123 105 21 63 7 7 89 42 131 139 1 134 8 108 8 78 5 32 7 2 138 37 8 138 7 137 70 68 139 31 13 88 26 15 96 7 78 138 137 7 135 81 68 120 37 105 13 132 140 95 15 70 59 54 138 7 137 37 15 138 52 37 138 26 90 71 37 53 48 139 88 75 62 16 131
split_gain=32627.6 3441.17 2635.72 1847.41 958.87 597.684 524.349 470.928 332.665 317.035 204.629 160.634 157.303 153.972 150.701 135.458 145.119 126.162 119 167.244 121.929 116.905 108.566 103.696 98.2476 97.4412 86.7818 80.9138 78.7416 78.5637 87.5123 78.4482 76.7948 100.621 74.5631 74.4873 74.0738 73.7783 70.4566 69.9094 67.3251 66.9602 66.4428 62.9925 68.1446 62.1366 62.0055 60.7852 60.2053 58.4105 58.3694 76.4127 58.1167 58.0352 57.9369 57.026 56.6588 56.4257 55.3395 55.3238 54.7267 54.6878 54.2337 53.8114 60.04 57.7425 53.0895 52.7747 52.5043 51.9618 71.9038 51.8367 50.9277 53.0858 50.1422 49.7891 55.9572 49.6857 68.797 49.4443 48.9095 48.5765 48.5624 47.9737 47.807 46.6683 46.4863 46.9783 46.1989 45.8986 55.8079 45.7808 45.2595 45.1353 47.3958 44.9423 44.7692 50.1148 47.5662 48.2419 44.6552 59.374 44.6145 44.2072 44.1647 43.9059 43.7529 44.0495 43.6618 47.2299 43.638 43.5851 43.2154 43.209 43.1963 43.1991 43.1728 42.9344 42.5842 42.5707 42.2796 41.9387 43.119 41.9128 41.5477 51.4418
threshold=0.52584344148635875 1.0000000180025095e-35 0.64749529957771312 0.38694421947002416 1.0000000180025095e-35 65.500000000000014 -0.42688614130020136 3.5000000000000004 0.7577352523803712 0.97793999314308178 0.79022145271301281 71.500000000000014 5.6157271862030038 12.500000000000002 111.50000000000001 0.29042179882526403 0.96416443586349498 0 1.0000000180025095e-35 0.7577352523803712 14.500000000000002 1.3010241389274599 11.500000000000002 24.500000000000004 2.5000000000000004 28.500000000000004 1.0000000180025095e-35 0.1658371984958649 0.7004624903202058 -0.64467939734458912 0.45008906722068792 108.50000000000001 0.48828074336051946 45.979482650756843 0.81888866424560558 8.5000000000000018 0.79216527938842785 4.5000000000000009 413.50000000000006 0.90223175287246715 0.9410613775253297 0.72458329796791088 0.61231929063797008 7.5000000000000009 0.19294118136167529 55.731943130493171 0.71503761410713207 5.5000000000000009 0.57109341025352489 0.34238938987255102 15.500000000000002 3.3805907964706425 0.098288387060165419 1.5000000000000002 129.50000000000003 9.5000000000000018 2.5000000000000004 0.34300339221954351 1 0.46909961104393011 0.93277168273925792 0.97942498326301586 0.62004858255386364 328414.00000000006 389.50000000000006 438652.00000000006 329.50000000000006 84.500000000000014 53.500000000000007 7.5000000000000009 0.7197561264038087 0.52879717946052562 0.83928877115249645 286633.00000000006 0.9848642647266389 30.500000000000004 0.98015791177749645 32.435869216918952 263.50000000000006 0.70123985409736644 2 0.69593143463134777 63.500000000000007 -0.14553426206111905 0.7004624903202058 0.87525120377540599 17.500000000000004 214.50000000000003 0.49706056714057928 0.83864480257034313 38.500000000000007 0.84813326597213756 0.5769963562488557 20.500000000000004 36.500000000000007 0.78770762681961071 0.031462222337722785 0.74343702197074901 1.0656256675720217 0.95277070999145519 0.09482890367507936 0.67483302950859081 64.140789031982436 -0.031482215970754616 0.48209804296493536 0.10305452346801759 57.500000000000007 0.46295143663883215 0.8586220145225526 0.64019373059272777 0.31623518466949468 0.50480654835701 0.92655092477798473 0.61248883605003368 0.020090078003704551 0.20050725340843203 0.64032801985740673 0.93407851457595836 0.3885915875434876 2.5000000000000004 0.40668970346450811 199.50000000000003 0.080280959606170668 6.5000000000000009 1.0000000180025095e-35 -0.011725065298378466
decision_type=2 2 2 2 2 8 10 2 2 2 10 2 10 2 8 2 10 9 2 2 2 10 8 2 2 2 2 8 2 10 8 8 2 8 8 2 8 2 8 10 10 8 8 2 2 10 2 2 2 2 2 10 8 2 2 2 2 10 1 10 2 2 2 2 8 2 10 2 2 2 2 10 10 2 10 2 8 10 10 2 1 8 8 8 2 10 2 10 8 10 2 2 8 8 10 10 8 10 10 2 10 2 10 8 2 10 2 8 8 2 8 2 10 8 8 10 10 8 2 2 2 8 10 2 2 10
left_child=1 3 4 15 6 50 8 12 13 10 14 24 22 25 38 -1 31 29 19 20 41 39 -4 36 63 62 86 -15 93 30 96 49 79 113 46 37 -12 -33 -7 52 48 100 68 44 -44 59 120 108 -29 -17 91 60 -8 55 84 -6 -35 -51 95 61 -52 66 -2 64 105 -65 106 88 116 -54 74 -45 -40 -74 77 -30 -77 -71 -79 -16 110 82 -66 -26 85 -21 -3 -88 -50 -81 -91 -5 -39 -24 124 -38 -10 98 99 112 101 -9 -20 -41 -72 -11 107 111 109 -27 -42 117 -98 -34 -36 -116 -13 -32 -102 -18 -22 -49 -123 -103 125 -95
right_child=2 26 7 5 53 9 21 18 17 11 23 42 -14 27 32 16 119 -19 102 54 34 -23 28 -25 83 47 -28 40 75 -31 45 35 33 56 114 -37 58 92 72 103 80 -43 43 71 -46 -47 -48 121 67 57 51 -53 69 -55 -56 -57 -58 -59 -60 -61 -62 -63 -64 65 81 -67 -68 -69 -70 70 104 -73 73 -75 -76 76 -78 78 -80 89 -82 -83 -84 -85 -86 -87 87 -89 -90 90 -92 -93 -94 94 -96 -97 97 -99 -100 -101 118 123 -104 -105 -106 -107 -108 -109 -110 -111 -112 -113 -114 -115 115 -117 -118 -119 -120 -121 -122 122 -124 -125 -126 -127
