tree
version=v4
num_class=1
num_tree_per_iteration=1
label_index=0
max_feature_idx=148
objective=lambdarank
feature_names=pop_pct era_pop_pct within_artist_pop release_year has_year tag_count n_artists artist_track_count duration_ms cf_last cf_centroid cf_drift clap_last clap_centroid siglip_centroid same_artist_session same_artist_last same_album_last same_album_any album_played_count artist_played_count artist_share turn_number_f n_played has_history user_cf has_user_vec age_era_affinity culture_match age_group gender goal_category goal_specificity listener_goal_cos session_minus_release_year tag_overlap tag_overlap_idf n_exact_tier max_tag_match_score tag_emb_cos title_request_overlap has_constraint request_type intent_mode target_artist_mode routing_lyric routing_visual routing_exact temporal_strength year_in_constraint n_facts wants_new_artist q06_lyric_cos msg_meta_cos msg_attr_cos msg_lyr_cos ctx_meta_cos lex_overlap_idf title_in_msg wants_new_proxy x_same_artist_wants_new x_cflast_turn x_era_hard x_pop_within_artist n_same_artist_in_union artist_best_rank_in_union same_artist_as_abandoned tag_overlap_abandoned artist_mention rejected_artist_proxy rank__bm25 score__bm25 margin__bm25 ratio__bm25 hit__bm25 rank__centroid.anchor_tracks.audio_laion_clap score__centroid.anchor_tracks.audio_laion_clap margin__centroid.anchor_tracks.audio_laion_clap ratio__centroid.anchor_tracks.audio_laion_clap hit__centroid.anchor_tracks.audio_laion_clap rank__centroid.anchor_tracks.cf_bpr score__centroid.anchor_tracks.cf_bpr margin__centroid.anchor_tracks.cf_bpr ratio__centroid.anchor_tracks.cf_bpr hit__centroid.anchor_tracks.cf_bpr rank__centroid.anchor_tracks.image_siglip2 score__centroid.anchor_tracks.image_siglip2 margin__centroid.anchor_tracks.image_siglip2 ratio__centroid.anchor_tracks.image_siglip2 hit__centroid.anchor_tracks.image_siglip2 rank__centroid.user.cf_bpr score__centroid.user.cf_bpr margin__centroid.user.cf_bpr ratio__centroid.user.cf_bpr hit__centroid.user.cf_bpr rank__dense.clap_text.sonic_nl.audio_laion_clap score__dense.clap_text.sonic_nl.audio_laion_clap margin__dense.clap_text.sonic_nl.audio_laion_clap ratio__dense.clap_text.sonic_nl.audio_laion_clap hit__dense.clap_text.sonic_nl.audio_laion_clap rank__dense.qwen_0_6b.lyric.lyrics_qwen3_embedding_0_6b score__dense.qwen_0_6b.lyric.lyrics_qwen3_embedding_0_6b margin__dense.qwen_0_6b.lyric.lyrics_qwen3_embedding_0_6b ratio__dense.qwen_0_6b.lyric.lyrics_qwen3_embedding_0_6b hit__dense.qwen_0_6b.lyric.lyrics_qwen3_embedding_0_6b rank__dense.qwen_8b.attributes.attributes_qwen3_embedding_8b score__dense.qwen_8b.attributes.attributes_qwen3_embedding_8b margin__dense.qwen_8b.attributes.attributes_qwen3_embedding_8b ratio__dense.qwen_8b.attributes.attributes_qwen3_embedding_8b hit__dense.qwen_8b.attributes.attributes_qwen3_embedding_8b rank__dense.qwen_8b.metadata.metadata_qwen3_embedding_8b score__dense.qwen_8b.metadata.metadata_qwen3_embedding_8b margin__dense.qwen_8b.metadata.metadata_qwen3_embedding_8b ratio__dense.qwen_8b.metadata.metadata_qwen3_embedding_8b hit__dense.qwen_8b.metadata.metadata_qwen3_embedding_8b rank__lookup.era_popularity score__lookup.era_popularity margin__lookup.era_popularity ratio__lookup.era_popularity hit__lookup.era_popularity rank__lookup.resolved_artist_discography score__lookup.resolved_artist_discography margin__lookup.resolved_artist_discography ratio__lookup.resolved_artist_discography hit__lookup.resolved_artist_discography z__score__bm25 z__score__centroid.anchor_tracks.audio_laion_clap z__score__centroid.anchor_tracks.cf_bpr z__score__centroid.anchor_tracks.image_siglip2 z__score__centroid.user.cf_bpr z__score__dense.clap_text.sonic_nl.audio_laion_clap z__score__dense.qwen_0_6b.lyric.lyrics_qwen3_embedding_0_6b z__score__dense.qwen_8b.attributes.attributes_qwen3_embedding_8b z__score__dense.qwen_8b.metadata.metadata_qwen3_embedding_8b z__score__lookup.era_popularity z__score__lookup.resolved_artist_discography pct_pop_pct pct_era_pop_pct pct_cf_last pct_cf_centroid pct_user_cf pct_tag_overlap_idf pct_msg_meta_cos pct_lex_overlap_idf b1_cos is_played_track rejected_artist_exact rejected_track_exact violates_new_artist
monotone_constraints=0 0 0 0 0 0 0 0 0 0 0 0 0 0 0 0 0 0 0 0 0 0 0 0 0 0 0 0 0 0 0 0 0 0 0 0 0 0 0 0 0 0 0 0 0 0 0 0 0 0 0 0 0 0 0 0 0 0 0 0 0 0 0 0 0 0 0 0 0 0 0 0 0 0 0 0 0 0 0 0 0 0 0 0 0 0 0 0 0 0 0 0 0 0 0 0 0 0 0 0 0 0 0 0 0 0 0 0 0 0 0 0 0 0 0 0 0 0 0 0 0 0 0 0 0 0 0 0 0 0 0 0 0 0 0 0 0 0 0 0 0 0 0 0 0 -1 0 0 0
feature_infos=[0:0.99997878074645996] [0:0.99967086315155029] [0:1] [1900:2022] [0:1] [0:105] [1:33] [1:156] [0:2558287] [-0.393443763256073:0.70936155319213867] [-0.35295072197914124:0.76879715919494629] [-0.39643657207489014:0.5824819803237915] [-0.12856748700141907:0.96526092290878296] [-0.12856748700141907:0.96739768981933594] [0:1.0000001192092896] [0:1] [0:1] [0:1] [0:1] [0:7] [0:7] [0:1] [1:8] [0:7] [0:1] [-0.36864811182022095:0.70741677284240723] [0:1] [0:1] [0:4] -1:1:0:2:3:4 -1:1:0 -1:10:1:7:5:4:3:6:9:0:2:8 -1:1:2:3:0 [0:0.92587578296661377] [-3:120] [0:10] [0:38.512889862060547] [0:18] [0:1] [0.42942476272583008:1.0000002384185791] [0:1] [0:1] -1:0:5:7:4:3:8:9:6:2 -1:0:2:1 -1:2:0:1 [0:1] [0:1] [0:1] -1:0:2:1 [0:1] [0:21] [0:1] [0:0.89845180511474609] [0:0.87997990846633911] [0:0.90216308832168579] [0:0.64718031883239746] [0:0.87997990846633911] [0:36.746135711669922] [0:1] [0:1] [0:1] [-0.33063000440597534:0.62474006414413452] [0:1] [0:0.99997878074645996] [1:156] [1:500] [0:1] [0:2] [0:1] [0:1] [1:500] [2.8672246932983398:245.04046630859375] [0:289.33401489257812] [0.026709958910942078:1] [0:1] [1:500] [0.3872067928314209:1] [0:0.58890318870544434] [0.39668357372283936:1] [0:1] [1:500] [0.19300007820129395:1] [0:0.80141943693161011] [0.19858065247535706:1] [0:1] [1:500] [0.46703445911407471:1.0000002384185791] [0:0.52905023097991943] [0.47094988822937012:1] [0:1] [1:500] [0.19573909044265747:0.70741677284240723] [0:0.39438521862030029] [0.35864388942718506:1] [0:1] [1:500] [0.14163422584533691:0.73107051849365234] [0:0.33981865644454956] [0.38694208860397339:1] [0:1] [1:500] [0.44159972667694092:0.89845186471939087] [0:0.39861756563186646] [0.5303645133972168:1] [0:1] [1:500] [0.60667538642883301:0.98884564638137817] [0:0.18222367763519287] [0.80290937423706055:1] [0:1] [1:500] [0.15637373924255371:0.9094310998916626] [0:0.37820690870285034] [0.52293634414672852:1] [0:1] [1:200] [1:200] [0:199] [0.004999999888241291:1] [0:1] [1:149] [1:210] [0:148] [0.0098039219155907631:1] [0:1] [-1.7344425916671753:12.15526294708252] [-1.685547947883606:8.1928024291992188] [-1.5111383199691772:17.76093864440918] [-1.6631371974945068:16.975460052490234] [-1.6095058917999268:6.7055668830871582] [-1.5158556699752808:5.9688053131103516] [-1.1379940509796143:7.1492824554443359] [-2.539792537689209:8.306483268737793] [-1.3872084617614746:12.51545238494873] [-1.740077018737793:1.741416335105896] [-1.7543362379074097:1.7863674163818359] [0:1] [0:1] [0:1] [0:1] [0:1] [0:1] [0:1] [0:1] [-0.15401482582092285:0.93250489234924316] none [0:1] none [0:1]
tree_sizes=14262 14395 14361 14306 14340 14324 14360 14345 14379 14333 14376 14332 14356 14362 14288 14385 14383 14310 14366 14389 14333 14345 14377 14417 14397 14366 14387 14370 14370 14419 14332 14402 14334 14380 14393 14372 14373 14388 14360 14402 14376 14344 14416 14404 14406 14433 14364 14360 14344 14385 14398 14291 14431 14432 14374 14394 14373 14420 14341 14368 14418 14338 14390 14365 14410 14422 14417 14397 14380 14360 14332 14393 14394 14359 14384 14413 14394 14359 14379 14356 14404 14382 14404 14401 14281 14369 14411 14379 14399 14353 14360 14371 14417 14369 14302 14401 14351 14354 14411 14419 14395 14332 14363 14380 14402 14329 14408 14252 14399 14396 14393 14377 14350 14425 14441 14419 14412 14337 14352 14378 14444 14330 14286 14312 14440 14438 14384 14367 14388 14323 14377 14404 14430 14417 14442 14364 14430 14380 14356 14356 14353 14310 14321 14298 14267 14242 14336 14420 14364 14364 14265 14392 14352 14414 14357 14295 14400 14414 14295 14399 14375 14328 14370 14365 14357 14281 14344 14292 14317 14409 14470 14378 14439 14351 14349 14329 14301

Tree=0
num_leaves=127
num_cat=8
split_feature=144 144 20 144 15 2 21 7 7 144 140 140 110 44 2 139 144 64 43 72 42 140 70 65 22 133 144 70 108 42 53 70 11 39 125 91 63 44 39 13 43 50 132 137 19 140 33 14 7 120 102 2 6 61 70 18 71 8 7 7 0 0 72 40 138 0 5 140 13 71 128 64 2 64 112 13 106 73 22 75 76 75 14 126 43 70 72 64 73 16 20 70 111 107 144 73 70 65 139 111 52 70 2 10 70 72 39 72 142 65 14 64 105 132 44 142 139 139 8 71 107 95 138 75 125 82
split_gain=33490 3073.9 2509.99 1462.18 940.378 658.208 482.196 361.368 255.648 254.705 186.041 184.763 173.583 164.508 163.215 158.721 152.609 123.365 105.569 103.277 103.101 102.461 101.853 132.558 117.008 103.05 101.297 94.098 97.8404 94.0807 89.7756 123.408 88.5998 87.1918 86.2123 84.1454 81.0108 71.0029 74.9793 69.517 67.8399 71.4999 67.4548 60.1567 59.0358 57.3676 57.1219 57.1201 56.8394 56.5318 56.1853 55.0927 54.6658 53.3644 51.9092 50.3753 91.8095 50.0808 48.7066 48.3939 47.7887 46.713 45.8381 45.8151 58.4779 45.1212 45.0796 44.4179 44.0929 42.1953 42.1947 42.1604 42.107 41.5602 41.0523 43.0796 40.8952 40.6595 47.9991 42.2675 40.5238 42.0484 39.1899 38.9233 38.7159 54.6052 38.6587 38.5307 44.5587 51.0743 38.506 38.4593 63.1859 56.8564 38.0058 37.7739 37.7479 49.5331 44.168 37.2174 37.1542 36.784 42.046 52.4982 36.6239 49.585 36.4463 67.265 36.2604 35.8113 35.8094 35.41 35.3715 35.1613 35.1453 34.982 34.7397 34.6969 34.6089 34.2819 45.9484 38.1582 36.424 34.2621 33.6736 33.642
threshold=0.52726051211357128 0.64769449830055248 1.0000000180025095e-35 0.40606036782264715 1.0000000180025095e-35 0.88273492455482494 0.22500000149011615 7.5000000000000009 6.5000000000000009 0.71843385696411144 0.79087570309638988 0.67353487014770519 68.500000000000014 0 0.87915298342704784 0.85400423407554638 0.28995323181152349 9.5000000000000018 1 18.216926574707035 2 0.31449437141418463 181.50000000000003 27.500000000000004 3.5000000000000004 1.1973513364791872 0.47038261592388159 202.50000000000003 0.90950962901115429 3 0.51563245058059703 148.50000000000003 0.24267612397670749 0.86366140842437755 -0.03363340534269809 0.24867582321166995 0.85576760768890392 4 0.92437684535980236 0.75341826677322399 5 2.5000000000000004 0.84367045760154735 0.94249254465103161 1.0000000180025095e-35 0.55168393254280101 0.41139675676822668 0.64764010906219494 18.500000000000004 30.500000000000004 0.13272529840469363 0.95469206571578991 1.5000000000000002 0.14859302341938022 38.500000000000007 1.0000000180025095e-35 52.920312881469734 342186.50000000006 25.500000000000004 32.500000000000007 0.79795414209365856 0.15368273854255679 88.654998779296889 0.17914438992738727 0.90138646960258495 0.83874359726905834 17.500000000000004 0.97284200787544262 0.84979280829429638 139.43842315673831 0.04380586929619313 28.500000000000004 0.99677419662475597 55.500000000000007 0.11155104637145997 0.68165129423141491 0.8407801389694215 0.71287173032760631 3.5000000000000004 150.50000000000003 0.73397338390350353 45.500000000000007 0.8458964228630067 -0.64203214645385731 6 120.50000000000001 19.054954528808597 19.500000000000004 0.63467296957969677 1.0000000180025095e-35 1.0000000180025095e-35 5.5000000000000009 0.71606040000915538 0.08748865127563478 0.37648990750312811 0.78054252266883861 131.50000000000003 160.50000000000003 0.62015968561172496 0.54186901450157177 0.43084606528282171 208.50000000000003 0.70991116762161266 0.35741218924522405 206.50000000000003 51.378023147583015 0.90015569329261791 7.2406311035156259 0.48216879367828375 69.500000000000014 0.43258544802665716 42.500000000000007 82.500000000000014 2.5033369064331059 7 0.011615633964538576 0.85000658035278331 0.39956869184970861 366560.50000000006 36.310802459716804 0.073129385709762587 24.500000000000004 0.93321555852890026 199.50000000000003 3.784902930259705 0.17366105318069461
decision_type=2 2 2 2 2 2 2 2 2 2 10 10 8 1 2 8 2 2 1 8 9 8 8 2 2 10 2 8 10 9 2 8 8 8 10 10 2 1 8 8 1 2 10 2 2 8 2 10 2 8 8 2 2 8 8 2 10 2 2 2 2 2 8 2 8 2 2 10 10 8 10 2 2 2 8 10 8 10 2 8 8 8 10 8 1 8 8 2 10 2 2 8 10 10 2 10 8 2 10 8 8 10 2 8 10 10 10 8 2 2 10 2 10 10 1 2 8 8 2 8 8 8 10 8 8 8
left_child=2 4 3 16 5 8 9 13 19 14 12 22 15 -5 17 108 -1 106 -12 -2 62 70 24 29 25 57 33 28 52 59 31 76 34 109 -11 39 80 -13 67 -18 -37 -42 47 -26 49 96 -28 50 94 -8 -41 -36 63 -54 83 56 -4 -10 -20 -24 -60 117 -7 -22 66 74 -65 -39 101 -67 119 -51 -58 -43 -48 -76 95 -16 -79 -80 -14 -82 118 -40 -38 -86 -77 -6 -89 112 116 92 93 115 123 -19 98 -98 -21 -81 -30 102 103 -56 113 -106 -3 -108 -9 -23 -97 -68 124 -83 -47 -73 -33 -35 -63 120 -15 -121 -123 -49 -90 -52
right_child=1 6 55 7 87 20 44 10 11 32 18 37 36 21 77 -17 35 30 58 45 27 26 23 -25 43 -27 46 -29 100 -31 -32 90 -34 61 51 40 84 38 54 42 41 73 -44 -45 -46 114 65 48 -50 71 125 -53 53 -55 68 -57 72 -59 60 -61 -62 82 -64 64 -66 69 111 -69 -70 -71 -72 91 -74 -75 75 86 -78 78 79 99 81 104 -84 -85 85 -87 -88 88 89 -91 -92 -93 -94 -95 -96 110 97 -99 -100 -101 -102 -103 -104 -105 105 -107 107 -109 -110 -111 -112 -113 -114 -115 -116 -117 -118 -119 -120 121 -122 122 -124 -125 -126 -127
leaf_value=-0.04898752207762469 -0.034202366317627138 0.037632671696719321 0.03460470673648134 -0.045988324492158651 0.044944640243750125 0.020697114725790996 0.047750138315609036 0.0059245929710733357 -0.03325780662199268 0.044017448831879746 -0.04092085652944475 -0.041650748712547148 -0.00061617454638462942 0.044291877481482118 0.037412965407400904 0.028956389232153448 -0.045048033032526948 0.011942321813253651 0.0062260631397739715 -0.049999999999999989 0.01536311765367002 0.027088123610916278 0.016344615399727463 -0.033495344256688146 -0.043671184190809065 0.023163781047126849 -0.050000000000000003 0.028818141632811958 -0.039176559815169015 -0.030289075689774105 0.029215574436377095 -0.0025441373576465427 0.044715553760670122 -0.045859891970561839 0.016659149605470085 -0.04778405638333165 -0.046089715952846631 0.00702966231247832 0.02172564434230892 0.025839390686752575 0.035231113010045875 -0.027438821577869688 0.0063214755914856539 0.029431895586340052 0.047704788180667951 -0.037278701326732458 0.028235887678623714 0.0047025278808361902 -0.039375459794057655 0.043529002676979588 0.014903500367947638 0.035579651123576368 -0.047658676337814322 0.015792996596004416 -0.045900841337398593 0.043888257812139314 -0.049999999999999989 0.011829346904149019 -0.028224100592393123 -0.0082951570761861746 0.0011935015057183125 -0.035204435763940022 -0.031549317942874064 0.020669000872871976 0.018983966069776134 -0.042435488723860493 -0.043449820914321008 0.034460597888916075 0.021562374921049021 0.0097009778679947312 0.02488556683317188 0.04990772046410126 0.027540707882708418 0.021528705107493901 -0.0072847846335427693 -0.049999999999999989 -0.025913949562972036 0.036591251054762151 0.031359632176604278 -0.050000000000000003 -0.0085218996806781418 -0.040960457590710084 0.04866753239498036 -0.04375969544833478 -0.042133088568698358 -0.00099353674840477624 0.019892901957658679 0.03987245273094852 0.017399426133934592 0.036062023276120077 0.043923895602934339 0.034020580274768626 0.047203197675123598 0.04010347278868151 0.0087341895161695705 0.03412186601518221 0.017973636533160059 -0.035800560816130256 0.010966950401726988 0.0050175827496332986 0.030498354626442004 0.021615946164555921 0.0069228699426419462 0.0082010112912901372 -0.0028304062108010283 -0.041516077202970125 -0.050000000000000003 0.023673330939062223 -0.043221448864059486 -0.0068556170874673646 -0.050000000000000003 0.019868927188046861 -0.050000000000000003 -0.0034414243261394212 0.02499911182079527 -0.050000000000000003 0.024936097778306923 0.014429427967163361 0.00062724647548829515 0.030116676783278541 -0.038945341660701009 -0.037076428972603846 0.015943701075296735 -0.041701975158068338 -0.050000000000000003 -0.042968846467855676
leaf_weight=3492.9051649914345 28.08747064772615 132.06049007099546 72.779423875430098 70.536837974769128 292.29632310837951 14.559437713316695 475.96294102692735 12.058235934368893 83.517794139608242 244.03845513698536 65.228886218348407 23.494981204623173 17.990704643373192 9.2661504518032398 466.10394903831821 51.421385358218913 1433.5986159575771 46.52002114060474 121.3494473242273 16.552117013455817 218.0835019862684 37.626685273882714 128.63003211109083 111.89476036396422 207.87400206064794 38.211452758523137 10.234500115628178 487.84268704366661 4.9189206633558342 44.183007995246726 85.159814649799159 59.686099447693437 850.46508409773242 7.4007284623110072 216.44466644247859 47.721241521140087 23.979468043118004 178.58128146905395 6.7591766327795995 7.7134740594738105 16.899511728147331 79.095740310862539 23.538491512606925 7.2819163480810394 2903.3387906703392 5.8203353907274504 83.228230492078183 15.360543014187213 75.608919099121067 310.16842417080869 6.3641997563581754 173.1160801120692 21.95573314106241 13.303736656102613 38.562374426902551 193.20126356155822 13.881536267848334 18.877625296303563 79.179303639211639 81.311859741574722 61.182624003918022 125.44189154572351 37.597951740096164 12.126726895632599 36.172189089924814 18.57810617519516 36.583278774088171 46.500923432413572 37.671031724336558 20.306725248264229 10.581245354866267 2.514260388677946 6.3926521752600811 12.55190681306294 76.932770456431172 5.1749989414693118 91.920764764451064 75.097957810503431 29.949529464705847 9.8183642617095739 28.684072146464587 1054.8182670416122 4.0276448068761956 35.296640820110042 26.65929161220356 82.775574466543503 111.81102224868005 197.16162384172344 49.068909308077309 66.368536316946802 26.881351017023349 354.10907800241699 17.270046187448315 8.5733659813558898 38.577547501676236 4.1001923450767235 72.050616179681356 12.574446084319559 13.471086153440636 35.36059703830324 173.58951146675986 18.721809693706746 29.43429559138275 15.803992399188472 39.382159245951698 43.669638159492933 8.0853221199104137 184.27878159973238 42.289612144551484 40.15936032584932 13.832518949661788 6.5009510782465432 6.6640644620360936 15.845909096947706 210.09555635493473 17.006056617443392 55.475014399913334 30.776690346568785 19.461115517148755 6.1443847385262416 7.4996261816797896 123.91857954050508 8.6643694356998804 28.202187255998297 5.1159779121080637 463.37959681442385
leaf_count=8475537 2621 40443 38183 100622 14697 5641 10888 10201 27781 72299 95463 30691 16917 948 124781 11480 3289443 7654 145894 6722 31457 26991 199061 346501 64035 2431 22990 494213 1430 72447 14961 109939 47294 18926 22018 72931 35466 206426 283 3646 11105 232487 21299 530 47149 7414 34586 23470 177703 15208 5504 8073 7557 1570 70611 12957 4564 3167 172674 215146 96713 223215 46430 1229 2115 10627 7043 19524 24986 32272 8144 2 545 11270 103914 701 22139 1968 1031 1472 39520 1934677 62 4930 5743 170580 94897 51808 4381 2733 7494 62829 177 62 44314 89 77359 40386 2030 3114 10794 27390 24619 11881 156375 123273 357 62622 41279 94552 2040 503 1444 9689 116642 1434 48410 27155 18473 4284 11597 271055 8018 75927 223 906128
internal_value=5.50071e-10 0.0309205 -0.0361795 -0.0386791 0.0106326 0.00399056 0.040307 -0.0231026 -0.00661224 0.032331 -0.0294896 -0.0123479 -0.033356 -0.00947215 0.024361 -0.00252815 -0.0457173 0.0161724 -0.0124654 0.0118208 0.0190612 -0.00607065 -0.0200811 -0.0108224 -0.0296067 -0.0118713 -0.00119645 0.0207147 0.0135553 -0.000839113 0.00657501 0.000114008 0.0394431 -0.0126816 0.0323661 -0.0406374 -0.0358006 0.00060769 0.00304517 -0.0419591 -0.0229413 -0.0120195 -0.0352367 -0.041197 0.0457852 0.0157313 0.00812826 -0.0367767 -0.0237342 0.0410844 -0.0410858 0.0250672 0.00577599 -0.0237178 -0.00887478 0.0366099 0.0214983 -0.0249455 -0.00537315 0.00649223 -0.0154012 -0.0219295 -0.0142357 0.0091364 -0.0057235 0.0100107 -0.0219109 0.0126968 -0.00156712 -0.0152084 -0.0234209 0.0366136 -0.0255506 -0.0207323 0.0135491 0.0072456 -0.0152084 0.0337676 0.022457 0.00832857 -0.0378546 -0.0384212 -0.028254 -0.0332349 -0.0173196 -0.0110155 0.0168011 0.0383615 0.0324296 0.0208946 0.0169823 0.0312442 0.00957155 -0.0135618 -0.00933659 5.95371e-05 0.00143892 0.00998332 -0.0226448 -0.00693893 0.0285784 -0.0100659 -0.0171439 -0.0301737 -0.0391646 -0.0231718 0.0275195 0.0205767 -0.0323173 0.00956366 -0.0307661 -0.0338957 0.00435125 -0.0404052 0.0233203 -0.0371317 0.0106935 0.00274229 -0.0303921 -0.0267081 0.00705841 -0.0307889 -0.0336115 -0.0253394 0.0110358 -0.0421848
internal_weight=18710.6 10088.5 8622.06 8335.8 3191.17 2574.5 6897.34 2594.29 1511.26 2808.4 1766.51 1152.61 1439.57 827.772 1324.33 105.769 5741.52 708 326.94 358.652 1063.23 757.235 721.782 366.02 355.763 140.607 591.16 1011.08 523.235 254.125 383.576 298.416 1484.06 264.894 633.599 2248.61 1333.81 430.827 407.332 2092.34 156.268 108.547 658.745 215.156 4088.94 330.564 326.266 635.206 157.749 1185.6 477.457 389.561 344.726 35.2595 182.249 286.255 93.0536 102.395 261.711 209.942 140.362 187.108 52.1574 309.467 91.3831 316.032 55.211 225.082 140.194 38.8848 166.074 709.641 20.2742 91.6476 277.147 193.919 156.373 616.33 150.226 75.1285 1200.39 1182.4 148.931 42.0558 133.414 109.435 116.986 616.675 324.379 127.217 142.042 399.473 45.3637 28.0937 82.1403 64.4527 114.648 84.6251 30.0232 45.179 178.508 102.522 83.8007 54.3664 1153.72 83.0518 324.425 192.364 54.3478 77.786 17.9327 43.0842 60.849 1070.66 215.916 19.5203 115.161 38.1774 144.903 155.493 16.7658 138.727 132.583 43.5627 54.1849 469.744
internal_count=20613815 3026829 17586986 17530737 2290882 2215596 735947 4179973 1605614 598198 3065944 1352440 2555200 1114029 448514 62960 13350764 316148 510744 253174 609982 1013407 931099 833155 97944 33379 709361 557911 63698 486654 212726 197765 149684 409374 102390 4875227 2492240 421341 390650 4547434 327793 254862 1257991 64565 137749 250553 299987 1236692 321414 90600 915278 30091 51474 9127 164700 56249 43292 30948 415281 414207 269387 287831 52071 42347 10890 276997 8775 225950 159487 42899 304046 79712 5109 243757 234098 199512 31922 132366 7585 5617 2280451 2263534 241750 5213 211789 176323 95598 75286 60589 8781 165843 64504 1675 1498 143711 9783 126497 117745 8752 4586 12224 134501 107111 82492 2224014 279648 103422 62979 51480 121543 2129 7546 6048 1944366 124056 1436 158349 46081 241688 295902 12545 283357 279073 99397 4604 911632
cat_boundaries=0 1 2 3 4 5 6 7 8
cat_threshold=2 4 200 801 2 4 4 2
is_linear=0
shrinkage=0.025


Tree=1
num_leaves=127
num_cat=4
split_feature=144 144 65 18 125 125 15 42 133 144 20 144 13 136 144 7 65 7 20 7 7 136 21 2 139 131 65 138 63 85 18 140 25 125 90 127 65 2 20 13 70 65 7 7 61 125 139 90 136 14 106 11 31 7 63 19 136 141 107 65 11 113 7 140 33 63 139 7 7 63 68 139 8 0 21 143 112 54 11 140 8 139 97 25 8 1 113 2 141 8 75 14 7 71 141 1 143 90 50 43 65 110 21 63 55 3 7 136 61 138 112 8 143 39 53 14 111 56 125 140 91 42 128 50 111 63
split_gain=41774.3 6136.7 4247.47 2415.06 1119.41 1024.29 980.566 613.583 586.781 585.924 464.415 403.659 373.532 297.725 261.111 242.949 354.804 228.144 216.343 216.94 216.244 301.297 206.236 213.297 181.924 168.878 163.578 158.226 152.796 140.431 135.682 132.855 132.13 128.327 124.619 119.65 117.679 116.865 115.196 112.025 111.258 110.743 110.635 103.881 107.53 101.051 100.153 97.5391 96.9393 92.5701 91.0588 89.7469 89.702 89.3982 130.82 87.3283 85.9186 85.5069 95.504 84.0703 83.0974 82.1047 82.0762 80.5693 79.4382 78.3416 77.9916 77.9237 77.6894 92.4575 96.0182 76.8801 76.8367 74.8444 74.405 73.8965 73.5739 72.6854 76.7767 72.4658 71.6625 79.4998 71.4049 70.9686 70.5002 70.1048 70.5962 70.2343 70.6104 69.4526 69.1282 109.411 85.8835 68.9776 68.3516 68.2717 82.7523 67.8595 67.7746 77.5213 67.1979 67.0608 70.7996 77.4418 65.6927 65.1867 64.9415 63.6134 63.4922 67.1349 63.3655 62.3328 67.943 61.9778 70.5393 61.9329 61.6614 67.2993 69.6768 61.4939 60.9987 60.8365 60.8119 60.6755 60.5822 60.1461
threshold=0.55914553999900829 0.39012962579727178 1.5000000000000002 1.0000000180025095e-35 0.47829818725585943 0.010703589301556351 1.0000000180025095e-35 0 1.3502073287963869 0.6877119541168214 1.5000000000000002 0.48468978703022009 0.72147163748741161 0.79649439454078685 0.28995323181152349 12.500000000000002 70.500000000000014 7.5000000000000009 1.5000000000000002 27.500000000000004 37.500000000000007 0.76101309061050426 0.15476191043853763 0.9034201204776765 0.88595333695411693 0.96494555473327648 98.500000000000014 0.99254587292671215 0.51021358370780956 24.500000000000004 1.0000000180025095e-35 0.59081014990806591 0.18804441392421725 2.2201238870620732 290.50000000000006 0.54653540253639232 186.50000000000003 0.95469206571578991 1.5000000000000002 0.66684269905090343 155.50000000000003 8.5000000000000018 7.5000000000000009 5.5000000000000009 0.18325451016426089 1.3081632852554324 0.7867322862148286 109.50000000000001 0.65463680028915416 0.55649930238723766 0.85805401206016552 0.066589895635843291 1 76.500000000000014 0.44757503271102911 1.5000000000000002 0.61522498726844799 0.70113635063171398 0.035049408674240119 13.500000000000002 -0.096898298710584627 0.93963909149169933 65.500000000000014 0.68135562539100658 0.44741190969944006 0.92432525753974926 0.19491530954837802 9.5000000000000018 9.5000000000000018 0.55521932244300853 1.0000000180025095e-35 0.71579667925834667 126153.50000000001 0.24116759747266772 0.18333333730697635 0.56416991353034984 0.084498167037963881 0.51867997646331798 0.053911002352833755 0.71733060479164135 242551.50000000003 0.96454367041587841 0.1444199085235596 0.079212799668312087 89253.000000000015 0.44606363773345953 0.79917442798614513 0.70991116762161266 0.84373587369918834 94899.000000000015 328.50000000000006 0.6379784643650056 7.5000000000000009 43.104307174682624 0.62153404951095592 0.37380740046501165 0.098822358995676055 15.500000000000002 6.5000000000000009 2 8.5000000000000018 137.50000000000003 0.22500000149011615 0.9826028347015382 0.3106346875429154 2015.5000000000002 35.500000000000007 0.58311474323272716 0.040143936872482307 0.28026971220970159 0.084498167037963881 304569.50000000006 0.66331797838211071 0.89247220754623424 0.52674111723899852 0.72091639041900646 0.48137378692626959 0.33928376436233526 -0.48445150256156916 0.66954186558723461 0.31244567036628729 3 3.357789278030396 7.5000000000000009 0.59696415066719066 0.43144088983535772
decision_type=2 2 2 2 10 10 2 9 10 2 2 2 8 2 2 2 2 2 2 2 2 2 2 2 8 10 2 8 2 8 2 10 10 10 8 10 2 2 2 8 8 2 2 2 8 10 8 8 2 10 8 8 1 2 2 2 2 2 8 2 8 10 2 10 2 2 8 2 2 2 2 8 2 2 2 2 10 2 10 10 2 8 10 10 2 2 10 2 2 2 8 10 2 8 2 2 2 8 2 1 2 8 2 2 2 2 2 2 10 10 8 2 2 10 2 10 10 2 10 8 8 9 10 2 8 2
left_child=1 6 8 4 7 9 14 -3 10 12 20 22 31 18 -1 16 59 26 19 36 40 27 23 32 35 41 74 -22 30 -12 73 48 57 67 -18 65 43 45 -8 97 -2 42 -16 89 105 72 77 56 50 -28 113 -24 115 -31 124 85 -43 -9 -59 -13 -23 -60 80 83 -36 123 -15 -6 -42 70 -70 -44 -7 -19 -14 79 -29 78 106 -75 81 -33 93 107 -39 -5 87 88 -87 -11 91 -49 -93 -66 -34 -54 -97 -25 99 -95 125 -26 103 -103 -58 108 -30 111 109 -45 -50 112 -61 114 -4 -41 117 -21 -119 -51 -73 -48 -10 -17 -55 -69
right_child=2 3 5 55 33 37 38 11 122 13 29 15 17 66 25 24 34 28 -20 116 21 60 51 39 101 -27 49 76 46 53 -32 62 94 -35 64 -37 -38 84 -40 52 68 47 71 44 -46 -47 121 90 110 119 -52 -53 95 54 -56 -57 104 58 61 63 -62 -63 -64 -65 82 -67 -68 100 69 -71 -72 120 -74 75 -76 -77 -78 -79 -80 -81 -82 -83 -84 -85 -86 86 -88 -89 -90 -91 -92 92 -94 98 -96 96 -98 -99 -100 -101 -102 102 -104 -105 -106 -107 -108 -109 -110 -111 -112 -113 -114 -115 -116 -117 -118 118 -120 -121 -122 -123 -124 -125 -126 -127
leaf_value=-0.046782235290214115 0.035908907645544046 -0.041547618220732357 -0.032427440318108854 0.03415209353213957 0.020099857038760112 -0.049657411514909232 -0.0029592482266047743 -0.038636096673199179 0.039249580380841427 -0.050452939868454352 0.040650113215706024 0.019552982460408954 0.01852303357747654 -0.029829712185548196 0.0092091011070612495 -0.032137466414738497 0.024439296689136778 0.0014839455907516641 0.037095293866599176 -0.050323727002002487 -0.013282138480269849 -0.050421233882148656 0.019257397044086567 0.039513773111414803 0.017063338078705633 0.02575925731875707 -0.020555450763398264 0.025296135775231328 0.0046405177330876429 0.033952051510403078 0.019355666114454974 -0.012430392434518933 -0.02584351513318723 0.033864844259326315 -0.045342467207194787 0.023446722959522038 -0.026933122810184437 -0.050195081777003853 0.03628108968481368 0.0056508061660242069 0.032701457071972674 -0.049094071976296144 -0.042390741096197525 -0.029136633121451445 0.023429407212205641 0.029038761069288228 0.017656264621842326 -0.042658754109697612 0.015689968939289489 -0.0042330619475169215 -0.032692060107425334 -0.045056599281630361 0.0010705693234943862 0.01461639764296601 0.029788470337652119 0.042956505396178943 -0.048946082254340349 0.009356987912594341 -0.030619672339460221 -0.042880516154238039 0.026450103049591757 0.03096389229949716 -0.032399541780207736 0.016874426542434262 0.0051715222293585404 -0.0036502869070828693 0.027738128395062601 -0.012657672066532217 -0.0034460704025341352 0.028855388877877232 0.026891983966896356 0.0086923489071252542 0.015883617004638913 -0.037910365227948134 0.040568977112977696 -0.0072546512075828962 -0.020930463806569554 0.0098177475562634814 -0.04982979872377833 -0.0084198101515396227 0.012000879261869497 0.02536778642003587 0.016278487110843915 -0.049497247937600221 0.0335084987072354 -0.050791132172936952 0.03492965188082655 0.017792785070687499 0.0088308267236272015 0.021812016845992287 -0.042449297624070167 0.0085068932904635904 -0.032699629241067195 -0.0072718497794801735 -0.003629292889029594 0.012726277954984719 -0.033866926078373237 -0.027894416607137231 -0.010734950598727021 -0.037275918422951547 -0.019839414274815705 -0.017430856984215638 0.016340726393036298 0.022528429035498929 0.018082752243842509 0.018001113519828967 -0.038029021913959175 0.010906846126435915 -0.026518458081553443 0.0085035766958090273 -0.010925590229150415 0.012326769454067811 -0.0011706324661381357 0.0044759934407925511 0.038160129728145892 -0.048945290961788068 -0.050294923582873054 8.5455273289536577e-05 -0.050342424723348267 0.018220352335748379 -0.027121153764268796 -0.0074312725419973889 0.044776843684471934 -0.017025875835403034 -0.02440064866832892 0.025079257868541802
leaf_weight=5899.1665913844463 662.03307201914868 711.05174295870302 79.563779040354348 232.06402770262139 186.719932148937 11.385890520320116 112.57009550231396 831.14565561467521 2439.1788233014722 8.4513329327260163 1984.3535614755892 292.61252396685222 746.69977870891194 14.908608540650674 48.861383922378536 600.06709453150415 45.493702853840659 248.26403037151886 158.7829275568547 24.01701380987015 285.15469065495927 8.9272605944715888 93.634713686415125 9.6003092179198557 73.718240090238396 25.845591703087848 88.720587957719545 133.39862756827642 89.098787985010858 655.13668960884388 114.33953966798617 216.5838525463264 204.03317278983195 188.27267598998696 61.724544361721655 32.270535756772006 48.637369187672448 6.3264821970860785 79.976763655878131 251.57259928750545 269.95763957834538 28.431748255254206 178.23629918670849 38.609919932730918 129.60040919952735 600.48844226753818 499.44282897558833 172.0335176492963 70.551940016161097 135.41557482086409 259.23624645359769 15.857506264067522 78.891055403510109 47.311535156572972 180.2167982549945 277.00869825389964 11.507248154938678 43.80370142719994 524.27330033430644 55.011506725772051 567.41754549608322 13.889089994925596 44.097947378526897 153.41553339745951 70.942853877543257 92.083974407053574 1095.7155570297682 43.741140154560526 190.59746423947581 205.53036314328233 99.104115271227784 38.805479347179244 616.70708818178082 132.24265428188846 109.74310563725157 306.07118696204725 25.65783856208509 138.966134175344 31.691950948899148 85.907437796693557 273.82950115156905 41.430722360809341 41.014501635625493 21.287261384206431 1061.6791927183594 24.280158319728798 64.943908393935999 77.283406256607122 25.404062417645036 504.68658794737075 2366.8006419245789 63.436729691657092 63.014410147741728 73.052383281616585 150.37141649787281 28.130587316045421 155.61911279113065 336.42551342918728 217.38809335945007 204.42503375450042 81.298715863496909 299.68647824253139 58.909865765604991 33.723417654858167 44.393894420287324 69.110073461024513 29.731924006460304 125.00426381464331 88.213875442072094 127.13536804109208 269.31893997168072 40.880769500650786 43.877335543470508 94.159044011794322 9.9553118401872762 13.692904195171648 28.871783787488312 151.22830947441344 19.311671855225995 174.43236226022691 127.01100503216821 67.391419178574779 2539.1443735964858 229.60404041643187 52.441481222891525 66.571929633832951
leaf_count=8475537 18284 709724 44235 3734 55800 7803 11400 1179294 47651 1771 20924 65035 116342 2671 27513 623098 9761 110507 2706 7720 73825 2240 8242 940 12268 7834 30213 8027 23374 20370 3506 95577 215450 32125 56845 6308 9160 2285 2896 139783 9098 30505 245380 8263 7955 52537 83022 233917 12190 44982 169982 4655 46933 4380 7066 2559 13031 24518 635550 48084 37464 1870 29490 39045 23969 40149 50894 31514 33385 10223 3485 14524 135631 117747 580 170885 4149 33656 21444 44568 68360 6156 12113 19425 59670 2858 1088 2806 1056 29126 3407731 33292 80800 37540 113854 14293 173502 373866 121123 152852 84122 222549 4603 7290 15183 6039 17889 39606 16973 13395 105231 12892 19893 31654 605 20529 7408 24399 3877 29924 122252 23165 13094 210078 11210 16387
internal_value=-1.18557e-10 -0.0288258 0.0249091 -0.0121705 -0.0166653 0.0125117 -0.0424877 -0.0196795 0.0358866 0.00767631 0.0301525 -0.0168074 0.00213541 0.0173047 -0.0436732 -0.0102717 -0.00305903 0.00706322 0.00962251 0.00609856 0.0221213 0.013334 -0.0236781 -0.0250717 -0.0176167 -0.0378844 0.0151908 -0.00213868 0.00121163 0.0368862 -0.00606163 -0.00873829 -0.0300671 0.0169993 -0.0155977 -0.0238708 0.0110102 0.0269641 0.0133397 -0.0149686 0.0284047 -0.0384079 -0.0259929 0.012921 0.0041915 0.021706 0.00874397 -0.0401819 -0.0154438 0.00196028 -0.0231504 0.00994295 -0.00772202 0.0288989 0.0170743 0.0320399 -0.0137112 -0.0334902 -0.0261409 0.00917051 0.0252594 -0.0290303 0.000375428 0.00225765 -0.0183221 -0.0255274 0.0269654 0.00860631 0.0219122 0.0160308 0.00693229 -0.0309922 0.0146955 -0.00982377 0.021348 -0.015179 0.0178392 -0.00321975 -0.0152563 -0.026297 0.00309297 -0.00636095 -0.0155737 -0.00558138 0.0330127 0.0249074 0.0137286 0.00288427 -0.0203058 0.0206218 -0.0410195 -0.029682 -0.0120276 -0.0178826 -0.0164182 -0.0177079 -0.0267339 -0.0260242 -0.0211876 -0.0293766 -0.00259381 -0.00481409 -0.00892493 -0.0133891 0.00428487 -0.00352586 -0.00603557 -0.00205064 -0.009384 -0.000264609 -0.00540061 -0.0136393 -0.0243737 -0.00968378 -0.0245775 0.00272967 -0.016202 -0.0111427 -0.00562492 0.00840734 -0.0187398 0.014854 0.0420687 -0.0279555 -0.00589538 0.0101159
internal_weight=36362.2 16855.9 19506.3 7595.77 6894.79 9160.75 9260.09 6328.19 10345.6 6864.17 5367.24 5617.13 4356.89 2507.28 9067.54 2866.19 1446.13 2998.16 1396.66 1237.87 2447.78 1020.56 2750.94 2641.45 1420.06 3168.38 1255.01 444.211 1743.15 2919.46 886.825 1358.73 1767.52 566.604 714.041 954.026 1014.44 2296.59 192.547 873.932 1427.22 3142.53 392.914 965.808 452.67 1228.58 856.323 2749.62 782.785 398.569 442.914 109.492 527.906 935.107 279.97 700.984 84.3329 1413.11 581.966 732.089 576.345 538.162 575.942 439.477 668.547 921.755 1110.62 378.332 765.19 495.232 289.702 344.053 628.093 772.485 856.443 524.221 159.056 289.489 150.523 218.15 531.844 258.015 606.823 286.061 1068.01 423.976 191.912 126.968 49.6842 513.138 2665.29 298.485 126.451 565.808 354.405 262.641 183.75 346.026 494.866 277.477 191.612 466.038 392.32 333.41 55.9011 323.069 118.831 264.774 253.959 165.745 339.871 139.77 98.8888 183.678 89.5191 265.266 223.429 194.557 170.54 309.848 165.816 566.834 4978.32 829.671 99.753 110.313
internal_count=20613815 18403373 2210442 5681578 5667477 1885567 12721795 5447529 324875 1627641 264130 4737805 1435284 192357 12707499 1784526 658183 871804 138792 136086 200180 125705 2953279 2940382 1126343 4231962 222041 86001 649763 63950 447213 563480 2170536 219948 414203 879633 92682 257926 14296 769846 74475 4224128 409669 83522 52625 195971 202550 3814459 363897 105119 246476 12897 395040 43026 22656 14101 58719 1841232 661938 243980 39704 637420 199583 178945 404442 873325 53565 187823 56191 47093 36870 382156 143434 443707 116922 333200 12176 96363 62707 162315 170093 101733 347597 139900 61955 11542 7808 6720 3914 30897 3755740 348009 114092 335484 329304 234728 187795 374806 311515 190392 132023 246710 234442 229839 28214 44670 41263 120475 38631 21658 117421 80869 67977 76494 44840 160312 43404 35996 28276 74906 136776 106187 60745 833176 15590 47901
cat_boundaries=0 1 2 3 4
cat_threshold=200 79 2 545
is_linear=0
shrinkage=0.025


Tree=2
num_leaves=127
num_cat=5
split_feature=144 144 15 144 21 85 125 70 125 7 2 144 65 139 144 7 125 65 7 144 42 18 112 2 65 139 7 140 6 18 7 143 129 140 13 139 52 7 111 128 65 2 128 7 12 65 65 31 25 57 54 139 15 7 43 125 8 2 106 138 7 2 144 77 27 7 143 61 65 142 65 64 31 122 7 34 3 10 140 13 14 7 35 113 133 72 112 65 77 55 64 73 64 39 65 64 125 34 140 112 73 92 113 52 53 108 8 77 132 57 108 127 78 13 13 96 68 96 53 25 52 125 31 120 7 91
split_gain=42667.9 4429.82 4231.95 2320.17 1223.85 1129.06 818.708 753.938 572.522 478.419 384.904 315.995 313.729 221.97 200.988 196.017 181.782 165.73 163.35 162.892 158.98 156.941 155.954 149.789 146.982 128.872 126.641 115.008 112.694 104.166 99.7907 95.8725 94.2893 93.4713 94.1478 88.6959 88.6948 88.1319 87.7683 87.6885 86.6415 100.768 84.555 84.5413 81.8309 83.9118 79.8194 84.8201 78.4809 88.2654 76.5211 74.5491 74.3732 74.0527 73.4868 72.4441 71.9852 71.9436 90.6864 71.5358 87.0318 70.5779 77.8391 69.4117 76.1343 68.8374 68.0129 67.5827 67.4941 64.9487 85.0574 83.3433 78.9915 63.3013 62.8751 62.1379 62.0482 61.6991 61.6642 61.3809 63.8296 78.9137 63.4868 61.3803 61.2374 61.0445 60.7457 60.112 63.3026 59.8775 59.4486 59.2296 58.6517 58.4097 58.2441 57.9121 56.767 75.5721 70.2544 62.9193 56.729 75.5661 55.4982 54.6813 54.3905 52.5912 56.3225 52.4877 52.015 51.9449 51.8956 51.8442 51.4942 51.1688 51.0092 52.6864 50.834 50.799 77.092 50.7975 50.7628 59.1249 57.5405 50.6408 49.7083 49.3897
threshold=0.52159261703491222 0.63320511579513561 1.0000000180025095e-35 0.38622198998928076 0.15476191043853763 58.500000000000007 -0.43030589818954462 69.500000000000014 0.95759481191635143 5.5000000000000009 0.78989815711975109 0.74402260780334484 61.500000000000007 0.8341740369796754 0.28995323181152349 46.500000000000007 1.3081632852554324 8.5000000000000018 22.500000000000004 0.48468978703022009 0 1.0000000180025095e-35 0.10917770862579347 0.77388921380043041 24.500000000000004 0.74333208799362194 15.500000000000002 0.76411622762680065 1.5000000000000002 1.0000000180025095e-35 24.500000000000004 0.41418863832950598 0.57527524232864391 0.59081014990806591 0.63729387521743786 0.82184213399887096 0.44800516963005071 64.500000000000014 0.51990348100662243 3.029487252235413 15.500000000000002 0.97530490159988414 4.5800025463104257 3.5000000000000004 0.66607567667961132 9.5000000000000018 32.500000000000007 1 0.23110590130090716 2.0137751102447514 0.58877322077751171 0.73144274950027477 1.0000000180025095e-35 14.500000000000002 2 2.6791217327117924 366560.50000000006 0.8344748616218568 0.82285419106483471 0.92942169308662426 78.500000000000014 0.90577137470245372 0.5106618106365205 0.032393455505371101 1.0000000180025095e-35 2.5000000000000004 0.39809411764144903 -0.059683395549654954 200.50000000000003 0.87829318642616283 14.500000000000002 4.5000000000000009 3 24.500000000000004 14.500000000000002 2.5000000000000004 2010.5000000000002 -0.099401909857988344 0.79087570309638988 0.76673570275306713 0.64176133275032055 7.5000000000000009 1.5000000000000002 0.92360466718673717 2.7415425777435307 37.771492004394538 0.08371260762214662 200.50000000000003 0.058663964271545417 0.17917063832283023 4.5000000000000009 0.46715487539768225 4.5000000000000009 0.870142161846161 2.5000000000000004 1.5000000000000002 -0.12109650671482085 4.5000000000000009 0.79861918091773998 0.074622541666030898 0.45683404803276068 0.21822595596313479 0.85510191321372997 0.41769817471504217 0.49967226386070257 0.90238365530967724 166699.50000000003 1.0000000180025095e-35 1.4519094228744509 8.4059448242187518 0.94896030426025402 -1.0515162348747251 0.8915005922317506 0.57761174440383922 0.78218680620193493 0.42049232125282293 1.0000000180025095e-35 0.40933564305305487 0.50189048051834118 0.24399235844612124 0.45017527043819433 -0.5011996030807494 4 84.500000000000014 41.500000000000007 0.52037450671195995
decision_type=2 2 2 2 2 8 10 8 10 2 2 2 2 8 2 2 10 2 2 2 9 2 8 2 2 8 2 10 2 2 2 2 10 10 8 8 10 2 10 10 2 2 10 2 8 2 2 1 10 2 2 10 2 2 1 10 2 2 10 8 2 2 2 10 2 2 2 8 2 2 2 2 1 10 2 2 2 8 10 8 10 2 2 10 10 10 8 2 10 2 2 8 2 8 2 2 8 2 10 8 10 8 8 10 2 10 2 8 10 2 8 8 8 10 8 8 2 10 2 8 8 10 1 10 2 10
left_child=2 4 3 14 6 42 10 38 11 12 18 21 63 27 -1 -4 31 25 24 -14 28 23 76 26 33 -16 52 50 40 30 -6 -8 79 34 -2 96 43 105 57 51 59 53 84 -27 -20 116 47 124 110 -50 61 -17 78 -42 74 -10 94 58 -5 60 -12 107 -63 64 83 93 -34 95 77 71 -71 72 -30 -13 90 -73 103 -43 -7 -19 -81 87 -83 114 123 -39 -22 88 -82 -69 -29 -67 -68 -26 -52 -25 -28 99 -99 -98 101 -21 -37 -15 -104 106 -33 -11 -88 113 -49 -48 -93 -32 115 -9 119 -36 -119 -46 121 -35 -122 -3 -24 -80
right_child=1 5 15 7 29 8 16 9 55 13 20 73 19 22 17 39 -18 32 44 100 86 -23 46 67 65 36 35 54 69 -31 109 37 66 120 117 102 -38 85 -40 -41 41 68 -44 -45 45 -47 111 48 49 -51 56 -53 -54 -55 -56 -57 -58 -59 -60 -61 -62 62 -64 -65 -66 91 92 89 -70 70 -72 75 -74 -75 -76 -77 -78 -79 125 80 81 82 -84 -85 -86 -87 108 -89 -90 -91 -92 112 -94 -95 -96 -97 97 98 -100 -101 -102 -103 104 -105 -106 -107 -108 -109 -110 -111 -112 -113 -114 -115 -116 -117 -118 118 -120 -121 122 -123 -124 -125 -126 -127
leaf_value=-0.045249296218064283 -0.048871763388566886 0.033598432005200851 0.033528494735166364 -0.021548252680204244 0.032841358754839671 0.0068775598059606455 -0.04054295377773165 0.010701896866377623 0.030693439952290093 0.041130982634202999 0.01151302318409498 0.029147746085704553 -0.027098518099380811 -0.027619465306730557 -0.036055853668538466 -0.04025070592746044 0.028524013152482149 -0.042850387644673998 -0.033986242046306958 0.027177992551935311 0.012779515053197708 0.033687933194066759 0.018984044247473672 0.011477555418830577 -0.035405624710769176 0.030545287796710063 0.0064972319856017383 -0.027777689066959134 0.014552858569062316 0.03552242768385374 -0.050819969815284388 -0.02037771966595453 -0.047601153688294276 -0.038583281906061875 0.002669033260243865 -0.020334872797626663 0.027755980429264866 0.0039021261227844815 0.033796259335493607 0.031215704900978858 0.0049288905292361384 -0.049579880297264664 0.040919833879780036 -0.023084011678436021 -0.021673401057687433 -0.029035032318771855 0.030267142989383877 -0.0038878642880585167 -0.033048621784806595 0.0087880606083171678 0.020631456409346178 0.0043752171717507697 0.035431218859904572 -0.030477064506107005 -0.037265595607287427 0.039714682340475066 0.024408630752758488 0.020390643774941847 0.028534233487682022 0.027832954916836197 -0.049461048632077613 -0.031590965170490176 0.0063410507157391216 0.019822360552683684 0.0089692566042846502 0.00808563091552255 -0.047880632384341683 -0.049727680817161946 -0.0061800192359782527 0.026612448892600782 -0.043868881249855912 0.0092408923459294228 -0.024926087072422869 -0.049456280342754178 -0.023506916689933863 -0.030022281510645066 0.015547075086743377 0.01236246885134016 0.026827697358199339 -0.038877234507009646 -0.029355037618102972 -0.046399045946959129 -0.0027703331401074801 0.026719872361301317 0.040697209524818576 -0.048466638995264121 -0.033461416208576594 -0.047227620655967306 0.020750002436475082 0.019205266417460023 0.012530980329568495 0.0051939983967354969 0.015367938993106987 0.011296788711178327 -0.035338170837908245 -0.050235462112685675 0.035668538578701191 -0.040488010507234773 0.0020518917753343515 -0.019793217632477669 0.016757492481558566 -0.015477791723043411 0.0035321843216313321 0.018058201182754471 0.026510322732358205 0.022831726726491131 0.011203691532465813 -0.040323917679885898 0.02608648731519235 0.025617857226134289 -0.03619583097279172 -0.034267193839373149 -0.026049686441020899 0.0060885673288867117 -0.0020486896855264089 -0.045383664937332688 0.039666273501426985 -0.04886198182247297 0.02649351310701345 0.0016480969398243494 -0.016343968346068365 0.04566131424035539 0.020872516740166387 -0.049806157256377596 -0.021331931598037882 -0.050602694080641622
leaf_weight=6058.7844093397089 31.818145496117722 2669.5416735901872 526.46964115397532 82.620879862268339 225.43571493724403 498.86497979003116 22.922577790255673 12.732796879734449 1325.8867473762703 4.9617385479068616 283.51480045549488 1552.0383387760567 659.51450584373106 56.299057813708259 209.66249351589977 27.576471306034364 513.60304400154018 1911.3855827567741 274.23095266945347 29.506307876636129 25.84844689417514 269.11740967365586 59.770363975239889 22.760997992972989 20.977603355200699 21.242534188721038 71.002180404120736 33.438519769551931 93.061317682255321 654.9405140980889 10.457583855668416 37.732172131105472 24.62628436039995 21.806712270588836 185.41524635776068 40.4265856966922 35.820862626367671 31.858260198256175 105.2667117057772 66.186625677160919 63.733314591523595 10.240895564720629 3357.7834922856491 135.92939099065188 113.8973974468845 190.6998826269828 7.9575841644982575 36.775517466365272 51.050751669152305 82.374168897069467 13.871679435127588 154.34704367719496 90.601851475264993 87.759232186032932 148.8684901726192 958.58187942612949 22.048866797551455 111.80100934406028 31.103981303709588 194.91264838214192 15.426880208454348 293.40163811654475 38.215599661460146 137.33715253777245 188.44828428731853 40.898885682641776 11.555554943217428 7.9083937542764025 186.81561171847352 58.695038320569438 13.08766633003688 30.201300042212097 35.907729731206473 6.429815385487017 229.58352511694511 151.89104077046886 95.939892523115304 540.32667531113202 162.9083533083849 551.8455921906434 23.051251336561108 88.998644837549364 27.221904603660732 18.639652027704869 1004.0652738329482 24.695882213625737 124.37539832474613 17.06388333796167 49.818864061304339 1906.2192554661119 72.338226310590471 36.012246622957719 44.266016025594581 82.803304529605157 71.607463825905143 16.316777075019672 23.73879981997743 98.228731740677176 32.22359257034077 27.703977827755807 60.086931170464595 215.77343533652947 200.92079515165278 23.101014219522767 94.742895608318577 251.78744383841604 546.15508382804865 1405.470438858425 9.8975948989391309 94.840989373434695 200.41410105014711 349.28973945319194 390.22548143237645 177.20836032740681 47.753435513986915 58.861293137683788 13.794833040637966 30.295387148933514 11.786254386082872 119.73927735342659 24.766923886337281 6.8398874482518286 196.07035592058128 4.5576530150829049 28.100462737377711 5.3166837152784856
leaf_count=8475537 26980 73621 18836 57911 5725 128965 17253 5268 72945 563 66310 76589 657296 45850 265339 10568 58419 2752925 296412 4128 6951 7329 21978 3647 15465 2957 30062 30284 19298 14055 3466 23204 28441 15256 71428 17891 8025 13362 9165 1611 25385 6583 18444 115418 94258 192516 2502 24415 52459 41975 5803 22536 2396 64708 170129 16766 8060 26430 5218 19318 11757 321677 21719 36532 72182 17114 13160 4501 78981 7571 8525 8487 20180 2572 228969 85574 32048 116630 19102 654851 19060 134784 24604 3263 8091 23203 91714 25053 12158 214139 27875 15523 15764 26831 91784 6925 1570 85702 14717 18659 19658 159410 62968 7628 10388 41926 164616 1922642 1690 7057 223900 381308 332808 26889 20222 59630 1064 23966 1758 59173 13599 226 42777 1552 25072 1703
internal_value=3.97716e-10 0.0232464 -0.0320191 -0.0351029 0.00576991 0.0308785 0.000536076 -0.0215465 0.0240693 -0.0240861 -0.00564529 0.0194316 -0.0119868 -0.029285 -0.0425855 0.024895 0.0166207 -0.037466 -0.0139838 -0.0201089 0.00211467 0.0153304 -0.0193726 0.0138333 -0.00785305 -0.0224864 0.00741865 -0.0334944 0.00430591 0.0289331 0.0204368 0.00994026 -0.0396594 0.00191777 -0.00859249 -0.00127675 -0.00774481 0.0112372 0.0149475 0.00657527 0.00765375 0.00298916 0.0380514 -0.0158358 -0.0232762 -0.0165726 -0.0239704 -0.0170674 -0.0219655 -0.0072194 -0.036334 -0.0023893 0.014178 -0.0155817 -0.0226481 0.0344788 -0.0158666 0.00614957 -0.00785059 0.0160494 0.00836646 -0.0375974 -0.0272197 0.0049113 -0.00136204 -0.0165608 -0.0129929 0.018256 0.00680447 -0.00767314 0.0137621 -0.0126197 0.00275676 0.0288234 -0.0161593 -0.0235102 0.00201778 0.0112103 0.0112914 -0.0404631 -0.0344431 -0.0225738 -0.0361801 -0.0154714 0.0354329 -0.0189661 -0.0210041 -0.0049905 0.0049001 0.0189205 -0.000211539 -0.0206524 0.00227493 0.00185666 -0.0262553 -0.0142905 -0.0124607 -0.0198608 -0.02998 0.00580018 -0.00501321 -0.0103464 0.00713881 -0.0143298 0.0108953 0.0132812 0.00916283 -0.0400374 -0.029072 0.0105382 -0.0311866 -0.0328297 -0.0234099 0.00291737 -0.0220609 -0.035409 -0.00696763 -0.00295896 -0.0277564 -0.00972109 0.0128422 -0.0184684 0.0169037 0.0334563 0.0054689 0.0243805
internal_weight=35827.5 20757.3 15070.2 14295.6 6309.41 14447.9 5146.53 5084.33 7411.94 4753.53 3717.77 5127.47 1428.65 3324.88 9211.27 774.58 1428.75 3152.49 1792.08 964.881 1925.7 3569 991.073 3299.88 1079.72 402.655 1346.68 2333.81 1765.57 1162.88 507.943 915.151 2749.83 508.799 259.315 588.988 192.993 892.229 330.793 248.11 1382.73 888.876 7035.95 157.172 712.362 438.131 815.733 458.485 370.615 133.425 1849.58 181.924 757.692 151.493 484.229 2284.47 107.528 225.526 113.725 493.854 298.942 1742.05 331.617 463.773 326.435 570.918 80.4479 1953.21 737.383 382.844 71.7827 311.061 128.969 1558.47 335.36 182.092 175.34 550.568 667.09 2669.39 758 206.155 116.221 137.987 3678.16 56.5541 160.121 89.934 72.8701 1914.13 105.777 467.137 55.8216 103.781 85.4791 39.0778 252.897 181.895 130.452 51.4428 305.367 245.28 336.09 79.4001 295.664 835.675 583.887 1410.43 134.273 282.507 237.19 357.247 426.238 187.666 119.348 71.5941 247.432 227.497 42.0816 233.637 249.484 28.6466 220.837 2674.1 87.8708 168.225
internal_count=20613815 3187235 17426580 17373029 2285991 901244 2228799 4824953 799536 4726229 1886816 709825 1037589 3688640 12548076 53551 341983 4072539 1247154 840492 639662 630664 859135 623335 603731 391739 394123 2829505 539307 57192 43137 283564 3680800 195990 124132 241957 126400 266311 98724 34715 389672 292287 101708 118375 643423 347011 773609 389799 342749 94434 2372248 33104 152166 90093 457257 89711 105647 89559 63129 97385 78067 2266601 343396 197097 160565 407741 57365 229212 202194 149635 16096 133539 39478 79161 287128 94061 85526 123213 149770 3623435 870510 215659 159388 88383 83264 36565 100355 56271 31218 218640 58159 365445 28924 42296 97587 10572 150710 120648 100419 20229 183196 163538 91247 53478 73356 229746 187820 1923205 93404 37412 248315 383810 348331 30355 85120 64898 154495 97152 25724 153431 71858 15482 56376 75173 47050 20805
cat_boundaries=0 1 2 3 4 5
cat_threshold=801 261 1 123 521
is_linear=0
shrinkage=0.025


Tree=3
num_leaves=127
num_cat=11
split_feature=144 15 144 144 15 72 70 18 2 7 113 65 7 139 144 42 144 65 65 2 65 144 144 112 141 139 18 7 140 65 129 48 2 54 7 108 57 54 17 20 7 90 140 70 8 13 30 126 63 133 8 107 2 141 64 31 31 144 31 34 140 2 144 140 31 13 80 65 39 13 39 10 138 80 12 142 64 12 77 64 133 40 5 2 7 93 1 21 97 64 21 5 61 36 96 43 143 7 42 141 2 126 14 140 6 11 140 130 141 25 53 8 141 130 39 138 78 125 72 31 33 31 55 141 139 13
split_gain=40020 4018.34 3713.35 2170.24 1416.36 742.397 661.769 529.943 486.118 428.407 391.147 309.362 239.647 216.26 179.571 161.912 158.397 148.703 145.717 144.142 137.937 136.141 135.045 134.308 122.783 122.04 117.339 115.206 105.587 103.853 99.5738 97.717 89.5514 89.2187 87.8889 87.6295 94.5033 84.6704 83.678 92.4722 92.678 80.3611 78.8754 78.8399 75.8538 75.7997 75.7981 77.0392 74.1227 72.9343 89.5139 78.4553 72.6042 72.4363 72.1847 69.9943 68.5347 67.0083 66.3161 65.872 64.0284 63.754 69.1838 63.7498 66.0282 62.9977 62.8224 62.3749 61.0481 64.7381 60.9807 61.5321 60.6679 60.4901 60.3302 60.1087 59.7487 59.3473 59.044 58.4988 122.148 57.8643 56.7127 55.9523 101.17 85.5255 62.7382 58.4524 55.7038 55.7036 62.631 55.1509 54.8825 54.647 55.2102 54.4356 53.9037 53.7629 64.7649 64.6266 53.6162 53.1732 77.0193 52.8814 52.8193 52.5283 52.4788 52.2129 52.21 68.8877 51.9034 51.7717 51.7495 68.4896 51.6044 51.4552 50.517 50.2528 49.6771 49.3206 49.0278 48.9598 48.0406 47.9326 47.3228 58.4352
threshold=0.52159261703491222 1.0000000180025095e-35 0.66511923074722301 0.38622198998928076 1.0000000180025095e-35 57.551322937011726 69.500000000000014 1.0000000180025095e-35 0.7577352523803712 5.5000000000000009 0.86089015007019054 69.500000000000014 7.5000000000000009 0.8341740369796754 0.28995323181152349 0 0.78208425641059887 8.5000000000000018 28.500000000000004 0.93569064140319835 1.5000000000000002 0.57041829824447643 0.48242966830730444 0.1211795210838318 0.83198788762092601 0.80567395687103283 1.0000000180025095e-35 30.500000000000004 0.77912139892578136 23.500000000000004 0.2105817720293999 1 0.97022315859794628 0.56216847896575939 22.500000000000004 0.90447679162025463 9.4899125099182147 0.58877322077751171 1.0000000180025095e-35 1.5000000000000002 9.5000000000000018 216.50000000000003 0.29890821874141699 19.500000000000004 450933.00000000006 0.45024858415126806 2 0.80733752250671398 0.98799133300781261 0.92750003933906566 336925.00000000006 0.054605245590209968 0.99677419662475597 0.45993472635746008 62.500000000000007 3 4 0.34013566374778753 5 38.500000000000007 0.083455342799425139 0.90577137470245372 0.5106618106365205 0.84207126498222362 6 0.49345090985298162 33.500000000000007 194.50000000000003 0.85998815298080455 0.76230871677398693 0.94540750980377208 0.23968573659658435 0.26421540975570684 346.50000000000006 0.66358119249343883 0.64478054642677318 8.5000000000000018 0.68774253129959118 1.0000000180025095e-35 3.5000000000000004 -0.60062602162361134 0.28991597890853887 9.5000000000000018 0.59901961684227001 31.500000000000004 0.72338128089904796 0.17516233772039416 0.22500000149011615 0.066109776496887221 29.500000000000004 0.53571429848670971 86.500000000000014 0.04217414744198323 7.5110869407653817 0.35298928618431097 7 0.86762487888336193 1.5000000000000002 8 0.21901448816061023 0.84262126684188854 0.69857215881347667 0.6379784643650056 0.25106285512447363 1.5000000000000002 -0.094985477626323686 0.74854895472526561 0.24964532256126407 0.63762229681015026 0.10853152349591257 0.3668316006660462 75606.000000000015 0.90255552530288707 1.3691983819007876 0.95285624265670787 0.046419357880949981 0.90834602713584911 1.6395581960678103 102.57187271118165 9 0.44741190969944006 10 0.29532207548618322 0.03440877981483937 0.78285142779350292 0.5666852891445161
decision_type=2 2 2 2 2 8 8 2 2 2 10 2 2 8 2 9 2 2 2 2 2 2 2 8 2 8 2 2 10 2 10 1 2 2 2 10 2 2 2 2 2 8 8 8 2 8 1 10 2 10 2 8 2 2 2 1 1 2 1 2 8 2 2 10 1 8 8 2 10 10 8 8 8 10 10 2 2 8 8 2 8 2 2 2 2 10 2 2 8 2 2 2 8 2 8 1 2 2 9 2 2 10 10 10 2 10 10 10 2 8 2 2 2 10 10 8 10 10 10 1 2 1 2 2 8 10
left_child=1 3 4 14 5 19 49 10 12 11 16 58 29 28 -1 21 24 25 27 20 -2 31 -13 -15 45 -16 54 33 37 68 101 112 63 76 75 36 81 61 39 40 -6 -20 -24 -12 107 -4 47 72 -17 50 51 -5 -32 92 57 110 -48 -3 74 73 -23 78 -63 64 122 -60 -47 79 -7 -70 71 119 -33 -42 -8 -30 -14 -65 -11 -62 -81 100 -79 84 87 86 -86 96 -82 -9 -91 -55 -27 94 -53 -84 -68 -67 99 -99 106 -19 -103 -74 -34 -69 114 -39 109 -78 -31 -45 113 -10 -22 -26 -104 -21 -117 -29 -44 -35 -25 -106 125 -90
right_child=2 26 7 6 38 8 9 89 15 13 43 22 18 23 17 48 -18 30 41 117 35 60 42 32 115 53 -28 70 34 55 52 46 104 121 -36 -37 -38 44 -40 -41 59 -43 120 111 -46 66 56 -49 -50 -51 -52 93 -54 91 -56 -57 -58 -59 65 -61 67 62 -64 77 -66 97 83 105 69 -71 -72 -73 103 -75 -76 -77 108 82 -80 80 88 -83 95 -85 85 -87 -88 -89 124 90 -92 -93 -94 -95 -96 -97 -98 98 -100 -101 -102 102 116 -105 123 -107 -108 -109 -110 -111 -112 -113 -114 -115 -116 118 -118 -119 -120 -121 -122 -123 -124 -125 -126 -127
leaf_value=-0.043824194497001139 0.026831057246812059 -0.033893167561977869 -0.04958325648736811 0.025582930599357252 0.032914336411880511 0.02620341750978571 -0.043197853178618344 0.039354372795023428 -0.028818592018241058 0.036624157546322866 0.038620383727044974 -0.027659533281405309 -0.034902049679315691 -0.00032535242330561506 -0.033989401116501242 -0.032351111084544464 0.030841282388974572 -0.040208912811730523 0.0098887110381294645 0.019217234801674518 -0.0033025548299741125 -0.026495449066388961 -0.037389319622173241 0.0093548373031838803 -0.049956189435787307 0.0086850315879113439 0.032390263686356481 -0.0019613280546713274 -0.022872973069658659 -0.047967500589277234 -0.030184681526650589 0.0094073435573026921 0.0045949760113970194 0.018280210349397748 -0.031905424880906731 0.017809827612677017 0.013481749567083737 -0.031683242953382255 0.038427143980542477 0.03215724770706993 0.016334598716429782 -0.036245491869732763 -0.04631211617239523 -0.049867102271335742 0.030023639360991339 0.028220967008895786 -0.02106616832283725 0.025616640380049058 0.025326922460638803 0.029940072657124041 0.028156128605926634 0.042173635440970879 0.013183347097595539 0.01144262848197012 -0.031422338654538938 -0.013369522853790748 0.018929655696254162 0.01944174094755903 -0.028197285572402586 -0.034823683504809459 0.020882592929561308 -0.031064724584547593 0.0031296559101889783 -0.033581891675035447 -0.035754726160426367 0.021682839699084477 0.0088194443933212237 -0.044521546262704839 -0.026891114430042464 0.014150078240234379 -0.046567302240166877 -0.0061728407794286984 -0.041503714454404317 -0.050683254083444353 0.0032962484979032879 0.004241284945376486 -0.047231892586257769 -0.044673017210973796 -0.039228862436177174 -0.048959370156666696 -0.049252906633793912 -0.037896279778981606 0.014372077969374645 0.016099536873372278 0.0048158572678792255 0.032459570210569257 -0.040901416595250983 0.031038147622573349 -0.043718021076109649 0.025483188768509125 0.036065731552450929 -0.044245088925848886 -0.045254774715040108 0.001857325264674761 -0.038518771037297603 -0.045760490203304 -0.043319328248902132 -0.035550783131423506 -0.023836962470278472 0.01236130975785169 -0.038257555330757996 -0.044942512298236537 0.031829405277562318 -0.0098266803540776205 0.033926214724491761 0.0021136737023769929 0.013364249972211473 0.01948852946985781 0.0020827808546186872 -0.0073390358036385861 0.017844376994122547 0.030416159414617273 0.0094358313815677483 0.029450127701885744 -0.038453860156754061 0.024288237272903006 -0.019067841508673022 0.031768665253021577 -0.049157705750269141 -0.033118406156166465 0.00077438146355091303 -0.018478484421426043 -0.02668236614553279 -0.038901365163108076 0.017275501713546883 0.0067981032652993205
leaf_weight=6024.9529790622128 237.77703742969516 15.873057081237674 11.703418992563455 39.393928915465949 219.82986956680907 122.48129974033918 35.349191629691632 3016.4780837309554 138.74895869776446 6.4434115850108356 1212.0107358314017 594.49496059273361 57.128450983345829 201.08106991372006 235.06982542136484 99.36774894411792 905.3384463545226 2525.6731334532215 25.60481443548997 668.89857224088428 234.20701921646105 26.870371918899764 46.012456554564778 44.017673589927654 5.8977584503481912 16.74192941122601 503.38528677846261 51.925631111524126 104.03127144542123 8.2102523772846308 67.46002633086573 78.772618847049671 100.63593989856417 112.27393440845844 237.88847985869688 259.52401110527171 234.10294806968705 79.790404822022538 425.08917863167153 712.29297867907735 466.659201821034 301.12822210456534 14.645816083266253 5.0361093617029828 19.887126788089518 178.01646241777235 23.845030384718484 46.606753121263864 16.195073120290544 105.58011964619618 72.319221117119014 5.834252090746304 37.560321343571559 101.10106068735149 22.5254095260143 274.93739004975487 205.8113949606086 203.13792766448751 29.368084296828329 17.094943939297082 482.52215099068144 281.78256707963146 42.567116174595867 57.18288430130815 401.20109969598798 149.92870830017182 246.1253726473069 18.025961825860577 36.109489623094305 71.757422862569911 58.18008862770057 141.98983046976855 41.814626510389644 8.5721218330945685 34.434469564218034 100.43255615059934 38.035124290538079 16.059776328049338 1391.9012835012527 21.549964585614362 9.3245099373161775 33.304819885295728 72.932603394443504 860.50877128576849 27.334767547112278 18.624152794640395 59.811616411751857 76.70634649466956 15.182322865857712 417.53138385759667 2146.2775664172896 12.488052682135274 39.854853432101663 61.975311075011632 57.817658712503999 10.80263724096403 13.050120413197872 19.177043489718926 37.819648797947593 213.35118783933649 26.071537660671311 47.16409940077574 18.842930427104875 155.15359422481561 6.6342587252147487 92.853100201493362 109.59257386286663 14.768994260659381 171.05728626582822 93.706613588530672 85.347084490313136 1590.9213202219289 36.988531091308687 13.867752764516807 29.376659410754655 1594.1813009947864 34.508666855643241 284.02013012084353 5.7765891187227671 166.4042719180311 245.31047837089773 20.885309494649846 48.698378885012971 38.006688906432828 440.38968957147608 249.60422585937158
leaf_count=8475537 32983 4980 6962 5650 3307 16254 33594 18736 101789 571 12714 628000 47699 98700 290922 80445 36129 3497136 12520 100518 119531 15340 55174 23241 3008 8569 12342 35982 90412 8155 68904 25319 53215 32564 277002 56638 72254 97271 4174 25384 50368 371807 18754 2117 3535 8703 14562 6639 3622 8548 11204 226 17250 38883 10807 170767 45758 25422 24182 4208 71554 327150 22119 62480 477980 32884 58743 12914 19368 14620 73345 88330 28773 3389 15146 52745 40283 17490 1952209 15131 6147 24825 26523 104377 7905 1934 38849 2599 11788 10601 22845 13655 39710 26676 46420 12360 6600 14553 30016 69539 16655 65302 3085 72016 1090 34400 31316 6491 86335 56113 24845 75597 12678 2036 26323 150287 29123 12029 2700 189342 115747 15897 45028 41028 81571 85219
internal_value=2.5407e-10 -0.0310814 0.0227622 -0.0340503 0.00950443 0.0037501 -0.0208732 0.0313398 -0.00252018 -0.0233212 0.0266601 -0.011851 -0.0120265 -0.0282914 -0.0412989 0.00536992 0.0216424 -0.0364478 -0.0183056 0.0157483 0.00984567 0.00696928 -0.0207139 -0.0185814 0.018954 -0.0223162 0.0255172 -0.0131713 -0.0325395 0.000957581 -0.0385447 -0.00161006 -0.0231921 -0.00498357 -0.0215744 0.00548504 0.000687087 -0.0351797 0.028693 0.0257881 0.0194178 -0.0326301 -0.00721868 0.0338134 -0.014357 0.0137902 0.00370847 -0.00411096 -0.0223353 0.0126537 0.00496391 -0.0051999 -0.0146742 -0.00619259 0.0111932 -0.00727375 0.0146839 0.0155762 0.00351336 0.0133914 0.0117117 -0.0365631 -0.0265771 -0.0271532 -0.031564 0.00704554 0.0142912 0.0124839 0.0141255 0.000411143 -0.0228183 -0.0189836 -0.00913563 0.0151257 -0.0177167 -0.00955446 -0.0114518 -0.013275 -0.0388793 0.0141174 0.00968237 -0.00623755 -0.00163916 0.0123869 0.00515333 -0.016169 -0.0265615 0.0118678 0.0114511 0.0370516 0.0343423 0.00532029 -0.0292988 -0.0148527 -0.0311226 0.00661441 0.00619413 0.00967588 0.0030171 0.00806315 -0.00359661 -0.0394993 -0.0216675 -0.0165514 -0.00544489 -0.00546796 -0.00117506 -0.0236909 -0.00702747 -0.0188565 0.0109035 0.0301628 -0.0170941 -0.0235239 -0.0072202 0.0237514 -0.00109175 0.0229582 0.0240231 -0.027315 -0.00187845 0.0124999 -0.00864139 -0.0280782 0.0122537 0.00390161
internal_weight=35354.3 14945.9 20408.4 14201 8017.07 6167.53 5039.56 12391.3 4050.66 4696.64 6811.04 1419.89 1837.16 3276.75 9161.42 2213.49 4003.08 3136.46 1238.32 2116.88 1163.96 2097.93 900.464 997.253 3097.74 405.256 744.922 911.587 2279.49 598.843 2731.21 741.609 796.172 493.087 442.352 926.18 666.656 1837.14 1849.54 1424.45 712.156 326.733 305.969 2807.97 114.447 1491.88 552.004 322.348 115.563 342.92 237.34 165.021 105.02 170.186 241.536 368.495 229.656 219.011 519.428 492.326 1356.32 1722.69 324.35 650.895 493.917 449.645 1480.18 1329.45 230.348 107.867 418.5 360.32 275.741 475.231 69.7837 204.464 359.927 156.978 1398.34 1218.57 736.051 432.553 99.795 1302.16 441.652 105.771 87.1464 335.882 714.501 5580.29 2563.81 113.589 56.5968 125.627 63.6519 83.7352 259.175 420.277 270.348 232.528 399.248 2626.19 100.516 196.968 145.277 110.879 373.176 94.5594 302.799 131.742 93.5573 1595.96 189.605 152.617 263.584 1605.86 53.3516 952.919 1599.96 218.33 259.956 133.159 92.7161 44.6409 705.176 264.787
internal_count=20613815 17426580 3187235 17373029 2615829 2524999 4824953 571406 2031927 4726229 519224 1037589 1304226 3688640 12548076 727701 428796 4072539 1050217 493072 380525 643634 817675 859135 392667 391739 53551 665890 2829505 254009 3680800 309570 760435 278891 420159 347542 290904 2409346 90830 86656 61272 384327 189675 90428 107297 236672 193067 132747 84067 98724 90176 78972 86154 100817 41209 203767 60320 30402 219914 57965 334064 2302049 349269 665102 546249 171174 229710 318724 50242 33988 386999 313654 126108 53757 48740 143157 230430 118853 1952780 271410 199856 218650 56373 221007 116630 48688 46754 67942 184725 52182 33446 52538 48279 73322 46646 38883 65343 146992 114108 84092 193825 3594646 97510 100789 95333 47314 177170 103762 182731 96396 33000 77714 116503 103825 145854 155995 32208 112547 152987 225324 134501 48461 68269 42118 178578 97007
cat_boundaries=0 1 2 3 4 5 6 7 8 9 10 11
cat_threshold=817 4 2 328 801 896 261 1 273 2 1167
is_linear=0
shrinkage=0.025


Tree=4
num_leaves=127
num_cat=6
split_feature=144 15 144 144 20 65 70 125 2 7 7 144 65 139 42 144 65 128 65 90 65 139 125 140 7 139 7 144 43 13 85 7 65 141 90 110 63 136 7 141 50 54 138 1 73 72 140 7 31 65 7 7 133 13 65 8 76 7 14 136 91 42 140 2 111 140 133 5 80 97 120 96 14 53 144 8 110 139 50 56 21 77 14 57 21 136 7 61 75 8 142 2 15 57 39 61 9 31 142 139 14 132 65 8 140 71 72 144 31 52 142 107 8 28 139 12 139 137 2 11 87 11 54 126 141 0
split_gain=37339.5 3744.14 3345.16 2007.2 1157.97 650.407 589.068 588.007 421.519 399.04 258.355 243.362 240.404 178.042 161.987 160.33 159.456 144.594 139.852 139.42 133.516 128.854 127.639 111.599 106.206 113.753 104.884 95.5359 94.2829 89.0701 88.7351 85.4956 100.348 84.0102 81.2261 79.2182 78.692 76.6537 76.2937 107.93 74.1929 72.3184 71.1706 70.9925 70.5618 70.5318 68.2621 67.4401 67.225 67.1639 67.035 66.6028 66.4515 65.4937 64.814 68.3668 63.3257 102.768 66.6361 62.7834 60.3717 80.708 59.7725 59.3584 57.5743 57.2542 66.8211 58.226 56.4633 82.4129 56.095 55.9242 69.322 55.5997 55.0276 54.6747 54.1262 53.544 71.689 52.9399 52.9013 52.4297 51.902 51.1682 50.9617 63.0357 83.0033 66.981 64.4831 50.3999 50.372 71.0314 85.3974 52.8818 53.1745 50.3556 50.3229 50.1535 53.7259 49.6899 49.151 56.3467 48.9766 54.5599 49.6176 77.8467 47.7867 47.4488 47.2647 46.9647 49.0103 46.7772 46.4249 71.5523 46.3559 46.217 46.2141 46.1618 46.093 45.576 45.5652 45.2094 45.0005 44.8953 55.4532 56.0332
threshold=0.52159261703491222 1.0000000180025095e-35 0.64769449830055248 0.40606036782264715 1.0000000180025095e-35 1.5000000000000002 69.500000000000014 0.18552836775779727 0.7577352523803712 5.5000000000000009 22.500000000000004 0.28995323181152349 69.500000000000014 0.88992017507553112 0 0.70140665769577037 8.5000000000000018 3.8370078802108769 23.500000000000004 109.50000000000001 194.50000000000003 0.80567395687103283 3.0761231184005742 0.78301706910133373 18.500000000000004 0.80567395687103283 6.5000000000000009 0.48468978703022009 1 0.76673570275306713 29.500000000000004 7.5000000000000009 12.500000000000002 0.70113635063171398 73.500000000000014 182.50000000000003 0.9455753266811372 0.98837333917617809 18.500000000000004 0.88711673021316539 1.5000000000000002 0.59551027417182933 0.94525361061096203 0.93080332875251781 0.57920625805854808 31.458292961120609 0.29890821874141699 25.500000000000004 2 26.500000000000004 68.500000000000014 21.500000000000004 1.7442552447319033 0.78890568017959606 25.500000000000004 111786.50000000001 0.85267800092697155 7.5000000000000009 0.63515055179595958 0.86406889557838451 0.32163631916046148 3 0.40544195473194128 0.9566781520843507 0.51990348100662243 0.76777380704879772 -0.25435353815555567 21.500000000000004 433.50000000000006 0.092058181762695326 85.500000000000014 0.43955680727958685 0.66182538866996776 0.32533095777034765 0.43710981309413915 256873.00000000003 283.50000000000006 0.89751175045967113 8.5000000000000018 0.49535803496837622 0.53571429848670971 1.0000000180025095e-35 0.57906070351600658 8.4527430534362811 0.53571429848670971 0.93828910589218151 37.500000000000007 0.2352361083030701 288.50000000000006 263099.50000000006 0.93633475899696361 0.77388921380043041 1.0000000180025095e-35 6.0777206420898446 0.94828471541404735 0.015825854614377025 0.076120760291814818 4 0.9171714484691621 0.4153613150119782 0.61560636758804332 -1.2304684519767759 1.5000000000000002 397233.50000000006 0.71321839094161998 41.599634170532234 39.445259094238288 0.54554337263107311 5 0.44733625650405889 0.11875286325812341 0.065645605325698866 249806.50000000003 1.0000000180025095e-35 0.72756043076515209 0.55105462670326244 0.60016375780105602 0.24153086543083194 0.60092595219612133 0.096576597541570677 0.01377224922180176 -0.037534022703766816 0.51059040427207958 0.49041149020195013 0.94548493623733532 0.79795414209365856
decision_type=2 2 2 2 2 2 8 10 2 2 2 2 2 8 9 2 2 10 2 8 2 8 10 10 2 8 2 2 1 8 8 2 2 2 8 8 2 2 2 2 2 2 8 2 10 8 8 2 1 2 2 2 10 10 2 2 8 2 10 2 10 9 8 2 10 10 10 2 8 10 10 8 10 2 2 2 10 8 2 2 2 8 10 2 2 2 2 8 10 2 2 2 2 2 10 10 8 1 2 8 10 8 2 2 10 10 8 2 1 8 2 8 2 2 10 8 10 2 2 8 8 8 2 10 2 2
left_child=1 3 4 11 7 17 64 8 10 12 18 -1 65 23 20 24 21 22 35 59 38 79 70 37 44 -26 48 -14 -15 -21 -3 123 77 76 -12 -2 56 41 54 42 -23 81 82 122 53 -36 -29 95 -20 -35 80 -32 -47 68 -10 -56 57 58 -31 121 61 73 117 -42 112 66 67 99 -7 97 84 -50 -73 -37 -68 -28 -30 78 102 -13 -6 -11 -40 118 85 86 120 88 -88 -43 91 92 93 94 -17 -25 -51 -70 -99 108 101 -22 -33 104 105 -104 -69 -84 -8 110 -41 -74 113 -5 -39 -95 -113 -57 -53 -61 -4 -18 -34 124 125 -9
right_child=2 30 5 6 50 15 9 31 14 13 34 16 27 28 -16 90 19 -19 26 29 100 40 -24 47 25 -27 75 46 33 36 51 32 43 49 45 60 -38 114 39 109 63 89 -44 -45 -46 52 -48 -49 71 96 -52 83 -54 -55 55 62 -58 -59 -60 119 -62 -63 -64 -65 -66 -67 74 106 69 -71 -72 72 111 -75 -76 -77 -78 -79 -80 -81 -82 -83 107 -85 -86 -87 87 -89 -90 -91 -92 -93 -94 115 -96 -97 -98 98 -100 -101 -102 -103 103 -105 -106 -107 -108 -109 -110 -111 -112 116 -114 -115 -116 -117 -118 -119 -120 -121 -122 -123 -124 -125 -126 -127
leaf_value=-0.042522889083168203 0.022127057056916328 0.033084117659810466 -0.0062656552546747641 -0.047520756263313452 0.025769772229983071 0.027393609814261602 0.0068646552697812424 0.015903082348080622 0.020165243039459397 0.032728527745313263 0.0092930471247747656 -0.034764003737254648 -0.025288924274150238 -0.037964043090687724 -0.024893700054703406 0.0060444538277838336 0.0082013933111949773 0.036670051106911301 0.014187965130373029 -0.040044885397238703 0.03602597900273799 0.032437541440845992 0.037046443263997759 0.0017831236134298219 -0.0085243246924553342 0.014855506837087723 -0.033256560611587029 -0.037500554958564442 -0.02415418212503298 -0.027869062921425627 0.028411055833338719 0.02632288869347519 -0.0034929539439950748 0.0076049465422077652 0.010595187933527444 -0.047626794800080446 -0.00057907769593517049 -0.0323144356057447 -0.035173683688702342 0.035511451669640474 -0.020232882037265875 -0.031739829135402874 0.0094945993478160479 0.022643832067742148 0.027486695456588869 -0.027712995626489097 -0.0022858599327831007 -0.029561568286294571 0.01218891962207116 0.020307980316919966 0.014589470203446427 -0.0045854093671352531 0.014656785512516807 0.022868425626526735 -0.048627473837735642 -0.048731288217402836 -0.036586301458424599 -0.03674715493323074 0.01256922679856547 -0.045853297416705921 0.022250068413441199 -0.025398508332857742 0.013220716926085098 0.01225708078675667 0.028411667341920122 0.020483848740746258 -0.047403912200511919 0.01099042288805081 0.0032547903011713036 0.023734407039581636 -0.048390848456598683 -0.027449788416588985 0.026791980682248469 0.0047154070711770257 0.021690078983840441 -0.0098792085115570576 0.0075567198187149066 0.02758587875273262 -0.04405647508881641 0.010431617052176254 0.03643385504400256 -0.035979192808651014 -0.029314153611355743 -0.042113981675884593 0.030690361529681118 0.03514410643073488 0.0089277045447073763 0.02395574786490719 -0.050339483146062819 0.0065169094352894256 0.031177086019172486 0.026956230917028159 0.028437295760091352 -0.049683260946159519 -0.035682061315906968 -0.022374756512879866 -0.0276156654557735 -0.042482603426647191 0.0093202870713015515 0.0066320210784431028 -0.0015391133169482007 -0.030952851381885138 0.027770235184299191 0.034134270720821695 0.014640614395805721 -0.036666378361968607 -0.047062146208239619 -0.0020915448391154359 -0.03240076456651101 0.019826351280532555 -0.04841272405403968 -0.035651352752708365 0.015536038267657438 0.0053656440647747066 0.027288812725725937 0.022287152493584331 0.007743476664602982 -0.00023569662064515902 0.020141644797698352 0.02878656868030274 0.028745149657566124 -0.039025164605000023 -0.038402737262831124 0.036489128439012544 0.028998487017340042 -0.025605942902644032
leaf_weight=5960.5953483722005 136.27410657203654 381.38110986150241 23.994787154166261 21.677958480431698 768.93994393603407 83.102475596475415 31.470543005045784 186.03331992261155 473.32798219047527 6.9740045086145983 48.062366886315431 279.86277436466571 477.12700856680294 103.61439083617734 96.123689040956378 219.70872128407973 18.827450971290091 4070.8441013646807 95.823097562933981 2249.9884984637547 8.6372380221000622 26.464903564781707 1267.5004236650821 116.47802156363468 190.49562226143644 409.99908122659053 153.67295446900243 39.868122465872148 292.96663546381478 42.006652742536971 149.67270343511973 97.896956789314572 49.683738956635352 172.16381235773406 34.35071965258976 13.250183446222762 50.707952912322071 13.552762009050637 44.905923248197723 6.5134829410344564 142.9909742577529 41.924935090013605 174.0172902033828 33.728661390607158 503.38469639207142 629.9191651747069 251.03630728252028 198.73305584854643 58.488721871521193 16.750572774122702 212.10193240860099 81.610997685727853 24.017228947857802 404.72907583125743 12.991903330424973 13.444859132294367 653.19565144166336 125.13405601544764 64.68974055554736 6.0366365984700678 67.045317646698095 72.469798389150128 533.0207011695984 46.59815622286078 110.00922120231007 105.22292522912994 7.7844462351022221 11.868859037043874 192.84044660719155 99.264269513574618 6.0315984266726437 125.37784740723328 29.927480010141153 296.7175463288786 96.633895220423256 105.42439633396862 38.00521501165349 174.21753534963136 14.69902460434241 17.193481020432955 467.49710526903618 1484.2334159724178 47.47659244076749 12.700397447155408 1891.1727919564837 290.79391980790024 271.83835894037838 261.99713567508661 11.979138391074228 44.226756088246475 734.53583269915907 1294.7859884197678 255.81071851827801 5.7518870792409871 20.904042009497061 100.42059617811083 75.060488457816973 38.389440138354075 18.563523865865136 147.74528462237777 140.14865474199269 86.134625103819417 15.847704459814848 27.979261987569771 45.508910580738302 44.968327070331725 34.984714685346262 254.69200051679582 40.243153129283201 224.61278873230185 13.087622369796007 27.258520770385076 127.75072812329063 60.923532964994592 20.478203322716581 183.05402285214768 35.075092352013598 140.09835128602754 111.47189549652921 33.416651495688711 731.97132862346371 38.729687337051473 43.096986754600948 152.38154192142974 239.20361083883108 22.818562333073714
leaf_count=8475537 28998 7996 1384 19181 43553 7943 11352 27647 76391 625 19002 355540 495278 105214 80998 49195 10697 26006 27891 3254053 1042 2354 11652 64370 95147 71196 180891 51685 280577 47799 5838 12127 23471 79563 13223 12151 35316 15451 35650 626 109482 52551 45070 4946 35449 664771 125734 234860 22199 7676 26221 20434 9073 50983 8970 9480 785800 166164 26526 7260 14134 53709 120379 16352 8070 22964 7032 3866 49069 12926 3507 97021 6794 114039 20046 87637 16827 18643 10432 8973 8210 2030190 43506 5399 59767 5971 41744 13745 4917 25101 27728 67363 9968 3310 9270 88672 68672 20484 3482 52059 63745 60632 2556 2270 10460 30819 33821 119209 36409 49395 9881 25716 33089 25335 5995 21138 15144 49968 13884 5518 32603 43393 31546 5675 17762 7615
internal_value=1.29412e-10 -0.0302238 0.0220074 -0.0331054 0.00773774 0.0292241 -0.0188535 0.00238732 -0.00192618 -0.0214852 -0.0104403 -0.039372 -0.00975251 -0.0268402 0.00540204 0.0216628 -0.0344242 0.0332113 -0.00336719 -0.03645 0.00682526 -0.0214638 0.0302516 -0.0305911 0.0161759 0.0074387 -0.0115329 -0.0184041 -0.0159559 -0.0373491 0.0247085 0.0182517 0.011108 -0.012123 -0.0221285 0.00542986 -0.030867 -0.0335703 0.00901406 0.00287366 -0.0067738 -0.0343712 -0.00355354 -0.00841708 0.0200904 -0.0243227 -0.00711199 -0.019041 -0.00302634 -0.00160386 0.0275744 0.0157221 -0.0261569 0.0156416 0.0130207 0.00818655 -0.0326023 -0.0213773 -0.00335144 -0.00692575 0.000367608 -0.00346862 0.00926164 -0.0122473 0.0137564 0.0042083 -0.000411118 -0.00705711 0.00887354 0.00446435 0.0277837 -0.00918144 -0.0153464 0.00240049 0.0165391 -0.0237445 -0.0205128 0.0169736 0.00948538 -0.0321481 0.0298019 -0.0356579 -0.0100956 0.00649296 0.0279156 0.0246206 0.0222699 0.0148406 0.0064262 -0.0121004 0.0255858 0.0235115 0.0170026 0.0101908 0.00241932 -0.00940159 -0.0188722 -0.00319329 -0.0217745 -0.00165583 -0.0109426 -0.0248486 0.0128747 0.00307212 -0.00510184 -0.0198752 -0.0323564 -0.00636875 -0.0187305 0.0165877 -0.0205246 0.0011014 0.00609207 -0.00851388 0.00355194 0.0200946 -0.0112331 -0.00448217 0.00969018 0.0173661 0.0276339 -0.0235769 -0.0197087 0.024767 0.0207804 0.0113679
internal_weight=35085.6 14783.2 20302.4 14046.4 6818.99 13483.4 4289.93 5370.45 4222.39 3969.57 1953.15 9756.44 1243.99 2725.58 2269.23 4655.32 3795.84 8828.12 1216.81 3282.73 2173.11 513.11 4757.28 2027.02 1940.77 600.495 631.048 768.031 698.561 3185.72 736.837 1148.06 547.627 594.947 736.349 585.757 935.734 1611.39 1938.19 765.306 216.054 1577.36 521.092 126.509 1340.27 688.287 290.904 415.632 371.951 263.975 1448.54 355.456 653.936 836.889 1172.88 699.556 885.026 231.83 106.696 97.0104 449.483 382.438 686.564 189.589 320.361 475.954 370.731 266.313 432.16 349.058 3489.78 276.128 217.639 309.968 104.418 259.097 330.972 421.118 246.9 297.056 1236.44 1491.21 347.075 205.783 3483.75 1592.57 1301.78 545.815 283.817 86.1517 2714.55 1980.02 685.229 429.419 240.613 216.899 91.8111 249.793 56.953 219.459 234.921 94.7719 232.201 134.304 106.325 60.816 46.8536 302.169 71.7137 244.214 19.6011 92.2611 210.352 82.6015 34.031 188.806 62.3336 153.543 193.083 39.4533 755.966 57.5571 92.7807 600.437 448.055 208.852
internal_count=20613815 17426580 3187235 17373029 2451288 735947 4022265 2373304 2167335 3936590 1392393 13350764 860246 3076344 774942 534651 4875227 201296 686324 4382526 693944 492701 175290 2517815 346679 166343 463293 672697 558529 4315658 53551 205969 147270 453315 706069 223031 1061605 2129913 568525 303337 128188 2108467 243435 59963 180336 687067 177419 387902 194765 155911 77984 45555 673844 144887 265188 188797 1026289 240489 74325 66868 194033 179899 179827 125834 85675 187549 164585 137507 93904 85961 163638 166874 144675 126190 27078 268528 297404 87307 68664 364513 51763 2030815 198365 39717 160131 100364 94393 60406 46661 77652 187972 160244 92881 82913 58465 153042 76348 73035 23966 99820 125419 61674 58232 46105 43835 33375 37687 162715 47761 59902 10507 47654 77605 44516 21446 24448 40860 59448 34318 12778 33987 54090 55017 58699 53024 35262
cat_boundaries=0 1 2 3 4 5 6
cat_threshold=817 4 72 265 1752 73
is_linear=0
shrinkage=0.025


Tree=5
num_leaves=127
num_cat=5
split_feature=144 15 144 144 15 70 72 65 2 7 65 133 139 85 144 7 131 13 144 125 70 15 2 7 112 12 129 126 139 140 140 140 20 7 7 2 54 2 18 7 65 31 65 7 54 7 115 65 63 65 34 140 139 122 113 65 7 125 140 65 72 52 111 8 136 111 144 110 141 91 144 95 39 53 82 136 31 33 34 3 93 6 50 72 76 53 76 73 92 75 48 14 105 77 64 25 14 31 63 50 65 82 42 6 55 1 143 139 27 37 65 2 65 52 13 136 113 7 143 50 65 64 87 107 3 143
split_gain=34897.6 3535.35 3027.33 1843.01 1001.74 585.958 585.82 557.679 386.288 347.984 277.785 218.859 197.161 157.152 149.009 148.189 139.421 131.914 127.766 123.353 119.13 114.562 182.859 112.786 108.204 92.9067 90.8124 89.5011 87.0575 86.8591 84.6115 81.4416 77.2216 95.2569 76.3723 78.0604 84.1715 76.0435 75.547 83.556 74.962 75.2117 73.6573 70.7735 69.91 68.3817 67.1965 66.4103 65.3028 65.0427 64.6214 62.9882 62.2256 61.3713 62.5668 60.7555 66.795 68.1869 65.6232 60.574 60.3493 60.3407 60.5535 59.8473 59.6392 59.3606 58.4346 57.607 57.2728 55.1074 55.0855 60.1791 54.9955 54.7387 54.6016 54.4085 53.6921 53.2537 51.8358 51.6678 51.3353 50.815 50.7183 50.2895 50.0613 49.6466 49.4543 49.4216 65.9843 49.1262 48.6245 48.3227 53.473 48.005 47.9279 47.8682 47.8382 47.522 51.778 48.1835 47.4095 47.1292 63.4726 48.1779 53.4616 47.0852 46.9527 45.7874 45.4715 48.8586 45.4524 44.4971 62.6841 49.0327 44.8426 49.3086 44.2769 44.1945 44.1063 44.0245 43.3475 43.3091 43.2188 43.1074 42.9332 50.6635
threshold=0.52159261703491222 1.0000000180025095e-35 0.64769449830055248 0.38622198998928076 1.0000000180025095e-35 69.500000000000014 57.551322937011726 3.5000000000000004 0.88273492455482494 5.5000000000000009 61.500000000000007 0.079683456569910063 0.8341740369796754 17.500000000000004 0.28995323181152349 14.500000000000002 0.96494555473327648 0.71937122941017162 0.48468978703022009 1.3081632852554324 41.500000000000007 1.0000000180025095e-35 0.88273492455482494 16.500000000000004 0.10917770862579347 0.63109657168388378 0.16961909830570224 1.1824761629104616 0.70431444048881542 0.83801889419555675 0.77912139892578136 0.59906408190727245 1.5000000000000002 75.000000000000014 4.5000000000000009 0.5407620668411256 0.50015032291412365 0.99677419662475597 1.0000000180025095e-35 25.500000000000004 32.500000000000007 0 116.50000000000001 15.500000000000002 0.58877322077751171 22.500000000000004 43.500000000000007 132.50000000000003 0.25205098092556005 200.50000000000003 38.500000000000007 0.71733060479164135 0.95667928457260143 34.500000000000007 0.8828968107700349 27.500000000000004 17.500000000000004 3.3696080446243291 0.84584477543830883 8.5000000000000018 40.386129379272468 0.43216820061206823 0.50111639499664318 450933.00000000006 0.98837333917617809 0.45851612091064459 0.74402260780334484 139.50000000000003 0.5942160189151765 0.34623256325721746 0.67538991570472728 431.50000000000006 0.82820722460746776 0.36611062288284307 0.21253648400306704 0.98048856854438793 1 0.41139675676822668 40.500000000000007 1972.5000000000002 0.75516700744628917 1.5000000000000002 2.5000000000000004 64.104377746582045 0.67427521944046032 0.35368368029594427 0.82866725325584423 0.45683404803276068 0.21822595596313479 353.50000000000006 2 0.61003926396369945 251.50000000000003 1.0000000180025095e-35 28.500000000000004 0.30508102476596838 0.58802258968353283 3 0.65581399202346813 4.5000000000000009 152.50000000000003 0.27223885059356695 4 2.5000000000000004 0.32566019892692571 0.81261122226715099 0.78875562548637401 0.72756043076515209 1.0000000180025095e-35 2.5000000000000004 59.500000000000007 0.68273326754570018 2.5000000000000004 0.42370772361755377 0.68579560518264782 0.83238187432289135 0.73618200421333324 59.000000000000007 0.31488962471485143 6.5000000000000009 2.5000000000000004 4.5000000000000009 0.2313652038574219 0.025252103805541996 2013.5000000000002 0.51332908868789684
decision_type=2 2 2 2 2 8 8 2 2 2 2 10 8 8 2 2 10 8 2 10 8 2 2 2 8 8 10 10 8 10 10 10 2 2 2 2 2 2 2 2 2 1 2 2 2 2 10 2 2 2 2 8 10 10 10 2 2 10 8 2 8 10 10 2 2 10 2 8 2 8 2 8 10 2 8 2 1 2 2 2 10 2 2 10 8 2 8 10 8 8 1 8 10 8 2 10 8 1 2 2 2 8 9 2 2 2 2 10 2 2 2 2 2 8 10 2 8 2 2 2 2 2 8 8 2 2
left_child=1 3 4 14 6 55 19 13 11 10 77 15 30 94 -1 31 26 61 -12 34 -15 22 23 51 90 79 27 59 -25 52 44 42 33 -3 100 36 85 -28 39 95 41 48 50 -29 64 80 69 -24 -26 78 68 70 -17 66 -55 56 -5 58 -58 60 -16 62 67 120 93 73 -22 -10 -8 -43 71 -9 -39 -33 -30 -35 -69 -7 101 -13 121 123 -18 -23 -80 -36 -51 88 -20 105 -14 -76 -93 -11 -4 -6 -60 99 -99 -70 -2 -19 103 -103 -105 -79 -31 -66 109 -91 -38 112 114 -113 115 -41 -73 -50 -64 -90 -46 -32 -56 -78 125 -75
right_child=2 32 7 5 38 9 8 21 17 12 18 25 24 20 16 29 82 49 87 -21 53 83 47 28 40 -27 37 43 74 106 45 65 -34 75 35 -37 110 72 -40 111 -42 46 -44 -45 63 -47 -48 -49 117 86 -52 -53 -54 54 122 -57 57 -59 96 -61 -62 -63 118 -65 107 -67 -68 76 97 -71 -72 116 -74 124 91 -77 81 89 84 -81 -82 -83 -84 -85 -86 -87 -88 -89 119 108 -92 92 -94 -95 -96 -97 -98 98 -100 -101 -102 102 -104 104 -106 -107 -108 -109 -110 -111 -112 113 -114 -115 -116 -117 -118 -119 -120 -121 -122 -123 -124 -125 -126 -127
leaf_value=-0.0413446900553259 0.021925547295854136 0.019436640721851056 0.0361308209426211 0.024685788796088765 0.03039697741018188 -0.045711594376301921 -0.027092887802986854 0.014472795017723999 0.025017369116723351 0.028112578153615193 -0.02679511954151528 0.029728858970236346 0.0056563157248595668 0.032274315212110757 0.00059717237480294756 -0.028288419787552855 0.039988714060429892 0.025819711073058655 0.023740318657383633 0.023508363906168103 0.020583305804283768 0.030256458460256985 0.024026422801013154 -0.022079772106300057 -0.0248344864808577 0.01613961605803026 -0.028353974446440128 0.0061401877844779731 -0.049273745062270904 -0.0025313507849572476 -0.0347964866244065 -0.02027264902773801 0.03209831630857473 -0.048086144997207349 -0.005362608439455227 0.010928295427859294 0.0059940903856534056 0.027531072977004769 0.030796133614726315 -0.050730293811949712 -0.030555020211376679 -0.0044084012494985791 -0.03238888094400285 -0.042882016135037948 0.015673020852388277 -0.030560056829719458 0.022988183243264886 0.0068006328801688345 0.016317703998787601 0.020176616551839978 0.021572511535592007 0.021500723403669032 0.0021113520741698338 -0.048083375261365108 0.023812866122100023 -0.012750034974048034 -0.038455518811568654 0.027248297852428435 0.03281038884100855 -0.038098650520083738 -0.030889149221253832 -0.046227280757155403 0.017056471197198237 0.023680864140002322 -0.032965193961497524 -0.046436783365279281 0.028312894239218026 -0.018459082161666505 -0.046150391320368522 -0.032352346029907809 0.013124727858419175 0.039251789071049273 -0.029830750841331018 -0.025484047407417078 -0.027022138991709341 0.034899509184041291 0.034021896369151712 0.019651565017696833 0.04354451320427373 -0.025276025436302075 0.023908158120271573 -0.018536856370760642 -0.044512537207676527 -0.05169333964929182 -0.042630464678350022 -0.046563780642414211 -0.022401232586645291 0.012755222429910177 -0.026593247066571343 0.00029552313031469985 -0.027100962486656902 0.013393089772890006 -0.048680101868229887 -0.03580306647833098 0.031259501576519258 -0.05215941898027289 -0.032442073394819908 -0.024754658490784606 0.028409114155169887 0.017255630897620045 -0.00038364172630538736 0.014319413900101934 -0.017474818704982919 0.012673721744437323 -0.036743337964776877 -0.047446891878038494 -0.039399326566168916 0.027130407909996275 0.0067793033333968843 -0.031280556973650335 -0.03414963950872682 -0.050592695305821472 -0.042825464475244213 0.021978758295814936 0.012979201609866859 0.031756846126137182 -0.03580307288226852 -0.019457980797316244 -0.04694992720715474 -0.0036008503044105363 -0.030766171070917 -0.0072557647794619859 -0.048926434794043017 0.0028686044722615951 0.022082759649960974 0.010556498634125201
leaf_weight=5889.7231992033767 353.55670641433608 354.27067508488835 3125.4208478357323 189.07765326371373 278.0516305045021 13.468061962332284 100.35208835947833 36.730956553994474 49.57501742578097 7.3780575477139791 601.31414896997376 12.873601647224858 151.05180097030643 2065.9421023159193 44.22707044357594 620.93803708983614 21.149223293337858 157.23618709230868 28.372578980513936 581.6351536374641 1131.4888835462898 609.31447027112245 1723.728807337885 94.135367419712566 52.993288536647015 228.61871061351303 102.99135991174808 54.675283330097045 10.85209640143148 169.48087607384332 49.937025291948885 41.391795175726656 359.07858781056166 21.197374923161991 32.956211781242018 523.88772145811163 204.75736176969076 33.393077444423398 850.37964446323713 15.288981608155156 340.6107230625712 55.567186849046266 99.092695078679753 27.747240968114056 15.014285024604758 223.82873467416903 18.243414584831044 152.23433936614128 96.439570934222502 23.690933687237703 41.058317576353147 451.6242103304894 45.142621283033805 13.750919126909137 35.716023314838822 55.204422448519836 35.654134053948837 36.458394442171993 21.040235664233482 2497.7242973796347 272.22705198362928 20.976763146740268 8.632555941177996 20.903747460397426 14.876385483490596 14.053850144999158 1329.5558613715166 100.41613655743186 8.3155880476188013 213.87810377342976 257.47826505285957 5.5156503258622251 15.201808915189757 33.583553308202681 22.654564691329142 6.4374771299189879 31.651846821749132 142.3756339548363 5.4106744660020922 62.446895467055583 23.953529556838475 61.851838822190985 5.6187411660430362 4.7163926507901115 19.038399907120041 41.043163548092707 60.820432671105664 63.214122100327586 122.74183070774052 76.187176676314266 34.85737698970479 237.80295393200868 9.0020925723892997 1606.4173750369819 2117.6334888050224 4.4600156577507724 10.539464601301004 76.165464553803758 13.475403332056883 75.504165464546531 71.591009988645965 708.56619423960183 40.047290389811678 29.894394151830056 25.230573564287624 6.8509330887936803 24.741161101086618 16.95506712252427 196.40727899632748 51.215524229850416 19.288492729156133 6.0386831147552584 18.277987219349598 159.80695761625793 111.08396260034715 6.4358953621995161 44.920718911636868 27.802683653637359 30.510307021248082 90.368755940178744 76.929142550296092 125.05832321627622 5.9566609038811285 225.78608805748991 112.1885585183918 88.931527257887865
leaf_count=8475537 45517 28087 18764 25866 8664 13701 85863 8176 7631 677 657296 2287 57061 41375 29099 676131 468 21314 4128 61788 132938 18981 117126 68465 47678 70734 107471 30169 6469 105688 55376 29983 12767 12338 18936 153380 84714 6413 19409 7015 383810 35808 108561 39469 6287 277002 5500 29318 35883 6061 11424 59413 28050 6359 2399 31901 27964 3728 2216 3531286 306154 16695 2144 3535 18578 12760 51399 61679 7672 240311 46584 251 14827 25367 12941 359 2640 30411 59 53507 6622 39975 7183 1109 11197 41453 44627 19658 104676 36523 28465 53066 5532 2278513 26624 858 7049 60358 2360 24495 27839 151659 27774 9283 18759 5736 26737 4281 67644 43082 18410 2295 9299 14620 15497 327 26862 24619 24815 54734 97475 81159 1796 85924 24460 32594
internal_value=-2.20217e-10 -0.0294304 0.0212648 -0.0322712 0.00759192 -0.0199649 0.00255164 0.0281044 -0.00348624 -0.0223485 -0.01193 -0.0112062 -0.0269212 0.0312075 -0.0390158 -0.0149777 -0.0345551 0.00553229 -0.0201122 0.0140009 0.0278256 0.0197756 0.0177902 0.0100372 -0.0176773 0.008206 -0.0350539 -0.036041 -0.0012784 -0.0219386 -0.0311228 -0.00647263 0.0237752 0.0159495 0.0095667 0.00511718 -0.00509727 -0.0161911 0.0260048 0.0192077 -0.021645 -0.0151173 -0.0135909 -0.010363 -0.0335371 -0.021081 -0.022658 0.0226286 -0.00151346 0.0105827 -0.00767495 0.0153583 -0.0262281 0.0241733 -0.00184268 0.0113066 0.0158427 -0.000282112 -0.0152108 -0.0367931 -0.0264887 -0.00467482 -0.00296043 -0.0145017 -0.0348424 0.00368313 0.0247591 -0.000468666 -0.0120606 -0.0265895 0.00730934 -0.00986839 0.00958673 0.00623434 0.0057072 -0.0287548 -0.00347904 0.00330762 0.0123879 -0.0158747 -0.0104165 0.00175532 0.0222514 0.029627 -0.0235596 -0.0282145 -0.0104655 -0.00692367 -0.0120751 0.00470327 -0.000485569 0.00792148 0.011129 -0.0355109 0.0341633 0.0290937 0.0110329 -0.003364 -0.0150804 0.00979649 0.0181689 0.0133024 0.0108537 0.0124056 -0.00994436 0.0165711 -0.00722781 -0.000955189 -0.000765976 -0.012398 0.00253805 0.0103954 0.000581037 0.0193363 0.00655491 -0.0262939 -0.0275952 0.00831189 -0.032834 -0.0168434 -0.0231827 -0.0151148 0.0134156 0.00669888 0.010909 0.000677147
internal_weight=34851.3 14618.8 20232.4 13877.9 6746.23 4913.19 5296.41 13486.2 3467.69 4565.21 1392.52 1868.35 3172.7 9825.46 8964.68 1564.42 3074.96 1599.34 906.011 1828.72 4582.41 3660.71 3046.68 1170.72 991.444 303.939 3048.19 2896.6 374.447 860.303 2181.25 704.113 740.984 381.906 1247.08 821.933 298.045 151.586 1449.82 599.444 805.535 464.924 413.964 82.4225 1758.47 422.778 287.689 1875.96 177.236 1069.94 314.871 796.27 666.081 2516.47 55.4236 347.974 292.77 103.692 67.2338 2814.18 316.454 529.401 508.424 112.847 1645.63 290.149 2461.04 469.281 273.813 269.445 344.646 87.1673 48.5949 276.095 280.312 27.6349 419.706 486.505 985.424 75.3205 198.949 319.29 26.768 614.031 24.4491 73.9994 84.5114 304.697 241.483 473.037 185.909 269.46 246.805 1613.8 5243.05 282.512 31.5797 173.461 89.6409 83.8198 425.148 960.975 803.738 763.691 55.125 149.227 194.222 31.8315 323.81 127.403 224.046 316.932 151.087 165.846 132.809 21.7249 50.4364 124.242 39.1429 213.111 91.9434 174.995 41.6727 257.438 234.704 122.515
internal_count=20613815 17426580 3187235 17373029 2451288 4824953 2373304 735947 1921267 4726229 1037589 1389031 3688640 281654 12548076 1262503 4072539 532236 840492 452037 236266 454293 434203 287759 859135 126528 4064888 3936177 146473 836606 2829505 425897 53551 40784 390249 316893 163513 128711 77984 58575 773609 389799 300733 69638 2409346 420159 281619 146444 108180 290733 192172 141286 704181 194891 10554 98724 66823 40957 37229 3866539 335253 241503 224808 107297 2302049 125164 184337 197849 180748 276119 81873 35289 21240 112404 78008 12697 190218 197097 240045 55794 143157 128539 7651 20090 11256 60389 50688 183196 163538 183396 85526 71539 58598 2279190 45388 9522 9265 94885 62718 32167 73356 228789 207475 179701 28042 36147 132425 22859 147249 79605 103124 49053 32138 16915 22839 7342 27113 60502 26959 159410 103762 136535 4195 88564 82421 57961
cat_boundaries=0 1 2 3 4 5
cat_threshold=285 549 1 86 305
is_linear=0
shrinkage=0.025


Tree=6
num_leaves=127
num_cat=4
split_feature=144 15 144 144 15 65 70 2 7 65 72 144 139 70 7 7 144 131 2 65 139 144 65 7 139 133 18 140 25 129 52 126 136 141 25 18 42 7 13 141 2 7 39 54 95 140 136 56 140 7 8 7 65 50 2 142 65 7 55 7 77 144 44 65 110 39 139 111 40 73 12 21 68 91 19 112 65 39 2 139 8 14 15 92 36 95 80 13 98 34 138 82 39 140 65 7 50 65 72 97 140 72 125 7 142 5 113 140 1 3 55 36 77 50 31 42 2 141 125 12 7 13 10 143 18 2
split_gain=32664.9 3365.6 2750.66 1734.53 871.356 689.803 556.58 419.026 322.056 253.856 233.443 219.287 193.61 190.228 181.74 143.034 132.625 134.789 131.523 124.125 112.758 112.645 109.252 106.597 111.052 101.141 97.0521 84.8958 84.4318 84.2591 83.1147 82.5293 81.9684 79.232 91.2725 78.426 74.8453 70.5507 70.4005 69.8499 68.5355 68.1442 77.9034 64.9765 64.4132 63.5808 63.2128 62.6359 62.4679 62.1968 59.6493 59.3428 59.1643 57.7553 65.0947 57.5072 56.906 56.767 56.7204 56.5824 55.9508 55.6663 69.0272 54.8886 54.6665 57.7894 54.6349 54.6173 60.194 54.2758 53.1729 53.1447 87.8061 64.8929 53.0698 52.8811 52.0139 52.0049 51.4411 50.9588 50.6459 50.4972 50.2689 55.5959 50.6423 70.7291 49.7614 49.5604 48.559 48.183 56.8063 47.7429 48.7378 47.6132 51.0533 80.4703 47.6057 46.8249 52.6005 46.0022 45.9356 46.2176 45.8535 45.648 45.5026 45.2701 44.9333 64.0158 47.7913 59.3364 44.7729 64.4892 44.4715 44.4124 44.2761 44.0558 43.8353 49.5279 43.6683 54.1444 43.5314 44.8826 43.1689 42.8643 42.6311 48.2113
threshold=0.52159261703491222 1.0000000180025095e-35 0.62093642354011547 0.38622198998928076 1.0000000180025095e-35 1.5000000000000002 69.500000000000014 0.88273492455482494 5.5000000000000009 69.500000000000014 44.069576263427741 0.6877119541168214 0.8341740369796754 183.50000000000003 13.500000000000002 29.500000000000004 0.28995323181152349 0.96494555473327648 0.93039408326148998 13.500000000000002 0.98047131299972545 0.48242966830730444 32.500000000000007 18.500000000000004 0.80567395687103283 0.64926576614379894 1.0000000180025095e-35 0.78301706910133373 0.32327750325202947 0.16961909830570224 0.43216820061206823 1.1824761629104616 0.8045102357864381 0.94548493623733532 0.18435934931039813 1.0000000180025095e-35 0 22.500000000000004 0.71937122941017162 0.6174229383468629 0.99677419662475597 3.5000000000000004 0.85905346274375927 0.58877322077751171 182.50000000000003 0.29890821874141699 0.98837333917617809 0.38631138205528265 0.83438673615455639 15.500000000000002 59820.000000000007 12.500000000000002 8.5000000000000018 3.5000000000000004 0.9133562743663789 0.17761021852493289 27.500000000000004 16.500000000000004 0.30181282758712774 75.000000000000014 0.032393455505371101 0.78208425641059887 1 24.500000000000004 193.50000000000003 0.9195983111858369 0.74333208799362194 0.51990348100662243 0.051315790042281158 0.53868648409843456 0.60253411531448375 0.36666667461395269 1.0000000180025095e-35 0.43258446455001837 1.5000000000000002 0.088754177093505873 30.500000000000004 0.82820722460746776 0.7577352523803712 0.95667928457260143 166699.50000000003 0.61093538999557506 1.0000000180025095e-35 0.14835578203201297 9.5095334053039569 427.50000000000006 62.500000000000007 0.73408839106559765 0.706731677055359 19.500000000000004 0.49017712473869329 0.22022336721420291 0.94008442759513866 0.33077046275138861 162.50000000000003 20.500000000000004 3.5000000000000004 15.500000000000002 36.845058441162116 0.095887094736099257 0.56732597947120678 40.386129379272468 4.6184551715850839 54.500000000000007 0.64478054642677318 78.500000000000014 0.80278110504150402 0.85781872272491466 0.67302605509758007 2011.5000000000002 0.32694098353385931 8.0944352149963397 1.0000000180025095e-35 2.5000000000000004 2 3 0.99677419662475597 0.98827531933784496 0.8785841464996339 0.84610915184021007 17.500000000000004 0.81021511554718029 0.27732108533382421 0.11071220040321351 1.0000000180025095e-35 0.70991116762161266
decision_type=2 2 2 2 2 2 8 2 2 2 8 2 8 8 2 2 2 10 2 2 8 2 2 2 10 10 2 10 10 10 10 10 2 2 10 2 9 2 8 2 2 2 8 2 10 8 2 2 10 2 2 2 2 2 2 2 2 2 2 2 10 2 1 2 8 8 8 10 2 8 8 2 2 10 2 8 2 10 2 10 2 8 2 10 2 8 8 10 8 2 10 8 10 8 2 2 2 2 8 10 8 8 8 2 2 2 10 10 2 2 2 2 8 2 1 9 2 2 10 10 2 10 10 2 2 2
left_child=1 3 4 16 7 15 67 10 9 60 33 18 27 -9 19 71 -1 29 23 55 26 -11 39 82 28 30 32 43 44 31 63 52 47 34 51 120 38 104 93 53 -31 42 -21 46 -25 -23 112 89 -43 -33 -13 -2 66 54 -14 -12 -20 -6 -27 -49 106 62 -52 79 -41 115 -18 68 110 -45 -36 72 73 -4 118 -61 122 -42 -22 103 88 -60 83 84 85 -7 -55 -67 -58 90 -17 -38 -93 -15 95 114 -62 -40 -99 -35 -68 -102 -70 -16 -29 -97 107 108 -8 -110 111 -5 -10 -19 -95 -66 117 -89 119 -59 -3 -122 -26 -100 125 -64
right_child=2 35 5 6 57 11 8 13 12 21 14 50 22 36 25 20 17 113 56 41 78 45 -24 24 76 58 -28 37 -30 40 -32 49 -34 99 70 -37 91 -39 97 64 77 48 -44 69 -46 -47 -48 59 -50 -51 61 -53 -54 86 -56 -57 80 74 81 75 96 -63 124 -65 65 87 100 -69 102 -71 -72 -73 -74 -75 -76 -77 -78 -79 -80 -81 -82 -83 -84 -85 -86 -87 -88 116 -90 -91 -92 92 -94 94 -96 105 -98 98 123 -101 101 -103 -104 -105 -106 -107 -108 -109 109 -111 -112 -113 -114 -115 -116 -117 -118 -119 -120 -121 121 -123 -124 -125 -126 -127
